-1.7554e-006	4.20105e-007	-6.10658e-007	-3.35439e-008	-3.70391e-007	-1.00842e-006	3.25007e-007	6.22727e-007	5.59671e-007	1.97108e-007	2.04689e-007	3.56584e-007	5.3856e-007	5.53965e-007
7.65161e-007	1.94753e-007	-1.94922e-007	6.38518e-007	8.53568e-007	9.96089e-007	-1.24695e-006	-9.57468e-007	-7.71439e-008	3.94261e-007	-6.4037e-007	1.21328e-007	-1.95894e-007	-6.50934e-007
-1.56238e-006	3.73192e-007	-4.73892e-007	-5.04482e-008	-3.05816e-007	-8.98656e-007	3.83915e-007	6.0723e-007	5.12572e-007	1.23406e-007	1.21443e-007	2.48184e-007	4.51304e-007	4.6995e-007
4.47046e-007	3.70957e-007	-5.30925e-007	7.21042e-007	8.24112e-007	8.07827e-007	-1.47813e-006	-8.65184e-007	1.14367e-007	5.46015e-007	-7.19655e-007	3.0479e-007	-6.96924e-009	-5.35287e-007
-1.49924e-006	4.55771e-007	-1.03208e-006	7.01364e-008	-2.26388e-007	-7.50511e-007	1.81309e-008	5.37472e-007	5.72232e-007	2.75221e-007	7.88147e-008	4.1445e-007	5.60006e-007	5.25991e-007
-1.11071e-006	3.18589e-007	-4.61804e-007	-9.62492e-009	-3.45831e-007	-8.11172e-007	-5.67723e-008	3.1357e-007	3.96609e-007	2.27548e-007	2.55914e-007	3.86792e-007	4.55264e-007	4.41631e-007
-1.4133e-007	2.00853e-008	1.89447e-007	3.36572e-009	-1.69236e-007	-3.13003e-007	-1.31224e-007	-1.48345e-007	-2.22323e-008	1.15259e-007	2.59413e-007	1.76745e-007	8.37799e-008	7.72753e-008
-2.69466e-006	6.26083e-007	-7.58359e-007	5.07666e-007	2.05073e-007	-7.08241e-007	-1.27068e-007	2.43237e-007	5.76953e-007	6.08403e-007	3.79909e-008	5.97969e-007	5.40087e-007	3.44868e-007
-2.25897e-006	6.03792e-007	-9.57477e-007	4.88887e-007	1.98753e-007	-5.32577e-007	-2.6808e-007	1.68452e-007	5.49341e-007	5.99891e-007	-1.8444e-008	5.97651e-007	5.22779e-007	3.06003e-007
-2.06327e-006	5.67076e-007	-1.08256e-006	3.27582e-007	9.29257e-008	-5.08043e-007	-4.3546e-008	3.60236e-007	5.87307e-007	4.43503e-007	-6.37702e-008	4.78962e-007	5.27288e-007	3.76304e-007
3.88085e-007	2.23647e-007	-6.70804e-007	5.56905e-007	5.83408e-007	5.56707e-007	-1.06075e-006	-6.1289e-007	1.57789e-008	4.54096e-007	-3.97369e-007	2.92558e-007	7.27786e-010	-3.30099e-007
-2.05629e-006	4.13348e-007	-6.32712e-007	-2.64521e-008	-3.58698e-007	-9.4479e-007	3.63789e-007	5.92611e-007	5.36103e-007	2.21323e-007	3.43287e-007	4.01323e-007	5.55122e-007	5.92036e-007
-8.44285e-007	5.9145e-007	-1.41678e-006	6.10174e-007	4.67332e-007	7.5679e-008	-9.28687e-007	-1.87246e-007	4.75145e-007	6.28557e-007	-4.50666e-007	5.49101e-007	4.0367e-007	2.65544e-008
-3.32307e-007	2.57723e-007	-4.70105e-007	4.46652e-007	3.51946e-007	1.1472e-007	-7.20978e-007	-3.87816e-007	1.04211e-007	4.31519e-007	-1.43423e-007	3.44322e-007	1.21765e-007	-1.18229e-007
1.09641e-007	-4.5663e-008	2.62911e-007	1.09444e-008	-1.26292e-007	-1.84796e-007	-1.37712e-007	-2.06924e-007	-1.06729e-007	9.03285e-008	2.13121e-007	1.23443e-007	1.16273e-009	-3.43524e-009
-7.13771e-007	2.04115e-007	-6.22788e-007	3.82035e-008	8.92792e-008	3.30251e-008	2.13141e-007	3.21717e-007	2.72767e-007	1.85474e-008	-2.04838e-007	1.99714e-008	1.73912e-007	1.56719e-007
-1.0334e-006	4.55012e-007	-9.21286e-007	2.50188e-007	1.56551e-007	-2.43373e-007	-2.1695e-007	2.82563e-007	5.01666e-007	2.74045e-007	-3.11946e-007	2.58799e-007	3.60547e-007	1.87582e-007
-1.45603e-006	4.53797e-007	-4.5411e-007	1.0125e-007	-3.10137e-007	-1.09676e-006	3.3118e-008	3.63188e-007	5.12052e-007	3.26521e-007	1.65733e-007	4.38271e-007	5.02403e-007	4.20703e-007
-9.6059e-007	4.84772e-007	-8.51344e-007	3.21089e-007	2.33451e-007	-2.20712e-007	-2.87671e-007	1.56223e-007	4.87688e-007	3.15508e-007	-3.64941e-007	2.61049e-007	3.25146e-007	1.00333e-007
-4.30223e-007	1.67283e-007	-5.7492e-008	8.09498e-008	-1.84161e-007	-4.9797e-007	-1.80536e-007	-6.06102e-008	1.31722e-007	2.2795e-007	1.72137e-007	2.8823e-007	2.05439e-007	1.3728e-007
-1.55072e-006	5.76775e-007	-1.08317e-006	6.637e-007	5.46721e-007	-4.69233e-008	-5.9838e-007	-1.09734e-007	4.44383e-007	6.21876e-007	-3.45671e-007	4.94733e-007	3.54826e-007	3.15865e-008
-8.85947e-007	3.19018e-007	-8.56161e-007	4.00056e-008	-2.83526e-008	-2.78846e-007	1.64774e-007	4.92883e-007	4.36408e-007	8.90041e-008	-2.2911e-007	1.28575e-007	3.22573e-007	2.85176e-007
-2.2869e-007	4.0705e-007	-1.01565e-006	5.68921e-007	7.03894e-007	6.05731e-007	-8.3219e-007	-2.78913e-007	2.89091e-007	3.97088e-007	-6.8687e-007	2.05127e-007	1.11593e-007	-2.46182e-007
1.42675e-006	4.59835e-008	-5.88569e-007	5.62226e-007	8.24631e-007	1.13555e-006	-1.0169e-006	-7.45055e-007	-1.87753e-007	2.86573e-007	-8.20354e-007	2.15157e-009	-2.86747e-007	-6.38485e-007
9.35221e-008	6.09466e-007	-1.09249e-006	6.93102e-007	7.11738e-007	5.77787e-007	-1.62562e-006	-3.64368e-007	4.91641e-007	6.01667e-007	-1.15257e-006	4.32407e-007	3.00642e-007	-2.7692e-007
-8.92957e-007	2.99281e-007	-2.37446e-007	1.92163e-007	-1.25876e-007	-6.72563e-007	-2.26205e-007	1.97264e-009	2.58294e-007	3.46218e-007	1.57231e-007	3.9535e-007	3.07915e-007	1.96624e-007
-2.19248e-006	3.58654e-007	5.01061e-008	-1.53549e-007	-5.8759e-007	-1.42594e-006	5.89934e-007	6.7076e-007	5.06828e-007	1.47232e-007	5.09273e-007	3.5949e-007	5.35959e-007	6.31323e-007
2.31574e-007	4.10944e-007	-8.0071e-007	5.8202e-007	7.1388e-007	6.91436e-007	-1.11163e-006	-3.93852e-007	2.87066e-007	4.06578e-007	-9.02641e-007	1.92027e-007	7.54304e-008	-3.82122e-007
-1.05003e-006	6.18443e-007	-2.11476e-006	6.39063e-007	5.05872e-007	1.23805e-007	-5.98541e-007	8.73355e-010	5.19395e-007	6.53628e-007	-4.50069e-007	5.75536e-007	4.51082e-007	1.25699e-007
-4.31287e-007	6.04993e-007	-2.27618e-006	6.80365e-007	6.08567e-007	3.49287e-007	-6.9768e-007	-8.47189e-008	4.86317e-007	6.49884e-007	-7.95685e-007	5.27775e-007	3.84246e-007	-5.87903e-009
-1.14381e-007	4.19661e-007	-6.1607e-007	6.00314e-007	5.46838e-007	3.3937e-007	-1.20125e-006	-6.37869e-007	2.2024e-007	5.51653e-007	-4.23574e-007	4.16332e-007	1.63863e-007	-2.6513e-007
-7.25101e-007	3.39476e-007	-8.0473e-007	7.43459e-007	8.69621e-007	6.17651e-007	-8.05991e-007	-4.7809e-007	1.15095e-007	5.32836e-007	-4.60311e-007	2.96494e-007	4.36512e-008	-2.84062e-007
-7.10942e-007	-1.14268e-007	-1.71075e-008	-5.68618e-007	-6.66994e-007	-7.39651e-007	1.09152e-006	8.84433e-007	1.61866e-007	-4.02647e-007	4.69475e-007	-1.75431e-007	1.9928e-007	5.89089e-007
-1.29048e-006	5.77056e-007	-1.77877e-006	2.77575e-007	3.9241e-008	-4.07446e-007	-2.61898e-007	3.83825e-007	6.31996e-007	4.35358e-007	-1.71581e-007	5.22057e-007	5.99138e-007	4.43925e-007
-9.41905e-007	2.73108e-007	-7.35928e-008	-2.6746e-007	-7.68159e-007	-1.29128e-006	3.20419e-007	5.15443e-007	4.29147e-007	8.89213e-008	3.76146e-007	3.2628e-007	4.79652e-007	5.33285e-007
-6.8698e-007	2.40964e-007	-2.27661e-007	3.38796e-007	1.03335e-007	-3.38307e-007	-4.11361e-007	-2.15491e-007	1.24472e-007	4.1147e-007	6.88867e-008	3.8351e-007	1.83753e-007	2.46137e-008
-1.94318e-006	6.11542e-007	-1.3505e-006	6.10504e-007	3.90693e-007	-1.95133e-007	-4.32021e-007	4.84971e-008	5.13184e-007	6.64544e-007	-1.96849e-007	6.07563e-007	4.73881e-007	1.97273e-007
-1.00781e-006	2.93185e-007	-3.03189e-007	4.48949e-007	2.26634e-007	-4.17311e-007	-3.69912e-007	-1.71852e-007	1.66542e-007	4.73413e-007	2.18103e-008	4.0432e-007	2.03222e-007	3.19982e-008
-4.94661e-007	3.49493e-007	-7.25672e-007	7.20651e-007	7.64026e-007	4.53507e-007	-8.44387e-007	-5.24215e-007	1.13591e-007	5.51003e-007	-4.42783e-007	3.25528e-007	5.04538e-008	-2.96537e-007
-1.55052e-006	5.88814e-007	-1.08755e-006	2.80098e-007	-1.82234e-008	-6.29085e-007	-2.00149e-007	2.99215e-007	6.13491e-007	4.437e-007	-1.43934e-007	5.01755e-007	5.50295e-007	3.5209e-007
-1.52616e-008	3.68916e-007	-9.34295e-007	6.65718e-007	6.838e-007	5.57194e-007	-1.12618e-006	-5.72058e-007	1.56308e-007	5.54042e-007	-5.1435e-007	3.73266e-007	9.92719e-008	-2.96369e-007
-3.94565e-007	3.60432e-007	-5.25006e-007	4.60907e-007	3.16888e-007	2.04973e-008	-8.47112e-007	-4.25617e-007	2.06254e-007	4.86695e-007	-1.88864e-007	4.19564e-007	2.07305e-007	-9.73799e-008
7.88169e-007	1.79711e-007	-1.68178e-007	6.69857e-007	8.53502e-007	9.6526e-007	-1.19632e-006	-9.50876e-007	-1.14943e-007	4.28619e-007	-6.81318e-007	1.38231e-007	-2.23407e-007	-6.88304e-007
1.405e-006	-2.38851e-007	1.02066e-007	3.23911e-007	6.49867e-007	1.13575e-006	-6.25873e-007	-7.05893e-007	-4.39248e-007	4.21688e-008	-4.0477e-007	-1.94085e-007	-4.52968e-007	-5.97079e-007
-8.28794e-007	6.17071e-007	-1.45922e-006	5.01363e-007	2.73035e-007	-1.31649e-007	-1.00307e-006	-1.15237e-007	5.45801e-007	6.21619e-007	-3.53753e-007	6.37027e-007	5.25362e-007	1.70439e-007
2.29481e-007	3.14722e-007	-5.29168e-007	6.90655e-007	8.32978e-007	7.83554e-007	-1.1304e-006	-7.96796e-007	5.45065e-008	4.81652e-007	-5.95255e-007	2.28508e-007	-6.17983e-008	-5.02636e-007
8.35099e-007	-3.76194e-008	-2.27775e-007	5.37731e-007	7.81771e-007	1.02767e-006	-8.03722e-007	-7.36069e-007	-2.84627e-007	2.6827e-007	-4.80212e-007	1.31402e-009	-3.15774e-007	-5.66055e-007
-1.30415e-006	4.52708e-007	-3.75355e-007	-1.23348e-008	-4.78429e-007	-1.28886e-006	1.60302e-007	4.73963e-007	5.56388e-007	2.52357e-007	1.76839e-007	3.95509e-007	5.23401e-007	4.67663e-007
-1.27178e-006	4.42258e-007	-7.57921e-007	6.49025e-007	4.52554e-007	-1.35607e-007	-5.92341e-007	-2.48648e-007	2.66724e-007	6.38036e-007	-1.88271e-007	5.12042e-007	2.60295e-007	-2.63625e-008
-6.20338e-007	2.6331e-007	-3.25732e-007	3.90692e-007	1.91764e-007	-2.11451e-007	-5.03184e-007	-2.7043e-007	1.2963e-007	4.34614e-007	-1.29271e-008	3.82533e-007	1.72413e-007	-2.08943e-008
-1.00189e-006	1.90164e-007	2.48206e-007	-3.82729e-007	-8.92913e-007	-1.62666e-006	6.47833e-007	6.61657e-007	3.79781e-007	-2.5557e-008	5.36898e-007	2.32679e-007	4.36803e-007	5.95731e-007
9.01579e-007	-8.22026e-008	2.67015e-007	4.71041e-007	7.11284e-007	9.35862e-007	-6.86943e-007	-9.31806e-007	-3.78554e-007	2.15996e-007	-3.14571e-007	-4.47839e-008	-4.02828e-007	-6.61089e-007
-1.18779e-006	3.11626e-007	-1.39709e-006	-1.89195e-007	-4.60113e-007	-7.86316e-007	-5.10232e-008	7.74755e-007	5.31535e-007	8.72855e-008	4.21788e-007	3.75265e-007	6.57358e-007	9.11921e-007
-1.42371e-006	5.44562e-007	-1.07207e-006	2.76478e-007	5.91572e-008	-4.90278e-007	-2.46433e-007	3.32474e-007	5.91582e-007	3.8233e-007	-1.89863e-007	4.15752e-007	4.98525e-007	3.21492e-007
-9.22275e-007	2.28473e-007	-3.24429e-007	-1.48726e-007	-4.78141e-007	-8.48942e-007	8.30631e-008	4.24383e-007	3.56711e-007	1.09392e-007	2.92764e-007	3.05691e-007	4.31743e-007	4.90293e-007
-9.40546e-007	3.72141e-007	-4.12981e-007	1.03944e-007	-2.37362e-007	-7.5119e-007	-1.90627e-007	1.61221e-007	3.99522e-007	3.00801e-007	9.45232e-008	3.94575e-007	4.09659e-007	2.96321e-007
1.53837e-006	-3.71854e-007	1.02125e-006	1.05472e-007	3.96158e-007	8.50961e-007	-3.67128e-007	-6.90209e-007	-5.42374e-007	-1.37831e-007	-2.58143e-007	-3.40483e-007	-5.61182e-007	-6.43e-007
-1.15727e-007	5.34072e-007	-1.2438e-006	7.4394e-007	6.64931e-007	4.34674e-007	-1.27449e-006	-5.54731e-007	3.16839e-007	7.02808e-007	-7.31224e-007	5.46372e-007	2.45299e-007	-2.68962e-007
-3.72926e-007	6.48122e-008	2.11131e-007	-4.38319e-007	-6.19482e-007	-8.34878e-007	5.78607e-007	5.31054e-007	2.45685e-007	-2.28638e-007	2.81331e-007	-3.09204e-008	2.29859e-007	3.82684e-007
-1.1572e-006	3.32726e-007	-6.22326e-007	-4.34956e-009	-1.30202e-007	-4.66758e-007	2.5037e-007	4.6066e-007	4.37079e-007	9.49107e-008	-5.73926e-008	1.71166e-007	3.56133e-007	3.35186e-007
6.29684e-007	5.04284e-007	-1.32923e-007	8.10324e-007	8.57563e-007	8.25313e-007	-1.78055e-006	-1.04977e-006	2.31812e-007	6.80129e-007	-1.31267e-006	4.39895e-007	6.41054e-008	-7.67196e-007
8.23452e-007	-3.45313e-007	5.45979e-007	-3.52337e-009	1.53475e-007	5.15703e-007	-4.63819e-008	-4.2875e-007	-4.70421e-007	-9.96114e-008	1.33628e-007	-1.59923e-007	-3.44227e-007	-2.74086e-007
2.24611e-007	3.86101e-007	-2.64769e-007	5.94141e-007	5.79365e-007	4.77086e-007	-1.49884e-006	-9.20822e-007	1.65217e-007	5.34255e-007	-3.97567e-007	3.9625e-007	1.10214e-007	-3.85244e-007
-4.21199e-007	6.39948e-008	2.65533e-007	-4.41962e-007	-6.54691e-007	-9.96232e-007	6.45355e-007	5.75671e-007	2.53448e-007	-2.25018e-007	3.14357e-007	-2.52619e-008	2.38853e-007	4.07153e-007
-1.85919e-006	5.60732e-007	-1.02194e-006	2.85079e-007	-8.61338e-008	-7.47456e-007	-1.52447e-007	2.6637e-007	5.5993e-007	5.06628e-007	9.78785e-008	6.02174e-007	5.74519e-007	4.13857e-007
-6.96548e-007	2.78238e-007	-2.04014e-007	9.94073e-008	-2.46656e-007	-6.91881e-007	-1.89497e-007	2.30004e-008	2.59878e-007	2.94898e-007	1.61141e-007	3.77545e-007	3.17337e-007	2.17152e-007
-5.40354e-007	2.56598e-007	-2.12377e-007	2.30587e-007	-3.78742e-008	-4.81895e-007	-2.8359e-007	-1.1188e-007	1.81096e-007	3.30999e-007	4.54243e-008	3.3132e-007	2.14634e-007	7.73109e-008
-9.48983e-007	1.50629e-007	-1.2443e-006	-3.38418e-007	-4.89873e-007	-6.78903e-007	3.22426e-007	1.18565e-006	4.55469e-007	-1.48997e-007	-5.89036e-009	1.02962e-007	5.48679e-007	1.08955e-006
-9.18412e-007	7.69069e-008	-3.04915e-007	-4.25836e-007	-6.08843e-007	-8.2136e-007	7.78986e-007	8.78866e-007	3.42724e-007	-2.20944e-007	2.78463e-007	6.58125e-010	3.4535e-007	5.98356e-007
-1.03627e-006	4.72002e-007	-7.65041e-007	6.49515e-007	5.70542e-007	-7.02352e-008	-6.42957e-007	-2.68489e-007	3.02265e-007	5.63367e-007	-3.19512e-007	4.05813e-007	2.25533e-007	-8.65318e-008
-8.61986e-007	1.47415e-007	2.85546e-007	-4.95331e-007	-9.81774e-007	-1.53667e-006	6.90612e-007	6.95546e-007	3.68283e-007	-1.102e-007	5.63167e-007	1.86439e-007	4.30479e-007	6.18473e-007
-7.75164e-007	3.901e-007	-6.17406e-007	5.68116e-007	4.63974e-007	-3.19309e-008	-6.41744e-007	-3.17021e-007	2.22609e-007	5.15311e-007	-2.47203e-007	3.84092e-007	1.84907e-007	-9.86395e-008
-5.28955e-007	3.42191e-007	-4.98985e-007	5.16784e-007	4.12351e-007	1.46119e-009	-6.46232e-007	-3.72932e-007	1.69616e-007	4.72863e-007	-2.27806e-007	3.49299e-007	1.42944e-007	-1.32598e-007
1.07683e-006	-1.31538e-007	1.03161e-007	3.66726e-007	5.99391e-007	9.45938e-007	-7.4281e-007	-7.62822e-007	-3.54829e-007	1.50229e-007	-3.13714e-007	-5.37826e-008	-3.45084e-007	-5.37691e-007
-1.15422e-006	3.78371e-007	-3.38646e-007	3.45238e-007	-2.28504e-008	-7.65314e-007	-2.84061e-007	-4.01156e-008	2.91555e-007	4.8509e-007	1.10244e-007	4.89858e-007	3.35219e-007	1.69634e-007
-9.59656e-007	1.78185e-007	9.55514e-008	-3.43085e-007	-6.03383e-007	-1.02826e-006	5.84169e-007	5.94302e-007	3.53005e-007	-1.05106e-007	3.26113e-007	9.66674e-008	3.41908e-007	4.69591e-007
-1.0154e-006	5.12583e-007	-6.48733e-007	4.045e-007	1.30104e-007	-5.35328e-007	-4.68964e-007	-5.62508e-008	4.37352e-007	4.8159e-007	-1.62959e-007	4.45547e-007	3.69716e-007	1.06243e-007
-6.4343e-007	6.36417e-007	-1.42948e-006	3.79476e-007	1.24852e-007	-1.93523e-007	-1.26534e-006	-1.10906e-007	6.30586e-007	6.03544e-007	-6.3468e-007	7.78817e-007	7.24737e-007	3.9893e-007
5.75371e-007	-3.38301e-007	5.37002e-007	-1.7724e-007	-1.427e-007	1.64671e-007	1.6254e-007	-1.56128e-007	-3.70687e-007	-1.56173e-007	2.82928e-007	-1.14941e-007	-2.09103e-007	-5.72379e-008
8.99093e-008	-1.89852e-007	6.09434e-007	-6.42459e-007	-6.67035e-007	-5.37495e-007	7.5279e-007	5.31753e-007	3.68531e-008	-4.89403e-007	3.89524e-007	-2.71337e-007	5.12505e-008	3.36066e-007
-5.07936e-007	7.11634e-007	-1.23535e-006	4.77123e-007	3.15928e-007	1.5658e-008	-1.97316e-006	1.03305e-007	7.54797e-007	5.75384e-007	-7.65488e-007	6.05884e-007	6.60586e-007	2.61638e-007
-1.72718e-006	3.77233e-007	-4.15142e-007	-1.42847e-007	-5.36244e-007	-1.16046e-006	3.9594e-007	6.28104e-007	5.31346e-007	1.53071e-007	3.61065e-007	3.68926e-007	5.54742e-007	6.11446e-007
-1.2826e-006	5.82861e-007	-1.41892e-006	4.4766e-007	2.47177e-007	-2.32848e-007	-3.37647e-007	1.39932e-007	5.38886e-007	5.23167e-007	-3.65236e-007	4.97487e-007	4.61755e-007	1.9832e-007
-5.52657e-007	-9.62417e-008	-4.58589e-007	-4.53165e-007	-4.66088e-007	-4.90515e-007	1.07252e-006	9.97784e-007	1.75297e-007	-3.83923e-007	1.4097e-007	-2.4115e-007	1.65529e-007	5.90233e-007
-9.85543e-007	4.54339e-007	-6.49515e-007	8.81278e-008	-2.38222e-007	-6.97967e-007	-3.45906e-007	2.47014e-007	5.37165e-007	3.04539e-007	-1.89317e-008	4.27487e-007	5.14309e-007	3.63104e-007
-8.51401e-007	4.63066e-007	-5.38518e-007	3.44524e-007	3.85867e-008	-5.30331e-007	-4.67262e-007	-1.02091e-007	3.85008e-007	4.59539e-007	-1.05119e-007	4.48857e-007	3.52721e-007	1.02421e-007
3.15674e-007	1.26631e-007	-2.76037e-007	2.40053e-007	4.11915e-007	4.85042e-007	-3.09237e-008	4.13862e-008	1.06526e-007	4.71341e-008	-8.36341e-007	-1.56606e-007	-1.26943e-007	-3.47512e-007
-1.24209e-006	4.58249e-007	-2.16282e-007	1.21501e-007	-4.18623e-007	-1.58464e-006	1.00256e-007	3.30098e-007	4.86493e-007	3.68857e-007	2.35699e-007	4.67056e-007	4.8832e-007	4.05098e-007
1.35694e-007	4.91772e-007	-8.95663e-007	7.12391e-007	7.95392e-007	6.84602e-007	-1.1983e-006	-5.56547e-007	3.02965e-007	5.42669e-007	-9.5899e-007	2.97791e-007	9.6392e-008	-4.50169e-007
7.22957e-007	4.34916e-007	1.61584e-007	7.81237e-007	8.56287e-007	8.57356e-007	-1.01067e-006	-1.1621e-006	1.32055e-007	6.18668e-007	-1.46628e-006	3.25151e-007	-1.05641e-007	-1.14552e-006
-8.24602e-007	2.56053e-007	1.26446e-009	-2.35752e-007	-5.24145e-007	-1.24597e-006	4.86707e-007	5.50539e-007	4.00603e-007	-2.07658e-008	2.33979e-007	1.39914e-007	3.56837e-007	4.25338e-007
6.08014e-007	9.0522e-009	-1.92088e-007	5.35735e-007	8.96009e-007	1.09909e-006	-6.7546e-007	-7.10201e-007	-2.3708e-007	2.0253e-007	-5.16839e-007	-8.84386e-008	-3.38949e-007	-5.91381e-007
5.55522e-007	1.8971e-007	-2.38435e-007	5.54416e-007	7.86285e-007	8.67857e-007	-6.97066e-007	-6.37927e-007	-1.92944e-008	2.78515e-007	-7.42748e-007	-2.35568e-008	-2.35184e-007	-6.38092e-007
-1.27018e-006	3.52092e-007	-3.12794e-007	-2.06674e-007	-5.76824e-007	-1.16689e-006	4.14916e-007	6.45702e-007	5.29536e-007	6.56355e-008	2.27024e-007	2.62283e-007	4.9602e-007	5.40157e-007
-9.49544e-007	2.28271e-007	-2.0206e-007	-2.39443e-007	-6.37932e-007	-1.02795e-006	1.90711e-007	4.57812e-007	3.78761e-007	8.47e-008	3.78887e-007	3.28963e-007	4.69897e-007	5.38923e-007
-1.54824e-006	5.07416e-007	-7.14232e-007	5.99142e-007	3.98512e-007	-4.27673e-007	-4.5132e-007	-9.20829e-008	3.76679e-007	5.94587e-007	-1.49729e-007	4.94016e-007	3.36306e-007	7.66151e-008
-5.12215e-007	3.85538e-007	-4.91511e-007	2.90377e-007	5.2369e-008	-2.49558e-007	-8.54232e-007	-3.32044e-007	3.03186e-007	4.44163e-007	-7.53906e-009	5.05697e-007	3.64544e-007	1.01225e-007
7.50058e-007	-3.48643e-007	6.18236e-007	-3.4766e-008	8.20245e-008	3.85689e-007	2.44454e-008	-4.02506e-007	-4.69524e-007	-1.05067e-007	2.1335e-007	-1.46873e-007	-3.29472e-007	-2.36952e-007
-8.99577e-007	4.88051e-007	-1.57388e-006	8.41985e-008	-1.07828e-007	-4.02126e-007	-2.04501e-007	5.30279e-007	6.30592e-007	2.61356e-007	-4.22453e-007	4.18265e-007	6.26073e-007	5.71546e-007
-9.58012e-007	5.68832e-007	-7.88122e-007	2.68703e-007	-1.16506e-008	-5.2044e-007	-5.51248e-007	8.26389e-008	5.95735e-007	4.10258e-007	-2.34184e-007	4.455e-007	4.87347e-007	2.04644e-007
-8.00351e-007	2.79974e-007	-5.08635e-007	6.39489e-007	5.85963e-007	7.49534e-008	-5.77833e-007	-3.62203e-007	8.47997e-008	5.23699e-007	-2.14461e-007	3.47301e-007	8.45959e-008	-1.57291e-007
-3.23135e-007	1.45595e-007	-7.09641e-008	7.78483e-008	-9.85125e-008	-2.66857e-007	-6.46416e-007	-3.14225e-007	9.70515e-008	2.21672e-007	4.17354e-007	3.29409e-007	2.34966e-007	1.96214e-007
-1.5761e-006	5.15133e-007	-7.32047e-007	4.55151e-007	3.9757e-007	-5.50048e-007	-1.5054e-007	1.69169e-007	4.71213e-007	4.07104e-007	-2.22241e-007	3.2536e-007	3.42464e-007	1.47809e-007
-4.53681e-007	6.11339e-007	-1.77617e-006	6.26352e-007	4.88269e-007	1.94386e-007	-7.21324e-007	-1.26734e-007	4.91179e-007	6.60507e-007	-9.55156e-007	5.77437e-007	4.08186e-007	-2.45878e-008
-1.05503e-006	3.24319e-007	-5.64886e-007	-1.54865e-007	-4.98928e-007	-8.92117e-007	-2.06732e-008	5.55968e-007	5.06002e-007	1.2879e-007	1.87935e-007	3.52694e-007	5.50066e-007	5.80723e-007
-8.30515e-008	-1.38339e-008	3.16552e-007	-5.65464e-007	-7.47054e-007	-8.15441e-007	6.52174e-007	5.76198e-007	2.05644e-007	-3.31461e-007	3.1935e-007	-1.01526e-007	1.9503e-007	3.92884e-007
1.12189e-007	-4.39247e-008	1.19784e-007	9.83384e-008	7.95609e-009	5.33884e-009	-1.78361e-007	-2.35986e-007	-1.29968e-007	1.2905e-007	9.65187e-008	1.16092e-007	-3.33921e-008	-6.36363e-008
-2.6688e-007	5.16429e-007	-1.34827e-006	8.03077e-007	7.56077e-007	4.92332e-007	-1.03345e-006	-4.90248e-007	2.83296e-007	7.0205e-007	-7.7801e-007	4.83342e-007	1.81723e-007	-3.01463e-007
1.42795e-006	-4.05555e-007	4.58515e-007	1.6384e-007	6.0506e-007	1.17938e-006	-2.32615e-007	-5.48258e-007	-5.5414e-007	-1.80488e-007	-3.10412e-007	-4.21609e-007	-5.88059e-007	-5.9361e-007
-7.03531e-008	3.76161e-007	-1.08991e-006	7.80872e-007	8.12409e-007	6.52346e-007	-1.00511e-006	-5.76609e-007	1.25662e-007	6.18896e-007	-6.65993e-007	3.71018e-007	4.63673e-008	-3.75753e-007
-1.11868e-006	5.62848e-007	-7.04956e-007	5.03982e-007	2.25922e-007	-5.92427e-007	-4.80216e-007	-7.95375e-008	4.54674e-007	5.44373e-007	-2.18237e-007	4.65629e-007	3.65187e-007	7.14353e-008
-1.11011e-006	2.682e-007	-5.38247e-007	-1.86471e-007	-3.82249e-007	-7.29221e-007	4.47918e-007	6.86607e-007	4.60102e-007	-1.56959e-008	7.75876e-008	1.36092e-007	4.03114e-007	4.82378e-007
7.91277e-007	-2.54021e-007	3.37771e-007	2.86582e-007	5.6029e-007	8.41192e-007	-2.82983e-007	-6.77888e-007	-5.00795e-007	5.099e-008	-9.26478e-008	-1.42954e-007	-4.32802e-007	-4.8401e-007
-8.78902e-007	3.9641e-007	-1.90708e-007	8.43064e-008	-4.53471e-007	-1.2708e-006	8.94279e-009	2.21879e-007	4.09464e-007	3.31221e-007	1.81711e-007	4.20725e-007	4.17973e-007	3.21252e-007
-3.96761e-007	1.21133e-007	4.54345e-008	-1.17739e-007	-4.55533e-007	-7.10797e-007	7.56321e-008	1.52439e-007	1.65985e-007	1.07826e-007	2.62967e-007	2.39884e-007	2.4829e-007	2.61241e-007
1.26432e-007	7.64228e-007	-4.77035e-007	7.45389e-007	6.46265e-007	4.55786e-007	-1.88792e-006	-1.39381e-006	6.23009e-007	7.74433e-007	-1.02745e-006	6.98073e-007	4.86011e-007	-5.33416e-007
-1.00397e-006	6.37786e-007	-1.75548e-006	5.38655e-007	2.73773e-007	-1.78345e-007	-6.49937e-007	-3.67259e-008	5.43807e-007	6.78949e-007	-4.3057e-007	6.85392e-007	5.26441e-007	1.70218e-007
-3.54413e-008	-1.80861e-007	5.4988e-007	-6.83015e-007	-7.29628e-007	-6.02047e-007	7.94267e-007	6.02311e-007	7.27887e-008	-4.98841e-007	4.50019e-007	-2.46948e-007	1.0004e-007	4.07475e-007
5.13735e-007	-2.30315e-007	3.88478e-007	-5.34797e-007	-3.93362e-007	-1.2695e-008	5.69818e-007	3.83041e-007	-4.24081e-008	-4.9608e-007	1.37934e-007	-3.61373e-007	-7.42149e-008	1.52238e-007
-1.51873e-007	2.40963e-007	-5.5467e-007	6.96372e-007	7.44727e-007	5.43112e-007	-8.34907e-007	-6.12608e-007	-1.76687e-008	5.166e-007	-4.20244e-007	2.76137e-007	-5.06116e-008	-3.75328e-007
-9.2795e-007	4.94102e-007	-1.51828e-006	2.91792e-007	1.2114e-007	-2.14828e-007	-1.92598e-007	2.33167e-007	5.01531e-007	3.96226e-007	-3.38537e-007	4.30635e-007	4.54807e-007	2.6879e-007
-4.61238e-007	3.8789e-007	-8.15221e-007	7.79071e-007	9.26067e-007	5.98052e-007	-8.63579e-007	-5.33329e-007	1.44002e-007	5.30056e-007	-5.88993e-007	2.53548e-007	1.18566e-008	-3.68182e-007
8.99169e-007	-1.22584e-007	2.4938e-007	4.56114e-007	7.71492e-007	1.02581e-006	-4.98178e-007	-8.73159e-007	-4.18724e-007	1.47056e-007	-3.38701e-007	-1.41572e-007	-4.71081e-007	-6.85025e-007
8.61447e-007	1.01387e-007	6.95049e-007	5.7089e-007	6.86216e-007	7.89797e-007	-7.16565e-007	-1.59338e-006	-2.61973e-007	3.96637e-007	-2.25652e-007	1.36678e-007	-3.65379e-007	-1.07516e-006
6.88371e-007	-6.51949e-008	-1.31288e-007	5.24437e-007	8.14521e-007	1.07407e-006	-7.4453e-007	-7.5928e-007	-3.23116e-007	2.4004e-007	-4.01359e-007	-2.16224e-008	-3.36746e-007	-5.58301e-007
-1.07462e-006	4.80876e-007	-5.50371e-007	-5.18141e-008	-4.79234e-007	-9.82873e-007	-1.03104e-007	3.8707e-007	6.12631e-007	2.50268e-007	5.43559e-008	4.30634e-007	5.77109e-007	4.49073e-007
1.35157e-006	-4.1066e-007	8.83462e-007	9.85762e-008	3.97369e-007	8.25841e-007	-1.94244e-007	-5.64225e-007	-5.61612e-007	-1.62541e-007	-1.51076e-007	-3.70098e-007	-5.69671e-007	-5.72689e-007
2.75404e-007	-1.48794e-007	1.07668e-008	-1.48883e-007	3.02085e-008	2.03051e-007	7.8623e-007	3.99862e-007	-5.75916e-008	-2.84654e-007	-4.3665e-007	-3.68389e-007	-1.89439e-007	-7.11209e-008
-2.44566e-007	5.81481e-008	-3.30374e-007	-1.35061e-007	-6.55934e-008	-5.69385e-008	3.71486e-007	4.55562e-007	1.95035e-007	-1.59226e-007	-1.85195e-007	-1.40024e-007	8.28749e-008	1.53871e-007
-3.60564e-007	5.99312e-008	2.01449e-007	-2.77393e-007	-6.74104e-007	-9.02886e-007	2.65482e-007	2.8536e-007	1.58367e-007	1.41472e-008	3.96533e-007	2.09085e-007	2.67577e-007	3.57014e-007
9.48229e-007	-3.32226e-007	5.38882e-007	1.97151e-007	4.77906e-007	8.2599e-007	-1.30829e-007	-6.7847e-007	-5.68257e-007	-3.36501e-008	-2.15115e-008	-2.17758e-007	-4.98255e-007	-5.07201e-007
-1.01608e-006	3.07345e-007	-3.41932e-007	-2.42105e-007	-6.41838e-007	-1.07397e-006	2.28565e-007	6.12027e-007	5.09972e-007	6.66281e-008	2.276e-007	2.93371e-007	5.15295e-007	5.55119e-007
4.31844e-007	1.94913e-008	3.93536e-007	3.37379e-007	3.43011e-007	3.67715e-007	-6.30472e-007	-9.85841e-007	-2.45089e-007	2.88549e-007	1.13476e-007	1.85706e-007	-1.76618e-007	-4.42687e-007
-8.56525e-007	-3.08074e-009	-5.2262e-007	-5.62957e-007	-7.10447e-007	-8.25387e-007	6.1262e-007	1.1387e-006	3.65927e-007	-3.3987e-007	3.43731e-007	-3.16667e-008	4.61324e-007	9.30252e-007
-7.08266e-007	2.63414e-007	2.32341e-008	-3.37394e-008	-5.54834e-007	-1.2378e-006	9.47956e-008	2.13777e-007	2.92471e-007	2.46666e-007	3.20346e-007	3.79083e-007	3.63136e-007	3.37718e-007
-4.45161e-007	3.14618e-007	-7.35893e-007	8.1551e-007	9.51844e-007	6.17814e-007	-8.40795e-007	-5.80103e-007	4.5002e-008	5.53881e-007	-5.30843e-007	2.61703e-007	-3.82769e-008	-3.89299e-007
-1.04084e-006	5.57594e-007	-7.57096e-008	1.09943e-007	-6.41573e-007	-2.62e-006	2.74289e-007	4.72318e-007	5.99467e-007	4.16288e-007	3.23751e-007	5.31924e-007	5.8326e-007	5.0929e-007
-5.16196e-007	2.23152e-007	-4.00749e-007	-6.18142e-008	-8.08611e-008	-2.51794e-007	1.70979e-007	3.79874e-007	3.40617e-007	-3.51748e-008	-1.64073e-007	1.34974e-009	2.0822e-007	1.8647e-007
-1.01371e-006	3.57692e-007	-8.12703e-007	-1.40866e-007	-4.38179e-007	-7.73216e-007	-3.75674e-007	7.03116e-007	5.87977e-007	1.31523e-007	5.13447e-008	3.76429e-007	6.43442e-007	7.02823e-007
-8.16571e-007	3.6953e-007	-3.86783e-007	4.33306e-007	1.38971e-007	-5.91757e-007	-3.82811e-007	-1.54478e-007	2.42682e-007	4.85511e-007	-4.84191e-008	4.20218e-007	2.48785e-007	4.18164e-008
8.01994e-007	-4.44192e-007	5.98868e-007	-1.48502e-007	1.16552e-008	4.58271e-007	1.24318e-007	-2.4343e-007	-4.96727e-007	-2.06174e-007	2.41626e-007	-2.06608e-007	-3.31039e-007	-1.6006e-007
-1.25841e-006	4.39436e-007	-2.84458e-007	3.02708e-007	-1.53906e-007	-1.26315e-006	-1.10959e-007	1.22276e-007	3.90465e-007	4.73186e-007	1.59001e-007	5.00096e-007	4.11255e-007	2.72463e-007
5.46263e-008	-1.07951e-008	2.77002e-007	-1.02147e-007	-4.44269e-007	-6.14534e-007	6.09589e-008	1.33208e-008	-8.95602e-009	8.07376e-008	2.87623e-007	1.68941e-007	1.00805e-007	1.36686e-007
-1.39228e-006	3.65708e-007	-3.79581e-007	-2.19084e-007	-6.24181e-007	-1.12759e-006	3.03847e-007	5.42014e-007	5.13164e-007	1.29097e-007	3.60958e-007	3.86069e-007	5.56047e-007	5.85813e-007
-9.23672e-007	2.78868e-007	7.46432e-008	-3.78e-007	-8.77021e-007	-1.56104e-006	5.62412e-007	6.61743e-007	4.71829e-007	-1.51366e-008	4.10065e-007	2.40201e-007	4.77163e-007	5.77945e-007
-4.15546e-007	4.02627e-007	-1.01892e-006	3.03657e-007	2.25093e-007	2.44151e-008	-2.43306e-007	8.48663e-008	3.78163e-007	3.24023e-007	-6.7105e-007	2.7694e-007	2.82767e-007	4.62713e-008
-1.09501e-006	2.42e-007	-4.32774e-007	-1.88907e-007	-3.9149e-007	-6.85581e-007	3.46847e-007	4.86152e-007	3.76861e-007	1.55901e-008	2.68283e-007	2.00173e-007	3.92277e-007	4.65581e-007
1.11369e-006	-2.48308e-007	3.32548e-007	3.50872e-007	6.49767e-007	1.01e-006	-5.11518e-007	-7.34933e-007	-4.82008e-007	6.85088e-008	-2.80964e-007	-1.80378e-007	-4.80516e-007	-6.0676e-007
5.61472e-007	-8.87199e-008	9.00752e-008	4.23264e-007	6.21033e-007	7.62435e-007	-5.43895e-007	-7.18528e-007	-3.47165e-007	2.11296e-007	-1.97008e-007	4.46719e-009	-3.08992e-007	-4.69735e-007
5.36867e-008	5.97069e-009	3.51414e-008	1.87273e-007	1.16136e-007	5.69749e-008	-2.75755e-007	-3.00696e-007	-1.09804e-007	1.88405e-007	3.38226e-008	1.44413e-007	-3.04655e-008	-1.05103e-007
-4.96482e-007	6.37216e-008	3.94606e-007	-5.98454e-007	-9.51098e-007	-1.25359e-006	7.02373e-007	6.48451e-007	2.93292e-007	-2.48672e-007	5.18199e-007	5.0879e-008	3.34271e-007	5.42501e-007
3.44089e-008	2.12846e-007	-6.36461e-007	5.99397e-007	8.98448e-007	8.83042e-007	-6.4832e-007	-4.44866e-007	2.70399e-008	2.89203e-007	-6.46947e-007	8.78645e-009	-1.4281e-007	-4.33769e-007
7.05056e-007	7.07749e-010	-1.19214e-007	5.99098e-007	9.25593e-007	1.10761e-006	-7.46694e-007	-8.24857e-007	-2.91729e-007	2.61128e-007	-5.19411e-007	-5.8243e-008	-3.77998e-007	-6.61049e-007
-1.07386e-006	3.31936e-007	-3.43588e-007	-2.76362e-007	-6.39826e-007	-1.08851e-006	3.7e-007	6.66346e-007	5.42923e-007	1.70968e-008	1.95704e-007	2.39757e-007	5.06494e-007	5.51887e-007
-7.31288e-007	6.90296e-007	-1.03957e-006	3.00295e-007	5.81814e-008	-2.96666e-007	-1.18542e-006	-4.87766e-009	7.92988e-007	4.79524e-007	-5.86904e-007	5.77465e-007	6.94778e-007	2.51193e-007
3.28092e-007	2.15889e-007	-7.93984e-008	5.37968e-007	5.78731e-007	5.33584e-007	-9.48498e-007	-9.28412e-007	-5.45363e-008	4.24909e-007	-2.95881e-007	2.45964e-007	-8.45469e-008	-4.73865e-007
-7.13041e-007	-8.98833e-008	-4.30608e-007	-6.21031e-007	-6.99302e-007	-7.37969e-007	5.68829e-007	1.18728e-006	3.2564e-007	-4.47419e-007	3.22314e-007	-1.44293e-007	4.40467e-007	1.03902e-006
-1.38694e-007	7.84732e-007	-8.74049e-007	6.21926e-007	4.95546e-007	2.64584e-007	-1.627e-006	-5.01262e-007	7.5896e-007	6.88838e-007	-1.55115e-006	6.65766e-007	6.2019e-007	-2.08385e-007
-9.03989e-007	2.91192e-007	-1.78432e-008	-3.51104e-007	-9.03843e-007	-1.45761e-006	4.35982e-007	6.1201e-007	4.80071e-007	4.06032e-008	3.91309e-007	3.01855e-007	5.05579e-007	5.75791e-007
-6.40627e-007	1.21966e-007	-1.30011e-008	-3.76791e-007	-7.58842e-007	-9.94536e-007	3.56968e-007	5.48807e-007	3.23742e-007	-5.04065e-008	3.64126e-007	2.03674e-007	3.97346e-007	5.17575e-007
-9.67908e-007	3.52946e-007	-4.90839e-007	-6.80145e-008	-4.3334e-007	-8.33408e-007	-1.74173e-007	3.07951e-007	4.64056e-007	2.21512e-007	1.90363e-007	4.26703e-007	5.28173e-007	4.7598e-007
-2.86829e-007	-3.75542e-008	-8.59277e-008	-3.9335e-007	-3.79123e-007	-3.42702e-007	6.02536e-007	6.77044e-007	2.04803e-007	-3.279e-007	7.2463e-008	-1.96001e-007	1.41156e-007	3.51384e-007
-1.52232e-007	1.88312e-008	-1.72988e-007	-1.78736e-007	-8.79769e-008	-3.86918e-008	3.54517e-007	4.03065e-007	1.56544e-007	-2.02777e-007	-1.14947e-007	-1.71696e-007	5.16104e-008	1.35476e-007
1.11499e-006	-5.42728e-008	5.82912e-007	4.88726e-007	6.97503e-007	9.1003e-007	-6.16133e-007	-7.34095e-007	-3.04605e-007	2.19029e-007	-9.6457e-007	-1.06833e-007	-4.37858e-007	-7.94824e-007
4.60675e-007	4.25432e-007	3.23883e-008	6.96393e-007	7.21084e-007	6.57993e-007	-1.08893e-006	-1.70961e-006	1.06682e-007	5.90393e-007	-4.41997e-007	3.78989e-007	-2.99328e-008	-7.99556e-007
-2.17286e-007	3.08449e-007	-3.98508e-007	5.94802e-007	5.55901e-007	2.27446e-007	-7.1976e-007	-5.79776e-007	5.86192e-008	4.81599e-007	-3.1343e-007	2.89852e-007	1.52366e-008	-3.03147e-007
-9.41643e-007	5.76784e-007	-1.49453e-006	5.08281e-007	3.27317e-007	-8.2989e-008	-4.51471e-007	2.83895e-008	4.97303e-007	5.63686e-007	-5.45369e-007	5.04209e-007	4.14511e-007	9.55181e-008
2.26763e-008	-2.59867e-007	1.54899e-007	-4.1531e-007	-2.83031e-007	-1.21604e-007	9.65686e-007	7.06176e-007	-5.43036e-008	-4.68233e-007	6.58764e-008	-4.27621e-007	-1.14455e-007	2.29111e-007
-8.17403e-007	2.49833e-007	-1.53507e-007	-4.2091e-007	-8.60847e-007	-1.14189e-006	3.32469e-007	6.33425e-007	4.96929e-007	-3.00103e-008	3.20492e-007	2.6905e-007	5.26781e-007	5.95584e-007
-6.79059e-007	5.56517e-007	-7.11768e-007	2.90103e-007	2.89397e-009	-3.62879e-007	-9.12559e-007	-2.52985e-007	5.38635e-007	4.89115e-007	-2.2408e-007	5.78864e-007	5.31581e-007	1.55622e-007
-1.00421e-006	4.41936e-007	-9.01917e-007	8.43299e-007	9.76539e-007	3.23592e-007	-7.12302e-007	-3.79775e-007	2.14491e-007	5.83963e-007	-5.28669e-007	3.08073e-007	9.0333e-008	-2.55355e-007
9.99394e-008	-1.65329e-008	3.87593e-007	-2.11128e-007	-6.57116e-007	-8.92465e-007	1.82694e-007	1.13691e-007	2.2419e-008	4.1844e-008	3.8616e-007	1.79264e-007	1.44856e-007	2.18782e-007
-1.46252e-006	5.69415e-007	-2.675e-007	1.96757e-007	-3.75449e-007	-2.08176e-006	1.82125e-007	4.25969e-007	5.95982e-007	4.37985e-007	2.27679e-007	5.22676e-007	5.65019e-007	4.63624e-007
1.70966e-007	7.04068e-007	-6.18491e-007	7.90636e-007	7.00437e-007	5.17858e-007	-1.19696e-006	-7.29445e-007	4.91057e-007	7.94373e-007	-1.98814e-006	6.58162e-007	3.33952e-007	-6.28479e-007
-8.84422e-007	4.28063e-007	-5.61622e-007	-3.91455e-008	-3.8244e-007	-7.5885e-007	-3.0131e-007	3.11496e-007	5.77559e-007	2.26491e-007	1.83947e-009	4.04946e-007	5.57753e-007	4.1964e-007
-9.00148e-007	5.88151e-007	-1.02486e-006	6.04556e-007	3.36639e-007	-1.82639e-007	-8.14277e-007	-2.91128e-007	4.22572e-007	6.85375e-007	-3.83245e-007	6.078e-007	3.79722e-007	-2.85189e-008
-7.79827e-007	5.60781e-007	-6.81893e-007	2.54023e-007	-3.69823e-008	-4.67242e-007	-6.57754e-007	-6.81367e-008	5.76981e-007	4.20144e-007	-2.28863e-007	4.70065e-007	4.84229e-007	1.54475e-007
-1.94546e-007	2.68772e-008	1.49565e-007	-4.90506e-007	-5.75087e-007	-5.46248e-007	5.3391e-007	5.15191e-007	2.26219e-007	-3.06147e-007	2.18721e-007	-1.02199e-007	1.94496e-007	3.49755e-007
-1.1961e-006	5.19778e-007	-3.49109e-007	5.0533e-008	-5.0716e-007	-1.48524e-006	1.07622e-007	4.10311e-007	5.86526e-007	3.22506e-007	1.41362e-007	4.38572e-007	5.33047e-007	4.2735e-007
6.67477e-007	-4.59337e-007	7.08489e-007	-4.88499e-007	-4.84072e-007	1.21775e-008	4.62316e-007	1.25467e-007	-3.5848e-007	-3.67921e-007	4.46477e-007	-2.09053e-007	-1.70802e-007	1.15761e-007
-5.86138e-008	1.61268e-007	-4.35497e-007	5.22983e-008	1.12417e-007	9.7103e-008	2.60113e-007	4.42462e-007	2.61689e-007	-2.5313e-008	-9.61227e-007	-1.13237e-007	1.04556e-007	1.01982e-007
7.93008e-007	3.98741e-008	1.85032e-007	6.0721e-007	8.26056e-007	9.46751e-007	-7.13516e-007	-1.05882e-006	-3.13983e-007	3.27376e-007	-4.39398e-007	3.71047e-009	-4.11059e-007	-7.92242e-007
-1.10661e-006	4.82451e-007	-5.24787e-007	-5.50819e-008	-4.95769e-007	-1.03908e-006	-4.07089e-008	4.16369e-007	6.1271e-007	2.44069e-007	6.78555e-008	4.17753e-007	5.68388e-007	4.52439e-007
-1.19957e-006	4.42205e-007	-5.15703e-007	6.96747e-010	-2.98799e-007	-8.70209e-007	1.55731e-007	4.22243e-007	5.25571e-007	1.96268e-007	1.00189e-008	3.03959e-007	4.53302e-007	3.7429e-007
1.20565e-006	-3.60621e-007	1.81087e-007	2.91853e-007	7.88638e-007	1.36126e-006	-3.70939e-007	-5.84251e-007	-5.27412e-007	-9.80671e-008	-3.7352e-007	-3.65281e-007	-5.55967e-007	-5.92436e-007
1.82312e-007	6.82109e-007	-5.3881e-007	7.83838e-007	7.32733e-007	5.55353e-007	-1.468e-006	-1.04112e-006	4.65894e-007	7.35338e-007	-1.18118e-006	5.49339e-007	2.52766e-007	-7.10579e-007
7.79966e-007	-4.95651e-007	7.92698e-007	-5.50974e-007	-5.38745e-007	7.57411e-009	5.31965e-007	1.54247e-007	-3.78018e-007	-4.28965e-007	4.67674e-007	-2.60812e-007	-1.97228e-007	1.16268e-007
9.831e-007	-4.08021e-007	5.27741e-007	1.83293e-007	5.29194e-007	9.19568e-007	-6.29366e-008	-5.83053e-007	-6.275e-007	-9.27062e-008	-2.73931e-008	-2.92036e-007	-5.51891e-007	-4.97359e-007
4.68128e-007	-1.5223e-007	2.869e-007	2.01504e-007	2.63877e-007	3.8489e-007	-2.95388e-007	-5.20976e-007	-3.35186e-007	1.21033e-007	5.54921e-008	2.78958e-008	-2.2761e-007	-2.78328e-007
2.21698e-007	7.12632e-007	-3.74458e-007	7.80835e-007	6.68073e-007	4.96558e-007	-1.40552e-006	-1.12225e-006	4.84296e-007	8.28742e-007	-1.66488e-006	7.60599e-007	3.93825e-007	-7.80144e-007
-8.10755e-007	-1.13165e-007	-4.61337e-008	-5.16109e-007	-7.35297e-007	-8.7196e-007	3.68566e-007	4.53752e-007	7.73394e-008	-2.29054e-007	1.2629e-006	1.19708e-007	3.18569e-007	7.21634e-007
1.32696e-006	-4.91086e-007	8.26623e-007	7.95765e-010	3.78965e-007	8.6585e-007	1.20449e-008	-3.68017e-007	-5.67244e-007	-3.12318e-007	-9.32848e-008	-5.12926e-007	-5.89994e-007	-4.76368e-007
5.04009e-007	5.36892e-007	5.18637e-009	7.27692e-007	7.55784e-007	6.96867e-007	-5.20723e-007	-9.05462e-007	2.97493e-007	6.1065e-007	-1.36443e-006	3.33215e-007	-4.65819e-008	-1.63059e-006
9.20603e-008	3.93097e-007	-3.00445e-007	6.13875e-007	5.74193e-007	4.05402e-007	-1.07765e-006	-9.50485e-007	1.25005e-007	5.48205e-007	-4.02036e-007	3.79326e-007	5.30273e-008	-4.53577e-007
7.75672e-007	3.65562e-007	4.07506e-007	7.57691e-007	8.42195e-007	8.61202e-007	-4.77422e-007	-1.6447e-006	-1.03583e-008	5.83647e-007	-7.22872e-007	2.61554e-007	-2.93763e-007	-1.70592e-006
8.08428e-007	-8.40686e-008	8.75978e-009	4.80444e-007	6.96672e-007	9.13768e-007	-7.16073e-007	-7.5108e-007	-3.35906e-007	2.36099e-007	-3.53041e-007	-1.02975e-008	-3.39315e-007	-5.54391e-007
-1.38996e-006	4.62275e-007	-5.42941e-007	1.81084e-007	-3.02285e-008	-8.14382e-007	9.2011e-008	3.44557e-007	4.95251e-007	2.72244e-007	-5.856e-008	2.98836e-007	3.9938e-007	2.90435e-007
3.7147e-007	2.29161e-007	-1.0901e-007	6.5e-007	7.34779e-007	6.69101e-007	-8.66978e-007	-1.0195e-006	-1.15349e-007	4.66767e-007	-4.03741e-007	2.04994e-007	-1.90408e-007	-6.21287e-007
-8.51353e-007	6.97905e-007	-1.11255e-006	4.46952e-007	2.0102e-007	-2.53467e-007	-8.14747e-007	-9.23839e-008	6.59175e-007	5.64082e-007	-5.76283e-007	5.48867e-007	5.19205e-007	6.35761e-008
4.38041e-007	-4.13237e-007	8.4252e-007	-7.73281e-007	-6.64004e-007	-2.86821e-007	8.70135e-007	5.35543e-007	-1.49922e-007	-6.79063e-007	5.16567e-007	-4.4972e-007	-9.67421e-008	3.09986e-007
-1.65466e-006	6.30175e-007	-8.74063e-007	5.65557e-007	2.60867e-007	-7.38461e-007	-3.28304e-007	7.0105e-008	5.3175e-007	6.13572e-007	-2.16336e-007	5.32418e-007	4.43293e-007	1.64085e-007
-5.66962e-007	3.64422e-007	-4.81189e-007	8.27849e-008	-1.62456e-007	-4.15729e-007	-7.40482e-007	-8.25786e-008	4.27702e-007	2.91954e-007	-2.09387e-009	4.49777e-007	5.02097e-007	3.32754e-007
-7.03539e-007	1.34206e-007	1.01794e-007	-4.96446e-007	-7.54899e-007	-9.63508e-007	5.64656e-007	6.06793e-007	3.47067e-007	-1.94907e-007	3.94427e-007	8.03437e-008	3.64984e-007	5.1903e-007
6.618e-007	3.94207e-008	6.57192e-007	4.66598e-007	5.25736e-007	5.90379e-007	-3.02736e-008	-2.01504e-006	-3.90006e-007	3.60859e-007	3.63923e-007	1.77687e-007	-4.0299e-007	-1.00528e-006
3.96512e-007	5.54256e-008	9.76552e-008	4.45439e-007	5.27131e-007	5.3408e-007	-5.46825e-007	-8.42445e-007	-2.42129e-007	3.05133e-007	-1.56661e-007	1.19531e-007	-2.2289e-007	-4.69956e-007
-1.00844e-006	5.39974e-007	-4.67877e-007	8.44714e-008	-4.36291e-007	-1.06027e-006	-1.62704e-007	2.12858e-007	5.72502e-007	3.73315e-007	2.36378e-008	4.82512e-007	5.21528e-007	3.24778e-007
-5.81526e-007	4.85748e-007	-7.67082e-007	7.29765e-007	5.55202e-007	6.99786e-008	-8.53079e-007	-5.07044e-007	2.32413e-007	6.81649e-007	-4.50123e-007	4.84587e-007	1.69322e-007	-2.4981e-007
1.91244e-007	6.03082e-007	-3.01694e-007	7.47534e-007	6.34283e-007	4.56928e-007	-1.28579e-006	-1.27863e-006	3.0307e-007	7.74867e-007	-8.79718e-007	6.58117e-007	2.05553e-007	-8.28841e-007
-1.02063e-006	5.07063e-007	-4.04489e-007	-2.97439e-009	-5.1179e-007	-1.18126e-006	1.44473e-008	3.74071e-007	5.96043e-007	2.71911e-007	6.12595e-008	3.95408e-007	5.15692e-007	3.8525e-007
8.50194e-007	-3.06546e-007	3.242e-007	2.82181e-007	5.82267e-007	9.16397e-007	-3.21282e-007	-6.30157e-007	-5.24747e-007	2.88626e-008	-1.04933e-007	-1.68528e-007	-4.50275e-007	-4.77635e-007
-4.13037e-007	6.93639e-007	-9.25059e-007	5.17055e-007	3.50706e-007	5.0021e-008	-1.77331e-006	-3.65066e-007	6.73644e-007	6.05215e-007	-6.3046e-007	6.05483e-007	5.70136e-007	4.10381e-008
-9.41551e-007	4.42088e-007	-2.93033e-007	-1.36879e-008	-3.87502e-007	-1.29734e-006	2.27039e-007	4.43257e-007	5.24235e-007	1.74183e-007	6.32477e-008	2.67555e-007	4.27414e-007	3.64095e-007
-5.04158e-007	7.09655e-007	-8.70828e-007	5.07469e-007	3.38582e-007	-1.52521e-008	-1.09174e-006	-4.1308e-007	6.62128e-007	5.62574e-007	-6.71774e-007	4.95058e-007	4.44962e-007	-1.53594e-007
-5.55345e-008	2.61607e-007	-5.17457e-007	6.67795e-007	6.30179e-007	4.20622e-007	-8.63063e-007	-6.31169e-007	-1.54946e-009	5.53693e-007	-4.07914e-007	3.38468e-007	-2.17977e-008	-3.73879e-007
-9.59251e-007	4.14908e-007	-1.47087e-007	4.28349e-008	-5.63567e-007	-1.50061e-006	8.6504e-008	2.91851e-007	4.45226e-007	3.34906e-007	2.49669e-007	4.5355e-007	4.64792e-007	3.86278e-007
-7.83676e-007	5.55146e-007	-1.10417e-006	3.45113e-008	-1.72512e-007	-4.42519e-007	-9.0562e-007	6.00874e-007	8.29781e-007	2.4083e-007	-7.51252e-007	4.41035e-007	8.04645e-007	6.52924e-007
1.02526e-006	-6.53488e-007	1.32093e-006	-5.94104e-007	-3.20339e-007	2.06154e-007	6.34336e-007	1.13806e-007	-5.20176e-007	-6.8834e-007	5.55086e-007	-6.12092e-007	-4.38418e-007	-2.862e-008
-6.20121e-007	6.32659e-007	-1.14798e-006	6.18564e-007	3.8923e-007	-1.12975e-008	-1.07441e-006	-3.9235e-007	4.70817e-007	7.09887e-007	-5.69764e-007	6.5368e-007	4.20596e-007	-7.95058e-008
-1.09103e-006	2.66472e-007	-3.47527e-007	-2.73002e-007	-5.46386e-007	-8.60987e-007	3.23387e-007	4.99303e-007	4.17958e-007	1.54255e-008	3.45411e-007	2.65894e-007	4.59804e-007	5.25281e-007
-1.13259e-006	2.84413e-007	-1.81139e-007	-3.49105e-007	-7.29436e-007	-1.10335e-006	3.55064e-007	5.2505e-007	4.46476e-007	2.97232e-008	4.38858e-007	3.29114e-007	5.1056e-007	5.76363e-007
-9.31205e-007	6.23629e-007	-7.41371e-007	2.68423e-007	-7.92857e-008	-6.04607e-007	-5.52872e-007	2.25666e-009	6.28154e-007	4.53446e-007	-2.44907e-007	4.95344e-007	5.11052e-007	1.71942e-007
-3.01763e-007	1.43247e-007	-3.63513e-007	-8.1519e-008	-7.58592e-008	-1.32277e-007	1.81696e-007	2.89327e-007	2.33297e-007	-6.51717e-008	-1.55006e-007	-2.38995e-008	1.69025e-007	1.82418e-007
-6.94838e-007	2.08281e-007	-2.43546e-007	-3.20458e-007	-4.74025e-007	-6.59628e-007	4.12652e-007	5.69929e-007	4.02515e-007	-1.31392e-007	1.10021e-007	5.3591e-008	3.45723e-007	4.21174e-007
-1.23526e-006	5.79406e-007	-4.25968e-007	3.56694e-007	-1.75209e-007	-1.57443e-006	-9.8155e-008	1.98369e-007	5.33018e-007	5.1449e-007	4.37439e-008	5.15161e-007	4.78647e-007	2.89485e-007
5.52501e-007	4.08886e-009	-5.74775e-008	5.82689e-007	8.87681e-007	9.67769e-007	-5.98166e-007	-8.0083e-007	-3.08074e-007	2.51005e-007	-4.15436e-007	-6.10823e-008	-3.8149e-007	-6.23178e-007
7.57231e-007	-1.74993e-007	7.7224e-007	3.19047e-007	4.52275e-007	6.04425e-007	1.95073e-007	-1.43282e-006	-5.58869e-007	1.54517e-007	3.05796e-007	-5.38653e-008	-5.41476e-007	-7.9858e-007
-4.93284e-007	7.68408e-007	-1.02248e-006	5.55206e-007	3.47637e-007	1.34735e-010	-1.15916e-006	-4.29751e-007	6.93562e-007	6.63685e-007	-9.17398e-007	6.32451e-007	5.33354e-007	-1.72373e-007
7.38179e-007	-5.55763e-007	7.19171e-007	-1.99002e-007	6.89771e-009	3.90756e-007	4.70656e-007	-1.11051e-007	-6.32638e-007	-3.02873e-007	3.54597e-007	-3.19214e-007	-4.33195e-007	-1.2652e-007
-9.51069e-007	6.11564e-007	-8.46193e-007	3.5623e-007	-3.3859e-010	-5.13745e-007	-6.88236e-007	-1.22651e-007	5.51017e-007	5.60974e-007	-2.37265e-007	6.09533e-007	5.17546e-007	1.52633e-007
-5.46365e-007	3.85796e-007	-5.43885e-007	1.25916e-007	-1.49313e-007	-3.8837e-007	-8.32346e-007	-3.86134e-007	3.59721e-007	4.11242e-007	5.63743e-008	6.70252e-007	5.63952e-007	2.7316e-007
-4.08317e-007	6.57588e-007	-1.29383e-006	7.15342e-007	5.82545e-007	2.49556e-007	-1.03005e-006	-3.79636e-007	4.81193e-007	7.10182e-007	-9.58985e-007	5.60683e-007	3.40681e-007	-2.26953e-007
-5.40759e-007	3.28914e-007	-3.27675e-007	1.90156e-007	-9.63109e-008	-4.22255e-007	-4.73369e-007	-1.94285e-007	2.6504e-007	3.67704e-007	3.28129e-008	4.33171e-007	3.20324e-007	1.16533e-007
-1.0277e-007	3.79313e-007	-5.94651e-007	2.2405e-007	2.18522e-007	1.30012e-007	-1.25735e-007	3.49095e-007	4.67035e-007	1.96793e-007	-1.64741e-006	1.22991e-007	3.01617e-007	8.11421e-008
1.01286e-006	-1.92763e-007	4.86637e-007	3.91649e-007	6.11424e-007	8.34621e-007	-4.00106e-007	-6.2072e-007	-4.13974e-007	1.09824e-007	-4.68297e-007	-1.98573e-007	-4.92237e-007	-6.60343e-007
1.30829e-007	2.85928e-007	-2.83945e-008	4.26307e-007	3.58751e-007	2.53456e-007	-7.16467e-007	-1.08606e-006	4.03449e-008	4.31553e-007	-1.20802e-007	3.53983e-007	4.99152e-008	-3.79346e-007
1.09913e-006	-3.4486e-007	8.89309e-007	1.75747e-007	4.97411e-007	8.10227e-007	8.56698e-008	-3.29382e-007	-4.6614e-007	-1.91991e-007	-4.23683e-007	-5.49581e-007	-6.30374e-007	-6.21483e-007
-8.12458e-007	3.94468e-007	-1.00446e-007	1.19596e-007	-5.24739e-007	-1.52478e-006	2.82191e-008	1.97728e-007	3.82789e-007	3.88367e-007	2.39435e-007	4.69906e-007	4.18389e-007	3.23526e-007
1.66458e-007	1.24634e-007	2.53535e-008	3.6502e-007	3.32672e-007	2.60459e-007	-5.44142e-007	-7.21341e-007	-1.16702e-007	3.29163e-007	-6.88088e-008	2.26188e-007	-6.81554e-008	-3.10798e-007
-1.15468e-006	5.64982e-007	-1.25494e-007	1.9923e-007	-5.32179e-007	-2.52064e-006	1.90642e-007	3.98276e-007	5.74187e-007	4.8411e-007	3.03805e-007	5.72914e-007	5.7211e-007	4.72744e-007
-9.01664e-007	5.78707e-007	-6.56339e-007	4.81666e-007	1.88581e-007	-5.29433e-007	-5.27262e-007	-1.44231e-007	4.61081e-007	5.24041e-007	-2.65292e-007	4.3555e-007	3.39716e-007	1.48791e-008
-4.48422e-007	2.2145e-007	-5.99164e-008	2.32629e-007	-1.78451e-007	-8.73783e-007	-1.33151e-007	-4.4465e-008	1.46888e-007	3.50327e-007	1.29246e-007	3.42912e-007	2.04592e-007	1.10145e-007
-5.07646e-007	2.56094e-007	-3.65982e-008	-2.49143e-007	-5.24126e-007	-1.09843e-006	3.91811e-007	4.8038e-007	3.87443e-007	-4.24124e-008	1.54965e-007	1.06128e-007	3.21592e-007	3.59944e-007
-2.3147e-007	4.00213e-007	-6.90903e-007	8.40039e-007	8.71772e-007	5.10205e-007	-9.13598e-007	-6.72659e-007	8.9693e-008	6.16341e-007	-6.15986e-007	3.0076e-007	-3.55303e-008	-4.68877e-007
-4.77872e-007	2.28284e-007	2.68444e-008	-8.48653e-008	-6.06714e-007	-1.04428e-006	9.94699e-008	2.0217e-007	2.65659e-007	1.93294e-007	2.60167e-007	3.1994e-007	3.21231e-007	2.96671e-007
-2.06048e-007	-1.94373e-007	6.36019e-007	-7.86093e-007	-8.51762e-007	-7.23859e-007	7.60979e-007	6.09039e-007	8.58839e-008	-5.38804e-007	7.03971e-007	-1.94785e-007	1.75156e-007	5.24676e-007
-7.65883e-007	5.70471e-007	-1.34216e-006	2.05942e-007	8.49135e-009	-2.89769e-007	-4.16391e-007	2.66949e-007	6.47037e-007	3.76336e-007	-7.24178e-007	4.95869e-007	6.11895e-007	3.55386e-007
9.99279e-007	-3.14777e-007	1.86425e-007	4.14222e-007	8.35084e-007	1.16071e-006	-3.4179e-007	-5.53627e-007	-5.00181e-007	-1.42612e-008	-3.83184e-007	-3.42365e-007	-5.51791e-007	-5.93745e-007
-5.68071e-007	2.81867e-007	1.64403e-007	-3.60582e-009	-6.72281e-007	-1.77638e-006	1.63603e-007	2.38141e-007	2.98435e-007	3.03945e-007	3.96152e-007	4.29234e-007	3.81221e-007	3.63338e-007
3.72286e-008	-1.65556e-007	5.61566e-007	-8.29155e-007	-9.622e-007	-7.33433e-007	7.68492e-007	6.40924e-007	1.27378e-007	-5.18317e-007	5.53112e-007	-1.68889e-007	1.90623e-007	4.98226e-007
2.13833e-007	6.33625e-007	-3.22964e-007	7.83909e-007	7.32483e-007	5.51255e-007	-1.1657e-006	-1.41312e-006	3.33354e-007	7.19752e-007	-7.83173e-007	4.95983e-007	9.78839e-008	-8.77123e-007
1.06796e-006	-5.95546e-007	7.1257e-007	-5.07353e-007	-2.61399e-007	6.48156e-007	4.02545e-007	2.07491e-008	-4.9636e-007	-4.99051e-007	2.9111e-007	-3.91069e-007	-3.43253e-007	-4.90617e-008
5.12572e-007	-1.93334e-007	6.98198e-007	-8.21413e-007	-1.3147e-006	-8.83492e-007	7.23049e-007	5.41654e-007	5.51465e-008	-4.00429e-007	5.63468e-007	-7.42956e-008	1.59342e-007	4.34234e-007
-6.02307e-007	4.71497e-007	-5.13486e-007	3.17152e-007	5.52442e-008	-3.42191e-007	-6.2189e-007	-2.41447e-007	3.97684e-007	4.38408e-007	-1.77158e-007	4.38187e-007	3.46819e-007	3.34881e-008
1.8109e-007	-9.42427e-008	2.04109e-007	-5.14487e-007	-4.43947e-007	-1.20971e-007	4.90103e-007	4.30253e-007	1.03457e-007	-4.08326e-007	1.33e-007	-2.39994e-007	5.43041e-008	2.2565e-007
1.25221e-006	-5.72135e-007	1.15761e-006	-1.81957e-007	2.0322e-007	6.95495e-007	3.58473e-007	-1.77587e-007	-5.87192e-007	-4.87492e-007	4.93862e-008	-6.66748e-007	-6.35091e-007	-4.082e-007
7.60568e-007	-2.46636e-007	-5.97473e-008	4.16296e-007	9.92321e-007	1.34399e-006	-3.45131e-007	-4.94704e-007	-4.14584e-007	-5.15898e-008	-4.69914e-007	-3.62074e-007	-5.04617e-007	-5.64181e-007
7.39091e-007	-4.39523e-007	7.66916e-007	-6.87396e-007	-7.91017e-007	-1.37555e-007	5.68391e-007	2.70653e-007	-2.60477e-007	-4.54455e-007	5.07926e-007	-2.13042e-007	-8.97634e-008	2.2025e-007
8.58786e-007	-8.71615e-008	7.03087e-007	4.32374e-007	6.36955e-007	7.86305e-007	2.57643e-007	-5.20429e-007	-3.80639e-007	1.31905e-007	-5.04763e-007	-3.12981e-007	-7.25553e-007	-1.27553e-006
-5.23011e-007	7.5828e-007	-1.07874e-006	5.51703e-007	2.88144e-007	-6.27209e-008	-1.12458e-006	-4.56304e-007	6.41532e-007	7.40645e-007	-9.88422e-007	7.90139e-007	5.9231e-007	-1.28968e-007
7.75349e-007	2.13879e-007	4.60421e-007	6.14781e-007	7.68838e-007	8.37298e-007	1.68001e-007	-1.07556e-006	-1.25526e-007	3.6854e-007	-5.00022e-007	-2.85981e-008	-5.48838e-007	-1.92856e-006
1.35775e-006	-5.73137e-007	6.27302e-007	-1.75109e-007	2.387e-007	1.0684e-006	1.79945e-008	-3.31724e-007	-6.00254e-007	-3.77113e-007	4.58119e-008	-4.40501e-007	-5.14267e-007	-3.43847e-007
7.50371e-007	1.25072e-007	4.77557e-007	6.03864e-007	7.25873e-007	7.90686e-007	-2.68477e-007	-1.77229e-006	-3.19211e-007	4.08981e-007	-1.37404e-007	1.16583e-007	-4.42476e-007	-1.05913e-006
-2.30224e-007	6.03446e-007	-9.25516e-007	7.62307e-007	6.32612e-007	3.21949e-007	-1.1962e-006	-6.62217e-007	3.54023e-007	7.41236e-007	-8.13456e-007	5.61695e-007	2.34723e-007	-3.84375e-007
5.35359e-007	-4.58647e-007	7.98678e-007	-6.70355e-007	-4.27079e-007	-7.74386e-009	8.13088e-007	4.75008e-007	-2.15093e-007	-7.11206e-007	4.20685e-007	-5.66515e-007	-1.9997e-007	2.13789e-007
-6.07789e-007	2.42703e-007	4.21693e-008	-3.3917e-007	-9.16464e-007	-1.22335e-006	2.77755e-007	4.28136e-007	3.86658e-007	7.75377e-008	3.72259e-007	3.30249e-007	4.49736e-007	4.79566e-007
-5.70598e-007	3.15341e-007	-5.20451e-007	-7.27485e-008	-1.41345e-007	-3.20055e-007	1.06723e-007	3.72383e-007	4.35624e-007	1.68063e-009	-2.18407e-007	6.9618e-008	3.06544e-007	2.35692e-007
6.24293e-007	-3.27361e-007	7.83822e-007	1.47064e-007	2.53683e-007	4.11333e-007	2.66314e-007	-8.79777e-007	-6.63711e-007	2.52274e-008	5.53437e-007	-1.15108e-007	-5.53582e-007	-5.25632e-007
-5.0777e-007	2.30392e-007	-3.69144e-007	5.85961e-007	5.33139e-007	-7.64401e-008	-5.07406e-007	-3.67481e-007	3.41128e-008	4.63817e-007	-1.83802e-007	2.91102e-007	4.26125e-008	-1.69093e-007
2.34404e-007	5.58406e-008	-1.05124e-007	5.57298e-007	6.41813e-007	5.50638e-007	-6.20759e-007	-6.96813e-007	-2.34497e-007	3.69845e-007	-2.45379e-007	1.39753e-007	-2.11104e-007	-4.35916e-007
-1.27216e-006	6.33424e-007	-3.98725e-007	3.94974e-007	-2.41161e-007	-2.01343e-006	-2.76958e-008	2.54919e-007	5.80916e-007	5.72446e-007	8.16864e-008	5.69943e-007	5.27396e-007	3.37457e-007
-1.03687e-007	2.28675e-007	3.66867e-007	-5.70191e-007	-1.38665e-006	-1.83526e-006	6.36456e-007	6.54904e-007	4.32352e-007	-9.62996e-008	4.78211e-007	1.9567e-007	4.38293e-007	5.60657e-007
5.17909e-007	-2.0103e-007	4.1688e-007	-6.76743e-007	-6.43348e-007	-8.58579e-008	5.66037e-007	4.25068e-007	1.69366e-008	-5.11075e-007	2.34028e-007	-2.94626e-007	5.34425e-009	2.30476e-007
-2.05379e-008	-2.35182e-007	6.75985e-007	-7.11443e-007	-6.59913e-007	-4.682e-007	6.69977e-007	4.98701e-007	1.38789e-008	-5.7605e-007	6.33244e-007	-2.99688e-007	7.2413e-008	4.06814e-007
-2.91853e-007	4.14217e-008	2.44577e-007	-4.92923e-007	-9.4852e-007	-1.00525e-006	4.5555e-007	4.94285e-007	2.36584e-007	-1.15018e-007	4.33414e-007	1.55585e-007	3.24842e-007	4.67307e-007
2.29964e-007	-1.03917e-007	-2.89855e-009	-3.18226e-007	-4.2429e-009	6.22071e-007	2.03578e-007	1.74533e-007	5.4556e-009	-3.50552e-007	-9.76689e-008	-2.87051e-007	-7.71821e-008	6.13766e-009
5.13895e-007	-2.27471e-007	2.28173e-007	1.95108e-007	3.32001e-007	5.51296e-007	-2.67087e-007	-4.503e-007	-3.79186e-007	7.24242e-008	9.86511e-009	-3.29263e-008	-2.67227e-007	-2.78564e-007
-8.53846e-007	4.11792e-007	-3.14656e-007	-1.52693e-007	-6.44337e-007	-1.04234e-006	-1.36622e-008	3.33432e-007	5.34459e-007	2.08376e-007	1.54896e-007	4.17262e-007	5.33451e-007	4.27864e-007
-1.43201e-007	-2.19501e-007	2.81732e-007	-4.68522e-007	-6.31737e-007	-5.44434e-007	4.75311e-007	4.65163e-007	-3.77492e-008	-2.39742e-007	4.69562e-007	4.92477e-009	1.55682e-007	4.32511e-007
-3.97574e-007	-1.13628e-009	8.31249e-008	-4.5163e-007	-7.46083e-007	-7.81757e-007	3.50114e-007	5.07973e-007	2.22596e-007	-1.35166e-007	3.78957e-007	1.41163e-007	3.37821e-007	4.91598e-007
-3.42682e-007	2.69875e-007	-6.83302e-007	6.72902e-008	8.30758e-008	-2.14005e-008	5.81882e-008	3.15134e-007	3.54649e-007	4.06766e-008	-4.85535e-007	1.41674e-008	2.09533e-007	1.20329e-007
4.42807e-007	2.98596e-007	2.53548e-008	5.49277e-007	6.11123e-007	5.87625e-007	-1.92236e-007	-3.6792e-007	8.62657e-008	3.83346e-007	-1.20183e-006	2.93266e-008	-2.71763e-007	-9.79973e-007
6.02552e-007	-5.68487e-007	7.52451e-007	-2.84316e-007	-1.41174e-007	1.94236e-007	5.44572e-007	2.57536e-009	-6.04292e-007	-3.30952e-007	4.94436e-007	-2.90871e-007	-3.70029e-007	-7.00873e-010
-5.15261e-007	1.05968e-007	1.35315e-007	-6.7695e-007	-1.0082e-006	-1.05022e-006	6.06473e-007	7.1302e-007	3.9769e-007	-2.72663e-007	4.39337e-007	8.72477e-008	4.30016e-007	6.08229e-007
-2.7193e-007	4.39844e-008	1.48223e-007	-5.64739e-007	-7.18162e-007	-6.96156e-007	5.86153e-007	6.07975e-007	2.85098e-007	-3.19661e-007	2.77465e-007	-6.95452e-008	2.59593e-007	4.31702e-007
-5.17815e-007	4.57067e-007	-7.09593e-007	7.8902e-007	8.12126e-007	2.44938e-007	-7.78579e-007	-5.11007e-007	1.92435e-007	5.67522e-007	-5.32672e-007	2.8566e-007	4.35106e-008	-3.42613e-007
5.15126e-007	-1.24008e-007	5.09136e-007	3.10091e-007	3.62843e-007	4.32784e-007	-8.57396e-008	-1.0306e-006	-5.0992e-007	2.18767e-007	2.74545e-007	7.56403e-008	-4.05278e-007	-5.43386e-007
-9.05572e-007	4.99322e-007	-3.02476e-007	-8.35854e-008	-7.03455e-007	-1.25783e-006	3.637e-008	3.47337e-007	5.81185e-007	2.77787e-007	1.31586e-007	4.39396e-007	5.35223e-007	4.0471e-007
-8.27132e-007	7.07281e-007	-1.17893e-006	3.78793e-007	4.97786e-008	-3.55648e-007	-8.62439e-007	-1.73831e-007	6.56023e-007	6.43172e-007	-6.1623e-007	7.75217e-007	6.59265e-007	1.44677e-007
-5.27955e-007	3.38688e-007	1.27754e-007	-2.88931e-007	-1.16245e-006	-1.6773e-006	3.38387e-007	4.56656e-007	4.49256e-007	1.70501e-007	4.00878e-007	3.93735e-007	4.86828e-007	4.93959e-007
7.20454e-007	-6.7612e-007	8.80466e-007	-1.53975e-007	8.87776e-008	4.03101e-007	8.93015e-007	-1.17809e-008	-8.94319e-007	-3.57851e-007	5.54237e-007	-4.91792e-007	-7.27615e-007	-2.26597e-007
2.18193e-007	2.15463e-007	-2.43967e-007	3.09357e-007	4.14846e-007	4.04992e-007	-4.18267e-008	3.45821e-008	1.77912e-007	1.27914e-007	-9.90369e-007	-1.37697e-007	-1.06149e-007	-3.83249e-007
9.34722e-007	-5.26306e-007	8.54524e-007	-8.83445e-007	-6.75986e-007	1.56688e-007	7.00654e-007	3.86054e-007	-2.60299e-007	-7.45607e-007	4.77789e-007	-4.68717e-007	-1.67606e-007	2.17535e-007
1.28361e-006	-6.36078e-007	8.03046e-007	-5.46125e-007	-2.41591e-007	7.66366e-007	3.60018e-007	-2.83732e-008	-5.29926e-007	-5.66576e-007	2.89562e-007	-4.61037e-007	-3.96424e-007	-9.64715e-008
7.6555e-007	2.03567e-007	3.98788e-007	7.02813e-007	8.23629e-007	8.57088e-007	-2.27345e-007	-1.12172e-006	-2.3133e-007	4.65199e-007	-5.55972e-007	4.67081e-008	-5.78638e-007	-1.54834e-006
6.5206e-008	3.61244e-007	-3.61562e-007	7.28669e-007	7.5306e-007	5.20353e-007	-8.8123e-007	-8.75098e-007	1.5004e-008	5.49616e-007	-4.88456e-007	2.67088e-007	-1.01716e-007	-5.52179e-007
2.02678e-007	3.3613e-007	9.9668e-008	4.86531e-007	3.72779e-007	2.74309e-007	-6.60376e-007	-1.5191e-006	-1.77739e-008	5.71239e-007	1.49904e-009	5.81463e-007	7.23845e-008	-8.01433e-007
3.55221e-007	-7.65387e-008	-4.06939e-008	4.89897e-007	7.32787e-007	7.57859e-007	-5.0827e-007	-6.44707e-007	-3.37152e-007	2.321e-007	-2.28074e-007	3.35154e-009	-2.976e-007	-4.3818e-007
-3.25413e-007	3.75452e-007	-8.14634e-007	1.99437e-007	1.64321e-007	1.57194e-008	-1.45299e-007	1.96008e-007	4.14084e-007	1.96164e-007	-7.63319e-007	1.50133e-007	2.73766e-007	6.35817e-008
-6.56567e-007	4.24345e-007	-5.75934e-007	6.87847e-007	5.91016e-007	-1.29227e-007	-6.36301e-007	-3.9565e-007	1.96647e-007	5.53797e-007	-3.2963e-007	3.46078e-007	1.18879e-007	-1.95301e-007
5.53509e-008	8.44086e-007	-4.32444e-007	7.22165e-007	5.99204e-007	3.81497e-007	-9.93933e-007	-1.38759e-006	6.94862e-007	7.624e-007	-1.0088e-006	6.36502e-007	3.65589e-007	-1.23889e-006
3.21377e-007	-1.92404e-007	3.96965e-007	-6.7066e-007	-5.56094e-007	-1.41071e-007	5.97493e-007	4.77611e-007	4.81504e-008	-5.42776e-007	2.62834e-007	-3.14203e-007	3.36616e-008	2.79117e-007
4.87874e-007	-6.22035e-007	7.22037e-007	-2.96716e-007	-1.51168e-007	1.31843e-007	8.03833e-007	1.89414e-007	-7.13639e-007	-3.67689e-007	5.64041e-007	-3.52326e-007	-4.49654e-007	5.41856e-008
-5.22774e-007	3.57548e-007	-6.42322e-007	8.37668e-007	9.23692e-007	2.80427e-007	-7.52852e-007	-5.43614e-007	7.43525e-008	5.66509e-007	-4.71604e-007	2.67001e-007	-1.83477e-008	-3.55683e-007
-8.87331e-007	6.66775e-007	-1.23624e-006	3.52529e-007	5.71359e-008	-3.51669e-007	-5.53739e-007	1.0919e-008	6.24796e-007	5.69839e-007	-6.2411e-007	6.4385e-007	5.72395e-007	1.54847e-007
7.53916e-007	-2.97426e-007	2.16195e-007	4.10735e-007	7.87479e-007	1.02646e-006	-3.36875e-007	-6.5257e-007	-5.56305e-007	6.72863e-008	-1.88019e-007	-1.96064e-007	-5.00906e-007	-5.3391e-007
-9.11907e-007	5.14924e-007	-5.91826e-007	6.32557e-007	3.30668e-007	-6.03563e-007	-5.15451e-007	-2.28882e-007	3.26662e-007	6.08599e-007	-2.33509e-007	4.55962e-007	2.59894e-007	-4.41279e-008
-3.28637e-007	6.27811e-007	-5.98713e-007	6.04597e-007	4.56251e-007	9.8573e-008	-9.60814e-007	-7.10614e-007	4.23173e-007	5.94854e-007	-5.20514e-007	4.38386e-007	2.23569e-007	-3.47924e-007
4.1943e-007	5.44545e-007	-8.31358e-008	8.10226e-007	7.57422e-007	6.38467e-007	-8.08209e-007	-1.09333e-006	1.7189e-007	7.63114e-007	-1.22638e-006	5.22437e-007	-7.25223e-008	-1.34395e-006
3.7193e-007	6.01182e-007	-1.50622e-007	7.7421e-007	7.54323e-007	6.3199e-007	-6.66208e-007	-1.02514e-006	2.97596e-007	6.8428e-007	-1.11135e-006	3.9267e-007	-7.81741e-008	-1.47669e-006
8.9703e-008	-2.11599e-008	2.18257e-009	-3.17892e-007	-1.39322e-007	1.79117e-007	2.66836e-007	2.6973e-007	1.05779e-007	-2.99051e-007	-3.75252e-008	-2.12129e-007	1.71699e-008	9.65624e-008
-4.96126e-007	4.47619e-007	1.68938e-007	-2.69597e-007	-1.33066e-006	-2.2959e-006	4.59842e-007	5.75458e-007	5.61822e-007	2.02924e-007	4.29294e-007	4.23136e-007	5.58546e-007	5.64708e-007
6.69672e-007	-3.90076e-007	5.00698e-007	-8.54269e-008	2.33249e-008	3.95275e-007	6.26733e-009	-2.45373e-007	-4.31268e-007	-1.24483e-007	2.2557e-007	-1.25742e-007	-2.74335e-007	-1.44103e-007
9.59839e-007	-6.09917e-007	1.15233e-006	-3.97807e-007	-1.35605e-008	4.41255e-007	5.60907e-007	1.03425e-007	-4.95624e-007	-6.86367e-007	4.07708e-007	-7.75069e-007	-5.22001e-007	-1.2512e-007
-7.58027e-007	5.0541e-007	-4.69995e-007	1.8501e-007	-2.06451e-007	-6.7674e-007	-3.80544e-007	-2.24529e-008	4.85951e-007	3.93692e-007	-8.7499e-008	4.46305e-007	4.23253e-007	1.62088e-007
1.33955e-007	-4.6919e-008	-7.40306e-008	-1.89202e-007	1.19351e-007	3.87401e-007	1.91339e-007	1.94358e-007	5.31658e-008	-2.91402e-007	-1.49808e-007	-2.74251e-007	-5.82613e-008	4.30376e-009
-9.48582e-007	4.9636e-007	-4.47179e-007	4.90404e-007	8.10609e-008	-1.01555e-006	-3.14087e-007	-5.57992e-008	3.70538e-007	5.42462e-007	-7.96102e-008	4.59492e-007	3.26336e-007	9.41575e-008
-5.04128e-007	8.6935e-008	-1.23544e-007	-4.92748e-007	-5.68783e-007	-5.91724e-007	5.10853e-007	6.52916e-007	3.53387e-007	-3.04882e-007	2.09227e-007	-5.57251e-008	3.3009e-007	4.98126e-007
-3.88513e-007	2.06684e-007	-4.2292e-008	-3.31959e-008	-4.47162e-007	-7.01545e-007	-2.71934e-008	7.77945e-008	2.10903e-007	2.04794e-007	1.68577e-007	3.01319e-007	2.65908e-007	2.03923e-007
5.6005e-007	-4.99501e-007	6.60428e-007	-1.08962e-007	2.4201e-008	2.75098e-007	3.65638e-007	-1.79443e-007	-6.38e-007	-1.90503e-007	4.38075e-007	-2.11584e-007	-3.99211e-007	-9.62869e-008
-4.21853e-007	1.9408e-008	2.72931e-007	-7.39265e-007	-9.44677e-007	-8.98772e-007	6.15437e-007	6.38577e-007	2.96161e-007	-3.64249e-007	5.45917e-007	2.58993e-008	3.66836e-007	5.87649e-007
-3.06569e-007	3.66125e-007	-4.20336e-007	6.03675e-007	5.06696e-007	9.35285e-008	-6.79246e-007	-5.44222e-007	1.09239e-007	5.07027e-007	-3.14602e-007	3.12459e-007	4.74045e-008	-2.8118e-007
2.1123e-007	-2.60004e-007	4.19309e-007	-2.37162e-007	-3.12989e-007	-1.5844e-007	2.38992e-007	2.32573e-008	-2.43085e-007	-1.22922e-007	3.77594e-007	-7.85982e-009	-5.21397e-008	1.24219e-007
-1.45631e-007	1.09608e-008	2.5245e-007	-6.72541e-007	-9.01409e-007	-7.71906e-007	6.35224e-007	6.44937e-007	2.8059e-007	-3.58293e-007	3.49161e-007	-6.47871e-008	2.72744e-007	4.68501e-007
5.51613e-007	-5.34239e-008	-1.95109e-008	6.32755e-007	9.43128e-007	9.74228e-007	-5.32571e-007	-7.81587e-007	-3.9885e-007	2.58987e-007	-3.89527e-007	-9.25968e-008	-4.49676e-007	-6.42967e-007
-8.37704e-007	4.8794e-007	-4.74804e-007	5.10493e-007	1.39153e-007	-7.58173e-007	-3.99341e-007	-1.44058e-007	3.37229e-007	5.40824e-007	-1.4303e-007	4.35559e-007	2.82337e-007	2.35751e-008
-2.73149e-007	5.96264e-007	-4.50125e-007	4.83143e-007	2.86442e-007	-8.67101e-010	-8.99005e-007	-8.25826e-007	4.22802e-007	5.66922e-007	-3.85038e-007	5.02341e-007	2.872e-007	-3.11103e-007
5.24525e-007	3.66418e-007	1.45776e-007	6.61878e-007	7.02342e-007	6.65478e-007	-2.32245e-007	-6.39617e-007	4.82841e-008	5.13227e-007	-9.422e-007	1.42316e-007	-3.86731e-007	-1.56945e-006
-2.08474e-007	1.90662e-007	2.58014e-007	-1.90042e-007	-9.70348e-007	-1.45188e-006	2.53975e-007	2.79139e-007	2.48402e-007	1.69754e-007	3.98422e-007	3.31024e-007	3.3218e-007	3.59168e-007
-2.64268e-007	5.86481e-007	-5.70215e-007	6.55784e-007	5.56258e-007	1.99653e-007	-9.09208e-007	-7.1961e-007	3.37469e-007	5.82861e-007	-5.4193e-007	3.71583e-007	1.26611e-007	-4.11469e-007
7.16691e-007	-5.71551e-007	1.20428e-006	-7.99656e-007	-5.81275e-007	-9.30439e-008	7.54808e-007	3.49477e-007	-3.3406e-007	-7.78596e-007	7.11948e-007	-5.58284e-007	-2.37918e-007	2.17181e-007
3.74895e-007	6.55594e-008	-1.14051e-007	6.56641e-007	8.91866e-007	8.21317e-007	-6.00484e-007	-8.02368e-007	-2.91945e-007	3.33644e-007	-3.89155e-007	5.29518e-009	-3.51668e-007	-5.99548e-007
-1.71372e-007	1.51571e-007	2.74162e-007	-2.27443e-007	-9.57517e-007	-1.30027e-006	2.53061e-007	2.65554e-007	2.15432e-007	1.34572e-007	4.01442e-007	3.05123e-007	3.08408e-007	3.47274e-007
-2.89344e-007	8.63212e-007	-7.77279e-007	5.32321e-007	3.06293e-007	4.30638e-008	-1.10585e-006	-8.12655e-007	8.21856e-007	7.5119e-007	-1.42377e-006	9.16478e-007	8.23828e-007	-6.49336e-007
9.72791e-007	-4.6629e-007	2.89293e-007	1.01467e-007	7.56785e-007	1.24282e-006	1.6871e-008	-2.49047e-007	-5.00951e-007	-3.67155e-007	-2.33843e-007	-5.82737e-007	-5.5978e-007	-4.20221e-007
-6.58266e-007	5.77522e-007	-6.80733e-007	6.6466e-007	4.69547e-007	-1.56467e-007	-7.21831e-007	-4.11117e-007	3.51566e-007	5.99577e-007	-4.29419e-007	4.01955e-007	2.0036e-007	-2.07353e-007
-3.49362e-007	9.79017e-008	-2.92788e-007	-3.03397e-007	-2.79067e-007	-2.88668e-007	3.34639e-007	5.29017e-007	3.22015e-007	-2.61761e-007	-3.596e-008	-1.30118e-007	2.6654e-007	3.91007e-007
1.31051e-006	-5.52613e-007	7.1125e-007	-1.33584e-007	3.89544e-007	9.88234e-007	1.75536e-007	-1.82209e-007	-5.36044e-007	-5.06166e-007	-6.25278e-008	-6.61694e-007	-5.75436e-007	-3.64795e-007
5.38016e-008	-3.42753e-008	9.50441e-008	-4.57289e-007	-3.57169e-007	-9.7153e-008	4.2089e-007	4.20412e-007	1.58217e-007	-3.71592e-007	7.8307e-008	-2.15607e-007	8.53329e-008	2.2108e-007
-4.17843e-007	1.6932e-007	-5.58658e-007	-2.14899e-007	-2.22229e-007	-2.80551e-007	1.83309e-007	6.7727e-007	4.46911e-007	-1.80344e-007	-4.49059e-007	-8.84733e-008	3.8807e-007	5.47174e-007
-1.92219e-007	6.58239e-007	-5.02214e-007	5.94547e-007	4.07993e-007	1.29167e-007	-1.13215e-006	-1.06478e-006	4.51317e-007	6.76934e-007	-5.27048e-007	6.06909e-007	3.29907e-007	-4.36597e-007
-2.40888e-007	-1.20769e-007	1.24057e-007	-3.86026e-007	-5.63544e-007	-5.32871e-007	2.86187e-007	4.03454e-007	5.78317e-008	-1.5192e-007	3.72328e-007	8.8875e-008	2.36037e-007	4.27247e-007
-5.75317e-007	6.30705e-008	2.59063e-007	-6.83495e-007	-1.04887e-006	-1.17478e-006	6.67887e-007	7.0552e-007	3.39708e-007	-2.67849e-007	5.63109e-007	1.01943e-007	4.15028e-007	6.34989e-007
-7.44115e-008	4.99642e-008	2.82147e-008	-3.89092e-007	-3.96788e-007	-2.58979e-007	3.73911e-007	4.14301e-007	2.21211e-007	-2.71958e-007	6.37173e-008	-1.29189e-007	1.37864e-007	2.31234e-007
1.58798e-007	-4.63058e-008	1.43756e-007	-5.15819e-007	-4.34253e-007	-9.84116e-009	4.05098e-007	3.84404e-007	1.36565e-007	-3.8663e-007	9.70637e-008	-2.12189e-007	7.36294e-008	2.05723e-007
6.11978e-007	-4.14938e-007	4.22057e-007	5.30333e-009	2.2172e-007	5.34181e-007	5.74885e-008	-2.7104e-007	-5.13131e-007	-1.18814e-007	1.58838e-007	-1.70315e-007	-3.36113e-007	-1.87213e-007
6.40295e-008	-1.87473e-007	4.02843e-007	-5.59693e-007	-8.08236e-007	-5.60984e-007	4.95758e-007	4.15782e-007	1.03088e-008	-2.56894e-007	4.51296e-007	4.32865e-009	1.53417e-007	3.75516e-007
-4.777e-007	6.90847e-007	-6.437e-007	4.36871e-007	1.831e-007	-1.60525e-007	-1.00722e-006	-6.56937e-007	6.11239e-007	5.85304e-007	-4.52401e-007	5.86453e-007	4.69763e-007	-1.65098e-007
8.90688e-007	-4.68172e-007	3.3191e-007	-3.55718e-007	2.27104e-007	1.1629e-006	2.22721e-007	-3.39494e-009	-3.68266e-007	-5.33303e-007	-4.33698e-008	-5.15208e-007	-3.73667e-007	-1.74229e-007
-6.69772e-007	3.93102e-007	-5.4882e-008	-2.94214e-008	-7.75758e-007	-1.49438e-006	1.26804e-007	2.91716e-007	4.26282e-007	3.0146e-007	2.51196e-007	4.2428e-007	4.403e-007	3.6907e-007
-1.27501e-007	6.53155e-008	3.04778e-007	-4.41905e-007	-1.02955e-006	-1.02649e-006	3.85731e-007	3.86573e-007	2.09056e-007	-4.45361e-008	4.22895e-007	1.9496e-007	2.98491e-007	4.02185e-007
-3.13837e-007	5.85246e-007	-8.2465e-007	3.31003e-007	2.20571e-007	2.18604e-008	-4.90076e-007	-1.69922e-008	6.0487e-007	4.01978e-007	-1.2659e-006	3.90658e-007	4.53591e-007	-9.83185e-008
-8.68106e-007	5.12612e-007	-5.55173e-008	9.11637e-008	-7.8043e-007	-2.25527e-006	1.88035e-007	3.71047e-007	5.30014e-007	4.28335e-007	3.10887e-007	5.37924e-007	5.38655e-007	4.50647e-007
-3.30306e-007	8.0121e-007	-5.85005e-007	4.55305e-007	2.16864e-007	-5.69009e-008	-1.15412e-006	-1.29958e-006	8.10992e-007	6.53825e-007	-5.92882e-007	7.49918e-007	7.03109e-007	-3.72432e-007
-3.29834e-007	2.81954e-007	-4.39582e-007	7.46108e-007	7.49171e-007	1.83716e-007	-6.5849e-007	-5.54456e-007	-8.90571e-009	5.21379e-007	-3.50225e-007	2.50483e-007	-5.25852e-008	-3.38732e-007
5.08424e-007	-2.89672e-007	8.4552e-008	3.24537e-007	6.75209e-007	9.6276e-007	-3.63118e-007	-5.07181e-007	-4.45917e-007	6.00506e-008	-1.40647e-007	-1.19954e-007	-3.63919e-007	-3.85125e-007
-7.53935e-007	4.65836e-007	-8.50596e-008	6.47494e-008	-7.70358e-007	-1.79101e-006	1.23533e-007	3.04555e-007	4.7776e-007	3.80946e-007	2.44754e-007	4.77558e-007	4.77818e-007	3.82853e-007
1.00901e-006	-5.92752e-007	6.14123e-007	-3.1315e-007	4.21585e-008	8.67774e-007	1.80907e-007	-1.60217e-007	-5.55762e-007	-3.9581e-007	2.14108e-007	-3.55291e-007	-3.96036e-007	-1.59066e-007
-5.59044e-007	2.77185e-007	-2.13721e-007	-4.1163e-007	-5.84064e-007	-6.61951e-007	2.92071e-007	4.92665e-007	4.66166e-007	-1.35926e-007	1.02565e-007	1.13107e-007	4.07676e-007	4.14902e-007
1.0803e-007	-6.07178e-008	1.63603e-007	9.85078e-008	4.34948e-008	3.96404e-008	-1.28367e-007	-3.48356e-007	-2.18065e-007	1.33761e-007	1.63929e-007	1.36884e-007	-5.89371e-008	-7.34054e-008
-6.5604e-007	5.1302e-007	5.29273e-008	-1.29516e-007	-1.13133e-006	-2.39864e-006	3.91929e-007	5.50061e-007	6.0192e-007	2.78894e-007	3.59061e-007	4.53884e-007	5.73606e-007	5.40229e-007
-4.32258e-007	1.96163e-007	-9.1605e-008	-1.50619e-007	-4.86258e-007	-6.53634e-007	-6.96629e-009	1.67862e-007	2.76364e-007	1.16907e-007	1.74712e-007	2.79289e-007	3.28555e-007	2.81489e-007
-1.02128e-006	5.53049e-007	-3.60509e-007	4.26815e-007	-2.16267e-007	-1.58566e-006	-1.57052e-007	9.19022e-008	4.58088e-007	5.76046e-007	4.18059e-008	5.39357e-007	4.29356e-007	2.24356e-007
3.25578e-007	7.96132e-007	-1.25007e-007	8.24182e-007	7.30085e-007	5.72249e-007	-8.89849e-007	-1.7286e-006	5.42298e-007	8.50193e-007	-9.30683e-007	7.32594e-007	3.1527e-007	-2.01444e-006
-4.75696e-007	7.44024e-007	-7.06361e-007	5.41564e-007	3.01494e-007	-8.34706e-008	-9.91918e-007	-6.5673e-007	5.98486e-007	6.37062e-007	-5.68154e-007	5.54653e-007	3.8549e-007	-2.80444e-007
6.59657e-007	-4.3642e-007	5.92316e-007	-4.7583e-007	-4.49408e-007	1.92784e-007	3.62802e-007	9.65729e-008	-3.28826e-007	-3.4203e-007	3.68865e-007	-1.8299e-007	-1.5137e-007	9.3877e-008
-2.64644e-008	-1.47587e-007	3.01532e-007	-4.40433e-007	-6.5938e-007	-5.05843e-007	3.72442e-007	3.30983e-007	1.04176e-008	-1.75974e-007	3.95155e-007	5.16687e-008	1.57811e-007	3.35672e-007
-4.3952e-008	2.77277e-007	-2.8531e-007	6.53086e-007	6.24923e-007	3.28404e-007	-6.751e-007	-7.05555e-007	-6.00256e-008	4.97695e-007	-3.29642e-007	2.45556e-007	-1.03363e-007	-4.23995e-007
-4.35859e-007	1.78494e-007	-1.00327e-007	-1.1817e-007	-4.30201e-007	-6.00216e-007	-8.97681e-008	7.82284e-008	2.30873e-007	1.50137e-007	2.02732e-007	3.25176e-007	3.32949e-007	2.75951e-007
-7.03628e-008	2.27192e-007	4.21393e-007	-5.77506e-007	-1.72732e-006	-1.66392e-006	5.43039e-007	5.58617e-007	3.95772e-007	8.51058e-009	5.51942e-007	3.1403e-007	4.60893e-007	5.5772e-007
-7.42466e-008	4.25769e-007	-4.83715e-007	2.68467e-007	2.46864e-007	1.45622e-007	-2.63113e-007	7.54441e-008	4.8595e-007	2.44445e-007	-1.27556e-006	1.35315e-007	2.79429e-007	-2.10675e-007
2.84091e-007	6.76709e-007	-2.79975e-008	7.33619e-007	6.31641e-007	4.82429e-007	-7.46586e-007	-2.02242e-006	3.36109e-007	7.69032e-007	-4.55366e-007	6.59179e-007	1.46121e-007	-1.46656e-006
1.05544e-006	-6.24475e-007	4.38619e-007	-1.54636e-007	5.04391e-007	1.40972e-006	3.24924e-008	-2.91389e-007	-6.27876e-007	-4.14673e-007	-4.76228e-009	-4.71237e-007	-5.23604e-007	-3.28013e-007
-2.35244e-008	4.21727e-007	-1.2099e-007	3.79094e-007	2.27608e-007	8.49381e-008	-7.38768e-007	-1.43681e-006	2.30243e-007	5.0679e-007	-1.04295e-007	5.71175e-007	3.29276e-007	-3.26461e-007
6.1074e-007	-1.89985e-007	2.97973e-007	4.40021e-007	6.44256e-007	7.3164e-007	-1.94992e-007	-7.23638e-007	-5.80085e-007	1.77764e-007	-7.44667e-008	-9.30384e-008	-5.01646e-007	-5.44544e-007
2.60898e-007	7.93178e-007	-1.99369e-007	7.96301e-007	7.17375e-007	5.4499e-007	-1.03537e-006	-2.28053e-006	5.8462e-007	7.91374e-007	-7.45118e-007	6.40344e-007	3.07579e-007	-1.17628e-006
3.90551e-007	-3.07091e-007	5.90632e-007	-8.68046e-007	-1.02916e-006	-3.91575e-007	7.36699e-007	5.85248e-007	-3.26179e-009	-5.28229e-007	4.99299e-007	-1.92154e-007	9.86217e-008	4.18465e-007
5.91418e-007	-4.1416e-007	6.34573e-007	-8.61631e-007	-6.28788e-007	5.64501e-008	7.09614e-007	5.07017e-007	-1.08374e-007	-7.24095e-007	4.19404e-007	-4.27365e-007	-5.6661e-008	3.02598e-007
-4.44093e-008	-3.39825e-008	3.59388e-007	-8.21453e-007	-1.1758e-006	-8.29137e-007	6.73309e-007	6.8493e-007	2.78373e-007	-3.83121e-007	4.57907e-007	-1.73489e-008	3.1567e-007	5.35673e-007
1.07052e-006	-6.42297e-007	7.57697e-007	-6.93886e-007	-2.86099e-007	6.94807e-007	5.40118e-007	1.92091e-007	-4.39631e-007	-7.00804e-007	3.30628e-007	-5.26761e-007	-3.30438e-007	3.40601e-008
6.01242e-007	-3.30544e-007	3.90289e-007	-6.57399e-007	-2.87615e-007	4.70881e-007	4.79779e-007	3.33038e-007	-1.04037e-007	-6.21945e-007	1.58187e-007	-4.32634e-007	-1.22844e-007	1.23602e-007
5.24511e-007	3.96171e-007	9.90869e-008	7.17157e-007	7.42104e-007	6.87882e-007	-3.67573e-007	-7.60703e-007	4.50182e-008	5.78225e-007	-1.04393e-006	2.13117e-007	-3.51035e-007	-1.48003e-006
-8.70022e-009	5.48618e-008	1.53108e-008	-3.96468e-007	-3.45192e-007	-7.0304e-008	3.07391e-007	3.42599e-007	2.00871e-007	-2.81899e-007	2.88609e-008	-1.43185e-007	1.12088e-007	1.83764e-007
-9.25628e-008	7.06964e-008	2.98295e-007	-3.99167e-007	-1.03071e-006	-9.57059e-007	3.16431e-007	3.14104e-007	1.84702e-007	5.46167e-009	4.10261e-007	2.28492e-007	2.85834e-007	3.65222e-007
8.60332e-007	-5.61332e-007	6.73985e-007	-6.8696e-007	-2.39013e-007	5.10827e-007	6.11965e-007	3.2619e-007	-3.15938e-007	-7.48462e-007	3.06096e-007	-5.73084e-007	-2.69209e-007	1.04604e-007
5.54587e-007	-4.0757e-007	6.90604e-007	-8.98026e-007	-9.16229e-007	-2.09217e-007	7.62508e-007	5.45077e-007	-1.03958e-007	-6.22938e-007	5.1831e-007	-2.9358e-007	8.19987e-009	3.72231e-007
-2.46991e-007	1.33839e-007	-3.44252e-007	-1.82754e-007	-1.40489e-007	-1.57092e-007	1.60484e-007	4.64206e-007	3.73264e-007	-2.15448e-007	-3.19017e-007	-1.88847e-007	2.98259e-007	3.64837e-007
5.84315e-007	-4.33281e-007	4.36063e-007	-1.74347e-007	1.72588e-008	4.50916e-007	1.45021e-007	-1.18454e-007	-4.31501e-007	-2.06002e-007	2.19246e-007	-1.69005e-007	-2.50443e-007	-6.97852e-008
-1.7934e-007	6.27943e-007	-3.78066e-007	4.71217e-007	2.85268e-007	4.98909e-008	-9.40818e-007	-1.15611e-006	4.92108e-007	5.84863e-007	-3.89574e-007	5.70104e-007	3.65245e-007	-4.02732e-007
4.83213e-007	-2.53861e-007	1.62989e-007	-3.99405e-007	8.38508e-008	7.41658e-007	2.61579e-007	1.65265e-007	-1.13077e-007	-4.8413e-007	-4.24498e-008	-4.06744e-007	-1.75041e-007	-2.3846e-008
4.96537e-007	-8.16738e-007	6.96796e-007	-4.66505e-007	-1.86059e-007	1.71032e-007	9.88241e-007	7.34707e-007	-7.26312e-007	-6.42072e-007	5.83331e-007	-6.33062e-007	-4.95938e-007	2.96042e-007
-1.58312e-007	-1.94393e-007	7.69335e-008	-5.73733e-007	-4.35645e-007	-2.94545e-007	6.09859e-007	7.40832e-007	1.70735e-007	-6.05726e-007	3.32279e-007	-4.32797e-007	1.77408e-007	5.87105e-007
3.49455e-007	-1.92982e-007	3.09678e-008	-2.51885e-007	3.13748e-007	7.92416e-007	1.44165e-007	8.8062e-008	-9.55012e-008	-4.02168e-007	-1.35591e-007	-3.77293e-007	-1.80614e-007	-8.27808e-008
3.77316e-007	-8.92118e-007	7.8696e-007	-5.0955e-007	-2.56197e-007	3.74302e-008	1.09343e-006	8.70671e-007	-8.42086e-007	-7.40277e-007	1.08061e-006	-8.67933e-007	-7.52205e-007	6.13945e-007
5.13964e-007	5.69921e-008	3.60548e-007	4.78044e-007	5.27435e-007	5.44255e-007	-2.34113e-007	-1.27974e-006	-4.02425e-007	3.62648e-007	3.52576e-008	1.57215e-007	-3.88427e-007	-7.31658e-007
-4.19098e-007	5.4074e-007	-4.83872e-007	5.13648e-007	2.80098e-007	-1.24581e-007	-7.15914e-007	-5.32854e-007	3.18989e-007	5.51281e-007	-3.31265e-007	4.24911e-007	2.02194e-007	-2.24279e-007
7.41494e-008	-6.99709e-008	3.65839e-007	-4.82853e-007	-9.09519e-007	-6.42799e-007	3.67641e-007	3.1167e-007	7.38905e-008	-1.2714e-007	4.09277e-007	1.07004e-007	1.92966e-007	3.29845e-007
5.12792e-007	-5.24152e-007	7.04284e-007	-8.15959e-007	-7.32045e-007	-1.21522e-007	7.55924e-007	5.13677e-007	-2.30177e-007	-6.18976e-007	5.61179e-007	-3.1256e-007	-5.39012e-008	3.61436e-007
7.75932e-007	-6.70017e-007	7.31193e-007	-5.86447e-007	-2.51463e-007	3.70978e-007	7.01829e-007	3.37834e-007	-4.71278e-007	-6.43989e-007	4.09633e-007	-5.05849e-007	-3.21355e-007	1.22998e-007
9.2512e-007	-6.03638e-007	5.27182e-007	-9.89054e-008	4.14709e-007	9.34789e-007	2.83217e-007	-1.20099e-007	-6.21516e-007	-4.04403e-007	7.0202e-008	-5.07559e-007	-5.35871e-007	-2.63228e-007
-1.78691e-009	-4.32936e-008	1.033e-007	1.11144e-008	-8.53319e-008	-9.7861e-008	-7.34749e-008	-1.73004e-007	-1.25491e-007	9.87906e-008	1.66928e-007	1.52599e-007	3.23805e-008	3.51314e-008
-4.03652e-007	2.05325e-007	1.14874e-007	-3.9064e-007	-1.00068e-006	-1.12998e-006	3.19348e-007	4.30853e-007	3.56767e-007	2.92239e-008	3.51403e-007	2.71528e-007	4.01897e-007	4.43729e-007
-4.1851e-008	-6.82355e-008	4.1958e-007	-8.89385e-007	-1.20197e-006	-8.43325e-007	6.97575e-007	6.88395e-007	2.55909e-007	-4.26159e-007	5.31292e-007	-1.78058e-008	3.251e-007	5.70883e-007
8.66278e-007	-6.50832e-007	7.86585e-007	-6.22381e-007	-3.53661e-007	3.79313e-007	5.76433e-007	2.09866e-007	-4.70936e-007	-5.90397e-007	4.54718e-007	-4.0914e-007	-2.83245e-007	1.07399e-007
-2.71669e-007	3.10349e-008	-7.30431e-008	-4.70551e-007	-4.20832e-007	-3.47975e-007	4.56104e-007	5.84842e-007	2.99297e-007	-3.84968e-007	1.21014e-007	-1.79657e-007	2.45491e-007	4.1091e-007
9.36194e-007	-6.55615e-007	6.21769e-007	-3.61088e-007	1.25708e-007	7.96315e-007	4.4456e-007	6.67301e-008	-5.56999e-007	-5.49154e-007	2.03822e-007	-5.25386e-007	-4.44261e-007	-1.02595e-007
5.96273e-008	1.39282e-007	1.85547e-009	3.11944e-007	2.22081e-007	1.22733e-007	-3.96284e-007	-6.25367e-007	-1.23755e-007	3.33709e-007	-2.56461e-008	2.66925e-007	-3.59007e-008	-2.51205e-007
4.84377e-007	-7.85718e-007	7.2953e-007	-5.65791e-007	-3.03674e-007	9.09327e-008	9.7432e-007	6.74034e-007	-6.0917e-007	-6.77572e-007	6.2109e-007	-5.84358e-007	-3.80163e-007	3.32161e-007
-2.43585e-007	-2.0635e-008	3.03128e-007	-8.73707e-007	-1.10821e-006	-8.69787e-007	6.49788e-007	7.06229e-007	3.19034e-007	-4.23043e-007	5.29244e-007	1.79394e-008	3.92285e-007	6.21317e-007
2.49187e-007	-9.00032e-007	5.69096e-007	-5.64037e-007	-3.2833e-007	-4.87581e-008	1.05786e-006	1.30917e-006	-8.09353e-007	-7.48029e-007	7.58608e-007	-7.78458e-007	-5.72521e-007	8.05592e-007
7.4668e-007	-7.76412e-007	7.82479e-007	-3.68042e-007	-3.14203e-008	4.17642e-007	7.3863e-007	2.73844e-007	-7.18314e-007	-5.52811e-007	4.76764e-007	-5.4341e-007	-4.97747e-007	5.21174e-008
4.88121e-007	-5.73389e-007	6.08546e-007	-6.89254e-007	-5.03701e-007	3.2572e-008	7.61903e-007	5.37873e-007	-2.96644e-007	-6.12087e-007	4.58345e-007	-3.83213e-007	-1.33407e-007	3.04336e-007
7.69817e-008	-1.31261e-007	1.90105e-007	-6.98442e-008	-1.49415e-007	-9.21377e-008	4.23724e-008	-6.97689e-008	-1.65908e-007	1.79034e-008	2.10895e-007	8.31756e-008	-4.83387e-009	6.1736e-008
3.8185e-007	-3.40298e-007	5.00113e-007	-4.72557e-007	-5.45096e-007	-9.98095e-008	3.62085e-007	1.77166e-007	-2.11655e-007	-2.68256e-007	4.11393e-007	-6.84763e-008	-2.46716e-008	1.98212e-007
1.71428e-007	-6.76754e-007	6.55806e-007	-4.80203e-007	-3.62076e-007	-1.5445e-007	6.00855e-007	3.34115e-007	-5.94166e-007	-5.32493e-007	1.23316e-006	-4.27037e-007	-3.22784e-007	5.54603e-007
4.93706e-007	-3.89917e-007	4.8406e-007	-7.36024e-008	1.06228e-008	2.56448e-007	1.06079e-007	-2.00067e-007	-4.58535e-007	-1.01185e-007	2.95283e-007	-9.03397e-008	-2.51444e-007	-8.11086e-008
5.50561e-007	-5.52424e-007	5.29439e-007	-1.01633e-007	1.01643e-007	3.75531e-007	3.64909e-007	-2.79023e-008	-6.51914e-007	-2.2631e-007	3.22077e-007	-2.5127e-007	-3.83075e-007	-4.96312e-008
2.31976e-007	-9.44534e-007	6.15436e-007	-5.57509e-007	-3.19804e-007	-6.14681e-008	9.89753e-007	1.1117e-006	-8.59619e-007	-7.95403e-007	1.07175e-006	-9.58691e-007	-7.83744e-007	1.26016e-006
-4.82728e-007	4.11857e-007	-6.63291e-007	-6.93518e-008	-1.50605e-007	-2.82548e-007	-1.36374e-007	3.02079e-007	6.04369e-007	4.13136e-008	-5.83278e-007	1.86225e-007	5.377e-007	2.84632e-007
9.54167e-008	-1.20388e-007	2.97275e-007	-7.66394e-007	-7.35865e-007	-3.21991e-007	6.09993e-007	6.01591e-007	1.86928e-007	-5.24152e-007	3.12063e-007	-2.13543e-007	1.73727e-007	4.0534e-007
6.92029e-007	-7.47576e-007	7.45596e-007	-2.82147e-007	5.28233e-010	3.8945e-007	6.00139e-007	1.49257e-007	-7.4537e-007	-4.41137e-007	4.96486e-007	-4.30769e-007	-4.67158e-007	4.06703e-008
6.02925e-007	2.15963e-007	3.82449e-007	6.58236e-007	6.97059e-007	6.81963e-007	-2.1065e-007	-1.47442e-006	-3.70889e-007	5.25752e-007	-8.23087e-008	2.32424e-007	-5.55059e-007	-1.30344e-006
-6.18585e-007	3.24233e-007	-5.10112e-007	-3.17301e-007	-4.21838e-007	-5.2621e-007	1.05688e-007	4.72037e-007	5.62442e-007	-1.14643e-007	-1.08414e-007	1.56812e-007	5.32489e-007	4.63403e-007
9.96516e-007	-6.01359e-007	5.06635e-007	-3.20064e-007	1.64489e-007	1.23074e-006	8.04662e-008	-2.10211e-007	-5.56108e-007	-4.16231e-007	1.26786e-007	-3.78725e-007	-4.15051e-007	-2.07885e-007
2.01794e-007	-2.6423e-007	4.5261e-007	-4.77556e-007	-6.34758e-007	-3.41965e-007	4.07125e-007	2.63084e-007	-1.21561e-007	-2.39207e-007	4.40578e-007	-1.91648e-008	5.63486e-008	2.76903e-007
4.03633e-007	-3.64175e-007	6.55529e-007	-9.37703e-007	-1.02866e-006	-3.53647e-007	7.23343e-007	5.62217e-007	-4.27775e-008	-5.71386e-007	5.84459e-007	-1.84445e-007	1.04479e-007	4.49133e-007
5.07982e-007	-6.2346e-007	6.98186e-007	-6.21503e-007	-2.35186e-007	1.70963e-007	8.08441e-007	5.84019e-007	-2.96208e-007	-8.53274e-007	5.47654e-007	-7.61049e-007	-2.55709e-007	3.29144e-007
-5.62991e-007	3.13914e-007	-7.78435e-008	-2.97091e-007	-8.52139e-007	-1.03126e-006	1.45286e-007	3.54693e-007	4.45661e-007	1.15594e-007	2.37373e-007	3.41933e-007	4.57356e-007	4.09519e-007
8.06795e-007	-6.88633e-007	7.03451e-007	-4.34581e-007	-9.64553e-008	4.95634e-007	5.29595e-007	1.42998e-007	-5.73624e-007	-5.16057e-007	3.84264e-007	-4.20939e-007	-3.63884e-007	3.14365e-008
8.16724e-007	-4.50709e-007	4.80595e-007	-7.89001e-007	-2.79755e-007	8.74178e-007	4.49802e-007	2.56603e-007	-2.16165e-007	-7.12831e-007	1.83875e-007	-4.87406e-007	-1.98847e-007	7.29375e-008
-1.88035e-007	-9.80602e-008	4.14912e-007	-9.13148e-007	-1.14468e-006	-8.74948e-007	6.54247e-007	6.62976e-007	2.36471e-007	-4.3833e-007	6.42512e-007	3.72645e-008	3.72419e-007	6.36397e-007
4.00936e-007	-5.7286e-007	5.87587e-007	-6.93036e-007	-4.71106e-007	-2.11793e-008	8.51917e-007	6.56387e-007	-2.66325e-007	-6.79556e-007	4.68691e-007	-4.71271e-007	-1.43616e-007	3.53432e-007
7.3841e-007	-7.78545e-007	9.49991e-007	-9.37622e-008	1.91089e-007	4.69552e-007	8.55244e-007	2.60128e-007	-9.96393e-007	-4.33986e-007	8.31059e-007	-7.93359e-007	-1.07149e-006	-1.27942e-007
1.57404e-007	-1.61145e-007	2.60122e-007	-6.49584e-007	-5.02413e-007	-1.24687e-007	5.65603e-007	5.39159e-007	1.19513e-007	-5.31557e-007	2.22452e-007	-2.93611e-007	8.34079e-008	3.15336e-007
8.23094e-007	-6.32582e-007	5.93202e-007	-2.8847e-007	8.91883e-008	6.77281e-007	3.43981e-007	-2.5968e-008	-5.84641e-007	-4.09135e-007	2.58949e-007	-3.71327e-007	-3.89725e-007	-8.3847e-008
7.59803e-007	-6.18255e-007	6.16202e-007	-1.68e-007	1.38957e-007	5.70042e-007	2.76161e-007	-1.09584e-007	-6.26036e-007	-3.14255e-007	3.04399e-007	-3.1538e-007	-4.06463e-007	-1.0759e-007
3.18904e-007	-8.26893e-007	5.9275e-007	-5.72454e-007	-3.3098e-007	-7.621e-009	1.00467e-006	1.00441e-006	-6.42859e-007	-7.0418e-007	6.34187e-007	-6.32593e-007	-3.73205e-007	5.35864e-007
4.48947e-007	-8.46529e-007	8.77924e-007	-4.50469e-007	-1.85563e-007	1.04521e-007	8.66537e-007	5.22483e-007	-7.36013e-007	-7.24192e-007	1.23573e-006	-9.11676e-007	-6.67114e-007	4.65417e-007
3.7367e-007	-4.93064e-008	5.28235e-007	-9.4451e-007	-1.55538e-006	-5.67763e-007	6.68119e-007	5.93195e-007	2.19561e-007	-4.18965e-007	4.7834e-007	-4.78211e-008	2.54694e-007	4.67932e-007
7.32274e-007	-6.49185e-007	7.785e-007	-5.93392e-007	-3.60149e-007	2.42461e-007	5.76822e-007	2.28237e-007	-4.69326e-007	-5.5562e-007	5.21128e-007	-3.61359e-007	-2.48841e-007	1.58451e-007
5.53724e-007	-4.9594e-007	7.52654e-007	-8.97623e-007	-8.3433e-007	-1.44368e-007	7.1292e-007	4.78525e-007	-1.93092e-007	-6.32317e-007	6.09189e-007	-2.74922e-007	-1.33617e-008	3.78942e-007
6.04991e-007	-6.95332e-007	6.33227e-007	-4.14864e-007	-8.40681e-008	3.30749e-007	7.8991e-007	4.66335e-007	-5.62708e-007	-5.89121e-007	3.79442e-007	-5.65682e-007	-4.15554e-007	1.22677e-007
7.91e-007	-1.1661e-007	6.85515e-007	5.27984e-007	6.77703e-007	7.67399e-007	4.18072e-007	-4.2124e-007	-7.75092e-007	2.60184e-007	2.23275e-007	-2.32189e-007	-1.33139e-006	-1.47461e-006
5.43226e-007	-6.57368e-007	6.41345e-007	-2.94527e-007	-9.40099e-008	2.42997e-007	5.83775e-007	1.96091e-007	-6.62053e-007	-3.77953e-007	4.7228e-007	-3.29595e-007	-3.64524e-007	1.00317e-007
6.18387e-007	-7.73749e-007	9.09121e-007	-4.16665e-007	-6.6502e-008	2.79717e-007	8.88437e-007	4.92961e-007	-6.12736e-007	-7.62115e-007	8.12842e-007	-9.57895e-007	-6.19789e-007	2.07985e-007
9.71043e-007	-6.73168e-007	6.70415e-007	-4.88874e-007	-1.4204e-008	7.71423e-007	4.79361e-007	1.14646e-007	-5.27579e-007	-6.07103e-007	2.64316e-007	-5.18456e-007	-3.99653e-007	-4.21673e-008
7.11307e-007	-6.48171e-007	6.86444e-007	-6.77116e-007	-2.86728e-007	3.47e-007	7.12902e-007	4.30403e-007	-3.71285e-007	-7.28428e-007	4.1531e-007	-5.36351e-007	-2.52948e-007	1.97661e-007
6.13903e-007	-5.58873e-007	6.38703e-007	-7.29502e-007	-5.17852e-007	1.52889e-007	7.05595e-007	4.57427e-007	-2.86075e-007	-6.28735e-007	4.30398e-007	-3.88421e-007	-1.44054e-007	2.54598e-007
5.56126e-007	-6.7961e-007	6.35307e-007	-7.86157e-008	1.27203e-007	3.62184e-007	6.28542e-007	2.03259e-007	-9.9257e-007	-2.63179e-007	4.83541e-007	-3.69766e-007	-6.23847e-007	1.14253e-008
7.1335e-007	-6.3916e-007	8.42585e-007	9.44826e-008	3.38417e-007	5.41165e-007	8.59144e-007	4.37812e-007	-1.08003e-006	-2.61207e-007	7.60499e-007	-8.16037e-007	-1.64116e-006	-1.49858e-007
5.36934e-007	-2.57634e-007	6.06099e-007	-7.69735e-007	-1.19236e-006	-2.22253e-007	5.10721e-007	3.49108e-007	-5.22715e-008	-3.50547e-007	4.87161e-007	-5.16567e-008	8.82274e-008	3.18207e-007
5.59299e-007	-8.03395e-007	6.72614e-007	-3.74637e-007	-7.80943e-008	2.79917e-007	8.82607e-007	5.91895e-007	-7.69563e-007	-5.67161e-007	4.99603e-007	-5.79735e-007	-5.10326e-007	1.96978e-007
4.93784e-007	-4.40297e-007	5.48101e-007	-7.73089e-007	-4.52607e-007	1.1761e-007	7.00658e-007	5.36206e-007	-1.1567e-007	-7.3577e-007	3.74699e-007	-4.74971e-007	-7.78533e-008	2.99201e-007
7.06897e-007	-4.31416e-007	1.92824e-007	3.55457e-007	8.76406e-007	1.1191e-006	-2.71363e-007	-5.07989e-007	-5.82692e-007	-5.13449e-008	-1.56826e-007	-2.84182e-007	-5.07931e-007	-4.56937e-007
6.34775e-007	-5.42755e-007	6.38311e-007	1.41817e-007	3.29497e-007	5.08746e-007	4.5719e-007	-1.63729e-007	-1.03646e-006	-7.70445e-008	4.07521e-007	-2.89178e-007	-7.56948e-007	-2.51745e-007
4.53079e-007	-1.82452e-007	2.50147e-007	-6.67087e-007	-4.7549e-007	5.5798e-007	3.813e-007	3.03043e-007	8.18633e-009	-5.13801e-007	1.01635e-007	-3.13874e-007	-3.37352e-008	1.31069e-007
8.45092e-007	-6.1252e-007	6.21196e-007	-5.02472e-007	-1.68479e-007	6.4121e-007	3.91294e-007	7.51866e-008	-4.77734e-007	-4.90568e-007	3.13272e-007	-3.52709e-007	-2.94847e-007	1.20786e-008
6.1321e-007	-6.82722e-007	6.10616e-007	-4.88815e-007	-1.21499e-007	3.45847e-007	7.31077e-007	4.60833e-007	-4.7008e-007	-6.39204e-007	3.69282e-007	-5.54961e-007	-3.35565e-007	1.61981e-007
2.11507e-007	-3.30449e-007	4.22008e-007	-2.27551e-007	-2.63528e-007	-9.59001e-008	2.16755e-007	4.97496e-010	-3.25997e-007	-1.21019e-007	4.30761e-007	1.16304e-008	-6.96905e-008	1.40976e-007
2.49417e-007	-8.52258e-007	7.01655e-007	-5.24566e-007	-3.22943e-007	-7.37722e-008	8.17038e-007	6.43543e-007	-7.40523e-007	-7.05149e-007	1.28186e-006	-7.67627e-007	-5.49666e-007	8.42996e-007
5.58151e-007	-5.82857e-007	7.28896e-007	-8.01483e-007	-6.39247e-007	-1.20063e-008	7.03289e-007	4.53026e-007	-2.90211e-007	-6.35701e-007	5.84675e-007	-3.23163e-007	-8.43531e-008	3.40985e-007
6.47889e-007	-5.0909e-007	6.64575e-007	-7.25625e-007	-2.57743e-007	2.965e-007	6.59264e-007	4.40772e-007	-2.02323e-007	-8.46656e-007	4.00955e-007	-6.22825e-007	-1.76383e-007	2.30692e-007
5.63666e-007	-4.60289e-007	7.43189e-007	-9.38772e-007	-9.11708e-007	-1.5573e-007	6.9963e-007	4.81486e-007	-1.53176e-007	-6.25145e-007	6.02083e-007	-2.49002e-007	1.64034e-008	3.87365e-007
5.53699e-007	-5.8299e-007	7.9768e-007	-9.56884e-007	-6.41995e-007	-1.63553e-008	7.62018e-007	5.35781e-007	-2.11722e-007	-8.4189e-007	6.74018e-007	-4.42755e-007	-4.82148e-008	4.1961e-007
6.79202e-007	-6.33242e-007	7.75004e-007	-8.33233e-007	-5.10243e-007	1.63409e-007	7.61116e-007	4.84447e-007	-3.12011e-007	-7.77106e-007	5.49787e-007	-4.8727e-007	-1.63422e-007	3.03562e-007
2.50165e-007	-3.08097e-008	9.75337e-008	1.15037e-007	2.50887e-007	2.9595e-007	2.35132e-007	2.25614e-007	4.25645e-009	-1.31529e-007	-2.83425e-007	-5.55676e-007	-3.20586e-007	-1.52548e-007
4.49447e-007	-7.7947e-007	7.66391e-007	-4.27384e-007	-1.31106e-007	1.5862e-007	1.03353e-006	7.71034e-007	-6.6062e-007	-7.39104e-007	8.89977e-007	-9.9209e-007	-7.36571e-007	3.97346e-007
9.30914e-007	-6.89219e-007	6.08359e-007	-3.05351e-007	2.07127e-007	8.67143e-007	3.59981e-007	-1.82989e-008	-6.15774e-007	-4.98699e-007	2.14193e-007	-4.78249e-007	-4.55528e-007	-1.26599e-007
6.83977e-007	-8.18512e-007	8.56348e-007	-2.17071e-007	5.87787e-008	3.8133e-007	7.96021e-007	2.54855e-007	-9.57588e-007	-4.57396e-007	6.74608e-007	-5.77257e-007	-7.1698e-007	3.88862e-008
9.58264e-007	-6.99105e-007	7.19483e-007	-4.73052e-007	-3.86657e-008	7.10497e-007	4.3133e-007	5.84387e-008	-5.67035e-007	-5.63191e-007	3.3814e-007	-4.57424e-007	-3.8833e-007	-2.93493e-008
3.90256e-007	-7.43316e-007	6.17524e-007	-6.19e-007	-3.68026e-007	2.18326e-008	9.19154e-007	7.65477e-007	-4.77096e-007	-6.92051e-007	5.62494e-007	-5.40495e-007	-2.52363e-007	4.15609e-007
7.77863e-007	-5.87929e-007	6.70113e-007	-7.57081e-007	-3.63162e-007	4.19256e-007	6.53886e-007	3.87475e-007	-3.08671e-007	-7.34065e-007	3.78017e-007	-5.02799e-007	-2.1348e-007	1.80578e-007
1.35306e-007	-1.22728e-007	4.31242e-007	-8.87821e-007	-1.19323e-006	-6.08758e-007	6.7191e-007	6.47112e-007	2.00726e-007	-4.37606e-007	4.67458e-007	-6.1356e-008	2.58469e-007	4.99282e-007
8.26866e-007	-6.5856e-007	9.14156e-007	1.03395e-007	3.87018e-007	6.27881e-007	6.6381e-007	5.03878e-008	-9.20588e-007	-2.90677e-007	6.05992e-007	-7.94479e-007	-1.12844e-006	-3.86767e-007
7.63024e-007	-2.43665e-007	6.93325e-007	4.52196e-007	6.08506e-007	7.15229e-007	4.32601e-007	-4.36039e-007	-9.87482e-007	1.92688e-007	3.25366e-007	-2.36219e-007	-1.27633e-006	-1.0032e-006
6.42746e-007	-5.48102e-007	6.99821e-007	1.58753e-007	3.37174e-007	5.05226e-007	5.99555e-007	1.75755e-009	-1.21857e-006	-7.04074e-008	5.30898e-007	-3.42434e-007	-1.03525e-006	-2.61162e-007
5.29915e-007	-7.4293e-007	8.67993e-007	-5.89528e-007	-2.18822e-007	1.54226e-007	8.08217e-007	5.25347e-007	-4.35711e-007	-9.03414e-007	8.73833e-007	-9.08431e-007	-3.49178e-007	3.88484e-007
4.95197e-007	-7.64482e-007	9.07812e-007	-4.76485e-007	-2.26758e-007	9.5551e-008	6.85465e-007	3.09588e-007	-6.12634e-007	-6.61398e-007	1.01235e-006	-6.36541e-007	-4.2507e-007	2.97405e-007
5.28711e-007	-5.54226e-007	5.74317e-007	-4.45539e-007	-2.81893e-007	1.75121e-007	5.17461e-007	2.34783e-007	-4.25606e-007	-4.11025e-007	4.04242e-007	-2.65945e-007	-2.00525e-007	1.50125e-007
6.74627e-007	-7.58579e-007	7.95645e-007	-3.65025e-007	-9.49571e-008	3.11e-007	6.37212e-007	1.97116e-007	-7.03273e-007	-4.95495e-007	5.73214e-007	-4.42894e-007	-4.30494e-007	1.01901e-007
6.47627e-007	-3.15664e-007	5.80332e-007	2.53101e-007	4.67529e-007	5.96527e-007	5.09449e-007	1.53572e-007	-5.47123e-007	-1.15823e-007	1.60585e-007	-7.74475e-007	-1.10811e-006	-5.07524e-007
4.00332e-007	-7.17978e-007	5.9118e-007	-4.20475e-007	-2.38818e-007	8.06989e-008	7.30874e-007	5.11565e-007	-6.43847e-007	-4.74094e-007	5.41276e-007	-3.68272e-007	-2.94226e-007	3.01786e-007
4.88433e-007	-6.43369e-007	6.16107e-007	-6.24937e-007	-4.12583e-007	8.10565e-008	7.34031e-007	5.05455e-007	-3.9113e-007	-5.87567e-007	4.8483e-007	-3.77649e-007	-1.7051e-007	2.97833e-007
6.51255e-007	-7.83342e-007	6.7809e-007	-3.70024e-007	-2.87567e-008	3.8621e-007	7.53893e-007	4.06258e-007	-6.95953e-007	-5.60045e-007	4.37892e-007	-5.41507e-007	-4.56333e-007	1.22364e-007
1.76056e-007	-1.41487e-007	-1.61384e-008	4.87611e-007	6.19358e-007	4.49217e-007	-3.79444e-007	-4.75445e-007	-3.37767e-007	2.54415e-007	-1.1768e-007	4.7862e-008	-2.48551e-007	-3.18007e-007
6.52118e-007	-7.31028e-007	6.86566e-007	-5.15e-007	-1.95048e-007	3.11416e-007	7.21586e-007	3.94314e-007	-5.47511e-007	-6.01475e-007	4.54867e-007	-4.78471e-007	-3.27267e-007	1.74931e-007
3.05136e-007	-4.45064e-007	6.05881e-007	-8.48134e-007	-8.37557e-007	-3.15295e-007	7.3422e-007	5.88661e-007	-1.1199e-007	-5.78981e-007	5.86908e-007	-2.17598e-007	7.1598e-008	4.62217e-007
8.63039e-007	-6.39176e-007	5.76721e-007	-4.51909e-007	7.19259e-008	7.67774e-007	4.70143e-007	1.57224e-007	-4.76992e-007	-6.08113e-007	2.12177e-007	-5.30865e-007	-3.79727e-007	-3.22216e-008
9.99222e-007	-6.3174e-007	5.61139e-007	-5.55661e-007	6.83056e-008	1.07452e-006	3.75179e-007	7.91053e-008	-4.62463e-007	-6.61252e-007	1.62478e-007	-5.47594e-007	-3.83656e-007	-7.75862e-008
7.17701e-007	-8.40845e-007	8.26694e-007	-1.90291e-007	1.28686e-007	4.56655e-007	8.56568e-007	3.72863e-007	-9.90188e-007	-4.89248e-007	5.91884e-007	-6.68191e-007	-7.92725e-007	2.04369e-008
1.34898e-007	1.24784e-007	4.97024e-007	-7.07577e-007	-1.89215e-006	-1.20011e-006	5.5955e-007	5.34373e-007	3.13573e-007	-8.85654e-008	5.61735e-007	2.40802e-007	3.95966e-007	5.25699e-007
4.09897e-007	-2.37094e-007	5.78061e-007	-8.36629e-007	-1.19943e-006	-3.59436e-007	5.71946e-007	4.42227e-007	1.01825e-008	-3.84104e-007	5.13424e-007	-4.32808e-008	1.45378e-007	3.88857e-007
6.3755e-007	-8.05706e-007	7.44379e-007	-5.10923e-007	-1.57766e-007	2.94887e-007	8.35002e-007	5.08823e-007	-6.09918e-007	-6.84371e-007	5.33417e-007	-6.08038e-007	-4.03239e-007	2.25903e-007
6.57289e-007	-5.84799e-007	6.00361e-007	-6.38445e-007	-3.05778e-007	3.30457e-007	6.61955e-007	4.08302e-007	-3.3147e-007	-6.45611e-007	3.5199e-007	-4.62854e-007	-2.19421e-007	1.78025e-007
3.68179e-007	-4.66417e-007	5.5537e-007	-6.46047e-007	-6.08384e-007	-1.27667e-007	5.92675e-007	4.13182e-007	-2.27316e-007	-4.56496e-007	4.90189e-007	-1.90728e-007	-2.08198e-008	3.24279e-007
9.67423e-007	-6.28018e-007	4.19034e-007	-1.65773e-007	5.16455e-007	1.35388e-006	5.27442e-008	-2.62086e-007	-6.19977e-007	-4.0978e-007	1.74219e-008	-4.48422e-007	-4.98351e-007	-2.94554e-007
3.42987e-007	-5.05404e-007	5.39678e-007	-7.74295e-007	-6.1617e-007	-1.18809e-007	7.84439e-007	6.5745e-007	-1.54652e-007	-6.50076e-007	4.73281e-007	-3.63267e-007	-2.35015e-008	4.08339e-007
7.77173e-007	-5.97835e-007	6.553e-007	-7.42369e-007	-4.18911e-007	4.35997e-007	6.10641e-007	3.41148e-007	-3.39291e-007	-6.5663e-007	3.84383e-007	-4.2088e-007	-2.0068e-007	1.71954e-007
-1.72293e-007	1.3822e-007	-9.93311e-008	-2.18407e-007	-2.24205e-007	-2.24794e-007	2.21902e-007	3.06079e-007	2.48028e-007	-1.54672e-007	-3.62358e-008	-7.5588e-008	1.35587e-007	1.5571e-007
6.66184e-007	-6.80753e-007	8.29539e-007	-8.29381e-007	-4.85314e-007	1.41572e-007	7.48889e-007	4.62337e-007	-3.53345e-007	-8.00466e-007	6.34924e-007	-4.92163e-007	-1.69767e-007	3.27744e-007
5.90531e-007	-7.59411e-007	7.54091e-007	-4.45518e-007	-1.93461e-007	2.13553e-007	6.34637e-007	2.79329e-007	-6.30094e-007	-5.27848e-007	6.10123e-007	-4.02887e-007	-3.29665e-007	2.06618e-007
4.94828e-007	-3.82994e-007	6.14258e-007	-9.58133e-007	-9.38071e-007	-1.21871e-007	7.17704e-007	5.63444e-007	-4.68804e-008	-6.32602e-007	4.9626e-007	-2.63372e-007	5.88353e-008	3.98595e-007
1.01847e-006	-6.82417e-007	6.29019e-007	-4.84624e-007	5.67348e-008	1.01267e-006	3.14952e-007	-2.06713e-008	-5.55383e-007	-5.66409e-007	2.36419e-007	-4.62618e-007	-4.01014e-007	-9.51236e-008
7.11062e-007	-8.37063e-007	9.1924e-007	-1.89917e-007	1.31928e-007	4.34382e-007	8.7742e-007	4.14458e-007	-9.09741e-007	-5.65277e-007	8.06796e-007	-9.14272e-007	-9.5133e-007	7.23141e-008
6.48784e-007	-7.3447e-007	8.27836e-007	-6.84609e-007	-2.66205e-007	2.33767e-007	8.10485e-007	5.14108e-007	-4.11413e-007	-8.73137e-007	6.26722e-007	-7.06701e-007	-2.90248e-007	3.0508e-007
6.56079e-007	-9.29569e-007	8.6255e-007	-3.79983e-007	-2.95719e-008	3.34427e-007	8.52136e-007	4.97574e-007	-8.16911e-007	-6.9105e-007	7.59825e-007	-7.8406e-007	-6.11331e-007	2.79886e-007
4.91083e-007	-4.80393e-007	6.61261e-007	-9.6842e-007	-7.3471e-007	-5.17728e-008	7.59482e-007	5.91173e-007	-1.04589e-007	-7.64977e-007	5.47083e-007	-3.77396e-007	1.29075e-008	4.19268e-007
-5.84154e-007	8.7941e-007	-8.00248e-007	5.19986e-007	1.82735e-007	-2.22637e-007	-8.95077e-007	-5.91031e-007	6.80827e-007	7.31508e-007	-6.91325e-007	6.82384e-007	4.44238e-007	-3.36617e-007
1.00831e-006	-5.33653e-007	6.45002e-007	-9.19123e-007	-6.72486e-007	9.40678e-007	5.07768e-007	2.53698e-007	-2.8852e-007	-7.12222e-007	3.07724e-007	-4.42078e-007	-2.02365e-007	1.07266e-007
6.2435e-007	-4.4518e-007	1.08672e-007	3.54607e-007	1.06146e-006	1.27611e-006	-2.97921e-007	-5.24575e-007	-5.97088e-007	-8.05644e-008	-1.98613e-007	-3.01818e-007	-5.1319e-007	-4.66255e-007
9.07502e-007	-5.65376e-007	7.3629e-007	-9.13469e-007	-5.96168e-007	4.88441e-007	6.23324e-007	3.51801e-007	-2.83096e-007	-7.47302e-007	4.23159e-007	-4.48651e-007	-1.71966e-007	1.95512e-007
6.48072e-007	-7.47073e-007	8.03178e-007	-7.12751e-007	-3.39628e-007	2.04928e-007	8.05258e-007	5.05826e-007	-4.35229e-007	-8.01932e-007	6.06786e-007	-5.86719e-007	-2.58365e-007	3.07649e-007
9.3301e-007	-5.16676e-007	6.95029e-007	-9.12468e-007	-8.59675e-007	6.38794e-007	5.30083e-007	2.73784e-007	-2.74077e-007	-6.21457e-007	4.05513e-007	-3.28198e-007	-1.37298e-007	1.73635e-007
-7.27496e-007	6.52549e-007	-6.40714e-007	6.09975e-007	1.32733e-007	-4.68813e-007	-6.5831e-007	-3.93431e-007	3.78542e-007	7.42703e-007	-3.52654e-007	5.85855e-007	2.89058e-007	-1.49998e-007
6.55743e-007	-8.73722e-007	8.19358e-007	-3.8962e-007	-7.16465e-008	3.17097e-007	7.38939e-007	3.53952e-007	-7.73868e-007	-5.96944e-007	6.6525e-007	-5.69311e-007	-4.82686e-007	2.07459e-007
5.52021e-007	-7.6717e-007	7.0693e-007	-4.28397e-007	-4.41988e-008	2.94311e-007	8.51032e-007	6.4428e-007	-5.00573e-007	-7.99582e-007	5.8761e-007	-9.44006e-007	-4.81613e-007	3.29356e-007
-3.60593e-007	8.72079e-007	-6.99679e-007	6.62181e-007	3.71042e-007	1.06261e-008	-9.32448e-007	-8.19332e-007	5.41265e-007	8.30963e-007	-8.19092e-007	7.05568e-007	2.72165e-007	-6.34746e-007
9.07008e-007	-5.50182e-007	5.92231e-007	-7.86121e-007	-3.01736e-007	8.10938e-007	5.05637e-007	2.58018e-007	-3.05503e-007	-7.26976e-007	2.59816e-007	-5.01694e-007	-2.4119e-007	7.97535e-008
4.45439e-007	-5.09735e-007	6.38318e-007	-5.98393e-007	-5.21876e-007	-5.01233e-008	4.92886e-007	2.61248e-007	-3.14618e-007	-4.30194e-007	5.53294e-007	-1.66381e-007	-6.90709e-008	2.69205e-007
1.00461e-006	-5.23694e-007	7.49892e-007	-9.38334e-007	-9.19831e-007	6.73562e-007	4.99328e-007	2.32885e-007	-2.92108e-007	-6.23292e-007	4.3797e-007	-3.191e-007	-1.45078e-007	1.6319e-007
7.28292e-007	-7.15968e-007	7.16145e-007	-6.50156e-007	-1.95396e-007	3.99232e-007	7.17655e-007	4.32188e-007	-4.22598e-007	-7.74761e-007	4.48227e-007	-5.9445e-007	-2.90842e-007	2.02432e-007
-2.79368e-007	7.76551e-007	-7.1222e-007	7.46137e-007	4.97116e-007	1.41101e-007	-8.07074e-007	-6.57067e-007	4.02539e-007	8.27482e-007	-9.38852e-007	5.59377e-007	9.92346e-008	-6.54957e-007
-9.08414e-007	7.83489e-007	-8.20393e-007	5.5322e-007	1.34716e-008	-5.97528e-007	-6.13872e-007	-2.54061e-007	5.45436e-007	7.78804e-007	-4.55709e-007	6.51865e-007	4.05724e-007	-8.2031e-008
-7.23072e-007	8.09611e-007	-8.48806e-007	6.07395e-007	2.1248e-007	-3.10681e-007	-7.3776e-007	-3.90469e-007	5.49841e-007	7.57444e-007	-6.23751e-007	5.93283e-007	3.4057e-007	-2.36087e-007
-4.01587e-007	6.80586e-007	-5.8279e-007	6.62407e-007	3.3566e-007	-7.31958e-008	-8.52237e-007	-7.34169e-007	3.10917e-007	7.85686e-007	-5.11311e-007	6.15315e-007	1.85852e-007	-4.21134e-007
-6.46738e-007	8.68453e-007	-8.82878e-007	5.39672e-007	1.68408e-007	-2.56492e-007	-7.72951e-007	-4.34364e-007	6.15363e-007	7.83441e-007	-7.71505e-007	6.99175e-007	3.98627e-007	-3.08211e-007
-9.54275e-007	7.24428e-007	-5.94496e-007	1.36016e-007	-4.80473e-007	-9.91195e-007	-2.07887e-007	1.51677e-007	6.72921e-007	4.68257e-007	-1.76661e-007	5.09876e-007	5.25015e-007	2.16796e-007
-9.74437e-007	7.67224e-007	-8.3603e-007	4.45349e-007	-7.57841e-008	-6.71503e-007	-4.81302e-007	-9.70605e-008	5.97028e-007	6.84715e-007	-4.255e-007	6.01595e-007	4.49715e-007	1.59896e-008
6.69474e-008	7.1991e-007	-3.64011e-007	8.14749e-007	6.57373e-007	4.00705e-007	-6.86596e-007	-8.88672e-007	1.88778e-007	8.1407e-007	-8.30189e-007	4.39571e-007	-2.81144e-007	-1.05149e-006
-3.77557e-007	2.54182e-007	-3.97557e-007	2.30503e-007	4.1161e-007	-1.60408e-008	-9.96915e-008	4.65362e-008	2.24302e-007	5.85296e-008	-2.99316e-007	-4.08461e-008	5.81781e-008	-5.28314e-008
-8.14745e-007	8.054e-007	-8.0723e-007	5.43095e-007	8.2699e-008	-4.77892e-007	-6.83823e-007	-3.2365e-007	5.72213e-007	7.35929e-007	-5.0204e-007	6.14877e-007	3.93093e-007	-1.37926e-007
-9.58118e-007	5.56403e-007	-5.48683e-007	8.44588e-007	2.09152e-007	-1.14377e-006	-4.22899e-007	-1.88778e-007	3.20826e-007	7.64531e-007	-2.0355e-007	5.28335e-007	2.68715e-007	-2.6757e-008
-7.2916e-007	6.64104e-007	-7.75252e-007	6.50718e-007	3.57928e-007	-2.74714e-007	-5.48287e-007	-2.37536e-007	4.42445e-007	6.01281e-007	-5.44179e-007	3.59884e-007	2.18958e-007	-1.8619e-007
-8.05004e-007	5.54671e-007	-6.9073e-007	7.37907e-007	5.33837e-007	-4.39262e-007	-4.47245e-007	-1.8319e-007	3.48163e-007	5.37116e-007	-4.39417e-007	2.773e-007	1.62275e-007	-1.46422e-007
-8.62118e-007	6.95735e-007	-6.3023e-007	5.45466e-007	-7.87717e-008	-7.47592e-007	-5.30585e-007	-2.39328e-007	4.58166e-007	7.36714e-007	-2.80637e-007	6.05348e-007	3.63813e-007	-3.59803e-008
-6.47406e-007	7.39503e-007	-7.40018e-007	6.66628e-007	3.31436e-007	-2.39723e-007	-6.85469e-007	-4.01143e-007	4.59635e-007	6.80121e-007	-5.58422e-007	4.40927e-007	2.22285e-007	-2.68353e-007
