-1.20339e-006	3.42635e-007	-1.16803e-006	-1.1794e-008	-1.82876e-007	-4.96423e-007	3.8274e-007	6.35407e-007	4.84616e-007	1.06162e-007	2.47056e-008	1.84232e-007	4.29775e-007	4.72241e-007
6.30556e-007	4.45415e-008	3.4433e-007	3.71794e-007	5.13279e-007	6.21621e-007	-5.94852e-007	-9.05276e-007	-1.70722e-007	1.97414e-007	-2.48748e-007	1.13641e-008	-2.47093e-007	-5.68207e-007
-1.42548e-006	3.45711e-007	-8.60183e-007	1.00417e-008	-1.34803e-007	-4.67892e-007	4.05601e-007	6.12444e-007	4.76032e-007	9.52513e-008	-1.04404e-008	1.44132e-007	3.90741e-007	4.18846e-007
6.66542e-007	4.76405e-007	-9.32173e-009	7.25224e-007	8.07883e-007	8.18298e-007	-3.2148e-006	-7.90366e-007	2.7314e-007	5.78783e-007	-5.10076e-007	3.87943e-007	1.595e-007	-3.69158e-007
-8.34559e-007	1.46729e-007	-9.91082e-007	-2.06313e-007	-3.5715e-007	-5.49134e-007	7.66401e-007	7.38389e-007	3.30617e-007	-6.15311e-008	1.00533e-007	7.10768e-008	3.35757e-007	5.10267e-007
-7.94239e-007	1.5175e-007	-5.19456e-007	-1.392e-007	-3.30076e-007	-5.63002e-007	2.5822e-007	4.27589e-007	2.71338e-007	3.72226e-008	2.51361e-007	1.86439e-007	3.30961e-007	4.31092e-007
-2.39527e-007	2.25561e-007	-1.57341e-007	2.49906e-007	1.40378e-007	-4.0577e-008	-8.93376e-007	-3.94261e-007	1.34045e-007	3.12298e-007	1.22702e-007	3.31449e-007	1.95171e-007	1.35715e-008
-1.9353e-006	3.94226e-007	-7.69623e-007	2.91946e-007	1.91367e-007	-1.17251e-007	4.10403e-008	2.88095e-007	4.02796e-007	3.06991e-007	2.03053e-009	2.78422e-007	3.50478e-007	2.74787e-007
-1.14983e-006	4.29186e-007	-1.55096e-006	3.55409e-007	2.52032e-007	-4.18818e-008	-1.75925e-007	2.1977e-007	4.19409e-007	3.67782e-007	-7.56597e-008	3.28222e-007	3.70877e-007	2.51573e-007
-6.98359e-007	4.36984e-007	-2.14684e-006	3.34291e-007	2.77081e-007	7.33067e-008	-3.79844e-008	3.17709e-007	4.55298e-007	3.15476e-007	-2.13361e-007	2.55883e-007	3.69456e-007	2.61062e-007
8.9284e-008	9.31033e-007	-4.89574e-006	1.13356e-006	1.11451e-006	9.02644e-007	-1.9669e-006	-1.77327e-007	7.52285e-007	1.03075e-006	-5.98622e-007	8.51202e-007	6.68948e-007	1.6437e-007
-9.96391e-007	3.88393e-007	-2.10234e-006	4.25493e-008	-1.27418e-007	-3.94406e-007	4.4201e-007	6.1493e-007	5.13757e-007	1.71854e-007	1.62924e-007	2.61791e-007	4.8899e-007	5.33355e-007
-1.12447e-007	4.63227e-007	-1.42505e-006	4.82113e-007	4.41197e-007	2.96181e-007	-1.22857e-006	-1.24965e-007	3.94568e-007	4.5509e-007	-4.02298e-007	3.77668e-007	3.32797e-007	5.04878e-008
9.30719e-008	7.20881e-008	2.67337e-008	2.48768e-007	2.50794e-007	2.03524e-007	-6.8824e-007	-3.68186e-007	-3.87139e-008	2.14507e-007	-1.88439e-008	1.62565e-007	-9.90364e-009	-1.48163e-007
1.59027e-007	-2.12601e-008	2.37942e-007	1.07382e-007	7.85949e-008	5.53858e-008	-3.55237e-007	-3.58987e-007	-1.14787e-007	1.2166e-007	1.20447e-007	1.20273e-007	-3.92701e-008	-1.11168e-007
-3.85088e-008	8.66016e-008	-3.44981e-007	-2.55541e-008	6.25173e-009	1.79377e-008	2.6023e-007	2.33223e-007	1.47214e-007	-7.17623e-008	-2.77925e-007	-1.16273e-007	5.90971e-008	6.44492e-008
-5.53485e-007	3.0265e-007	-8.58658e-007	1.29032e-007	9.14195e-008	-7.12622e-008	-1.97098e-007	3.61956e-007	3.79815e-007	1.19531e-007	-2.53249e-007	9.01887e-008	2.61771e-007	1.9739e-007
-5.9215e-007	1.27306e-007	-1.40025e-007	-2.66122e-008	-1.36049e-007	-3.54846e-007	1.87345e-007	2.33997e-007	1.79013e-007	3.95412e-008	6.2425e-008	7.84204e-008	1.61777e-007	1.79859e-007
-5.63908e-007	3.34652e-007	-7.70247e-007	1.96567e-007	1.64176e-007	-3.28442e-008	-2.52645e-007	2.13324e-007	3.69385e-007	1.63036e-007	-2.76229e-007	1.02292e-007	2.35909e-007	1.16532e-007
-2.42553e-007	1.2918e-007	-8.42678e-008	1.34574e-007	3.80991e-008	-1.2555e-007	-3.48753e-007	-1.72322e-007	7.70983e-008	1.82604e-007	8.0046e-008	1.93265e-007	1.14691e-007	2.3888e-008
-7.17342e-007	3.49262e-007	-1.10103e-006	4.40025e-007	4.42961e-007	2.56152e-007	-4.98654e-007	-4.89043e-008	2.75574e-007	3.55799e-007	-2.29246e-007	2.42293e-007	2.07077e-007	2.6033e-008
-5.36881e-007	2.56967e-007	-1.18012e-006	-7.60994e-009	-5.57742e-008	-1.81135e-007	3.42349e-007	6.21138e-007	4.01764e-007	1.10947e-008	-3.04992e-007	1.76545e-008	2.92135e-007	3.23409e-007
6.8645e-008	3.56385e-007	-8.50018e-007	4.46716e-007	5.25708e-007	4.87597e-007	-1.13086e-006	-1.82025e-007	2.85952e-007	3.10551e-007	-4.92186e-007	1.56085e-007	1.44579e-007	-1.27132e-007
9.34218e-007	1.60799e-007	5.41615e-008	5.76088e-007	7.45294e-007	8.73173e-007	-1.40228e-006	-6.59398e-007	-4.71907e-008	3.49718e-007	-1.00507e-006	9.95472e-008	-1.47336e-007	-5.31725e-007
4.76112e-007	3.97103e-007	-1.28991e-007	5.37569e-007	6.17736e-007	6.21137e-007	-1.36247e-006	-3.61392e-007	2.90097e-007	3.82705e-007	-1.2997e-006	1.70961e-007	9.51115e-008	-4.3598e-007
-5.73619e-007	1.75934e-007	-1.95656e-007	1.60276e-007	4.33069e-008	-2.07892e-007	-2.86858e-007	-5.46396e-008	1.4033e-007	2.12895e-007	1.0116e-007	2.24696e-007	1.67812e-007	9.22539e-008
-3.64245e-007	-2.31203e-007	1.59492e-006	-5.23494e-007	-6.29038e-007	-6.33543e-007	7.56915e-007	2.84764e-007	-9.95012e-008	-3.64941e-007	3.22263e-007	-2.03179e-007	-5.86726e-008	1.48957e-007
5.95906e-007	4.65451e-007	-1.55726e-007	6.20539e-007	7.31677e-007	7.61747e-007	-2.84373e-006	-3.12919e-007	3.62249e-007	4.42517e-007	-7.69319e-007	2.27056e-007	1.62849e-007	-2.88301e-007
-1.20481e-007	5.89108e-007	-3.33676e-006	5.92843e-007	5.68673e-007	4.13053e-007	-4.15236e-007	2.08951e-007	5.53779e-007	5.23013e-007	-6.25262e-007	3.94584e-007	4.48644e-007	2.05089e-007
1.422e-009	4.49107e-007	-1.49918e-006	4.82408e-007	4.9646e-007	3.90149e-007	-4.52602e-007	6.18648e-008	4.10203e-007	3.66343e-007	-1.13458e-006	1.83966e-007	2.6472e-007	-2.02809e-008
4.55948e-007	3.14734e-007	9.0204e-009	5.38527e-007	5.90513e-007	5.83314e-007	-1.98809e-006	-7.97844e-007	1.21207e-007	4.35389e-007	-2.73841e-007	2.94953e-007	6.32222e-008	-3.47052e-007
-2.63724e-007	1.52664e-007	-5.34728e-007	4.38524e-007	5.65303e-007	5.64887e-007	-6.0509e-007	-3.2852e-007	1.89563e-008	2.7803e-007	-2.18287e-007	1.29279e-007	-1.24789e-008	-1.84816e-007
-7.23836e-007	-1.05632e-007	-6.1002e-007	-5.01887e-007	-5.96634e-007	-6.6859e-007	1.47417e-006	9.30459e-007	1.57439e-007	-3.61847e-007	3.8135e-007	-1.80527e-007	1.97251e-007	6.08303e-007
-5.8159e-007	5.15563e-007	-2.19563e-006	2.23833e-007	1.02689e-007	-1.10221e-007	-3.26109e-007	5.20075e-007	6.27767e-007	2.98625e-007	-4.68023e-007	3.36072e-007	5.7249e-007	4.84463e-007
-8.28576e-007	1.93989e-007	-1.67354e-007	-1.87583e-007	-4.64395e-007	-8.05669e-007	3.08632e-007	4.63749e-007	3.28187e-007	2.66478e-008	2.1419e-007	1.73605e-007	3.40773e-007	4.03805e-007
-4.02729e-007	1.52548e-007	-3.22333e-007	2.95216e-007	2.27044e-007	4.21415e-008	-4.9297e-007	-2.30077e-007	5.2574e-008	2.96473e-007	6.04311e-008	2.58778e-007	9.26207e-008	-2.97178e-008
-4.50111e-007	2.71151e-007	-1.15158e-006	2.74882e-007	2.19254e-007	5.69854e-008	-1.77032e-007	6.90538e-008	2.40493e-007	2.63206e-007	-1.33016e-007	2.10294e-007	2.06125e-007	1.00296e-007
-1.44546e-006	1.96572e-007	-1.27281e-007	3.55986e-007	2.9792e-007	-2.55314e-009	-2.26347e-007	-7.74935e-008	1.13796e-007	3.28705e-007	1.16044e-007	2.75309e-007	1.40974e-007	5.38276e-008
-1.55571e-007	2.04265e-007	-5.10642e-007	4.44604e-007	4.96692e-007	3.92308e-007	-7.09138e-007	-3.68456e-007	5.92223e-008	3.23175e-007	-2.07668e-007	1.83768e-007	2.73632e-008	-1.79921e-007
-7.38421e-007	4.4807e-007	-1.50853e-006	2.19133e-007	8.87576e-008	-1.71121e-007	-1.71646e-007	3.25843e-007	4.97961e-007	2.74467e-007	-2.45399e-007	2.68241e-007	4.18203e-007	2.94439e-007
3.31089e-007	3.44495e-007	-9.73278e-007	5.74052e-007	6.22698e-007	5.8752e-007	-1.5126e-006	-4.60545e-007	1.8614e-007	4.63886e-007	-4.1858e-007	3.18794e-007	1.34142e-007	-1.97812e-007
1.80645e-008	3.00354e-007	-3.56408e-007	4.00034e-007	3.70193e-007	2.61247e-007	-1.26047e-006	-4.5066e-007	1.76093e-007	3.73149e-007	-1.62122e-007	3.01467e-007	1.54722e-007	-1.25663e-007
8.62315e-007	1.89012e-007	4.74928e-007	6.01422e-007	7.4728e-007	8.48155e-007	-1.84017e-006	-9.88464e-007	-8.20846e-008	3.97323e-007	-5.13444e-007	1.54736e-007	-1.86097e-007	-6.64912e-007
1.18351e-006	-2.07727e-007	4.54925e-007	2.39386e-007	4.38341e-007	7.05667e-007	-6.72047e-007	-6.49682e-007	-3.83841e-007	5.78282e-008	-2.14763e-007	-9.05443e-008	-3.67105e-007	-4.93949e-007
-8.27753e-008	4.54333e-007	-9.00127e-007	4.02942e-007	3.32629e-007	1.98287e-007	-1.41429e-006	-1.54236e-007	4.09755e-007	4.27689e-007	-5.27455e-007	4.04509e-007	3.75602e-007	7.31382e-008
3.27736e-007	2.51708e-007	-1.90364e-007	4.63579e-007	5.43922e-007	5.41104e-007	-1.23229e-006	-6.61793e-007	8.14743e-008	3.31981e-007	-3.01402e-007	1.77019e-007	6.28343e-010	-3.33304e-007
6.95841e-007	3.06216e-008	-2.65978e-007	4.59851e-007	5.95218e-007	6.94994e-007	-8.98521e-007	-6.20679e-007	-1.74877e-007	2.82766e-007	-2.97625e-007	9.95937e-008	-1.86668e-007	-4.14536e-007
-1.0127e-006	2.90765e-007	-3.31021e-007	-1.56063e-008	-2.54886e-007	-7.14175e-007	1.64216e-007	4.01207e-007	3.81852e-007	1.20628e-007	9.76829e-008	1.92589e-007	3.41477e-007	3.37968e-007
-7.60424e-007	3.03544e-007	-9.49075e-007	4.45299e-007	3.70359e-007	1.08578e-007	-4.48108e-007	-1.17229e-007	1.99627e-007	4.10925e-007	-9.10935e-008	3.18955e-007	1.88733e-007	1.99094e-008
-2.72025e-007	1.83534e-007	-4.47237e-007	3.48329e-007	3.07469e-007	1.47279e-007	-6.19168e-007	-2.8094e-007	6.88206e-008	3.19962e-007	-2.93641e-008	2.54364e-007	8.89234e-008	-6.99466e-008
-1.22345e-006	1.91523e-007	6.27795e-008	-2.30206e-007	-5.39762e-007	-1.0351e-006	5.7443e-007	5.67414e-007	3.39302e-007	-1.60635e-010	3.17461e-007	1.62152e-007	3.51544e-007	4.62071e-007
7.8912e-007	1.46423e-008	4.76296e-007	4.49507e-007	6.10018e-007	7.43986e-007	-8.84548e-007	-1.07036e-006	-2.72141e-007	2.54938e-007	-1.90662e-007	4.68799e-008	-3.1534e-007	-6.52335e-007
-8.03071e-007	1.41039e-007	-1.03302e-006	-3.15432e-007	-4.87847e-007	-6.40185e-007	-3.86077e-007	7.61425e-007	4.01444e-007	-8.6715e-008	6.7711e-007	1.95584e-007	5.67754e-007	1.00799e-006
-8.94164e-007	5.02338e-007	-1.45068e-006	2.80795e-007	1.6655e-007	-1.33887e-007	-5.74632e-007	3.72684e-007	5.6936e-007	3.14523e-007	-2.49132e-007	3.01222e-007	4.66703e-007	3.28319e-007
-7.6115e-007	1.53337e-007	-4.60317e-007	-1.75126e-007	-3.79097e-007	-6.06662e-007	8.89427e-008	5.46258e-007	3.08867e-007	1.95696e-008	2.10445e-007	1.88318e-007	3.73514e-007	4.93101e-007
-6.24031e-007	2.88976e-007	-4.33427e-007	1.41884e-007	-1.12974e-008	-2.97371e-007	-3.90036e-007	6.50182e-008	3.02864e-007	2.21857e-007	1.57404e-008	2.50208e-007	2.87157e-007	1.82458e-007
9.57605e-007	-3.25087e-007	1.95674e-006	1.20285e-007	3.00144e-007	5.3769e-007	-5.74179e-007	-8.20207e-007	-5.32598e-007	-4.99401e-008	-1.42332e-007	-2.04762e-007	-5.36261e-007	-6.87096e-007
3.87259e-007	3.32425e-007	-3.13652e-007	5.48995e-007	5.78745e-007	5.44474e-007	-1.25031e-006	-5.37637e-007	1.55779e-007	4.51153e-007	-8.99559e-007	2.90122e-007	7.31174e-008	-3.60912e-007
-3.77865e-007	8.78357e-008	1.27115e-007	-3.24427e-007	-4.48798e-007	-5.43386e-007	4.88209e-007	4.37678e-007	2.33526e-007	-1.82565e-007	8.1131e-008	-6.19207e-008	1.93381e-007	2.90085e-007
-5.2137e-007	2.46348e-007	-9.123e-007	3.41649e-008	-5.95441e-009	-1.26827e-007	2.68059e-007	3.88569e-007	3.31291e-007	3.71919e-008	-2.20233e-007	2.08608e-008	2.3581e-007	2.24389e-007
6.66043e-007	3.96316e-007	3.46844e-007	6.54892e-007	7.19835e-007	7.32626e-007	-1.09206e-006	-1.02259e-006	1.56095e-007	5.23021e-007	-1.52525e-006	3.16809e-007	-7.15491e-010	-8.71871e-007
4.93122e-007	-1.37176e-007	3.67423e-007	1.34253e-007	2.08087e-007	3.3974e-007	-2.8475e-007	-5.64002e-007	-2.93149e-007	8.09003e-008	8.73414e-008	3.77299e-008	-1.97769e-007	-2.7175e-007
5.95716e-007	4.22507e-007	2.67753e-007	6.22861e-007	6.75874e-007	6.80577e-007	-2.73497e-006	-1.10463e-006	2.18931e-007	5.21509e-007	-2.40005e-007	3.77228e-007	1.29479e-007	-4.32833e-007
-8.31728e-007	1.20324e-007	1.59341e-007	-2.74484e-007	-4.13382e-007	-5.70858e-007	5.60327e-007	4.81368e-007	2.61126e-007	-1.33856e-007	1.2424e-007	-1.97821e-008	2.18946e-007	3.18417e-007
-7.5103e-007	4.26321e-007	-1.72731e-006	2.8496e-007	1.24949e-007	-1.52261e-007	-2.10345e-007	2.02213e-007	4.24105e-007	3.67952e-007	-5.73476e-008	3.78606e-007	4.07501e-007	2.81685e-007
-4.55781e-007	2.21795e-007	-2.51522e-007	1.5335e-007	1.01638e-008	-2.35269e-007	-3.74741e-007	-8.60482e-008	1.88458e-007	2.26704e-007	5.87122e-008	2.4519e-007	2.05081e-007	9.39063e-008
-1.98871e-007	9.09912e-008	-6.93425e-008	1.16253e-007	4.27543e-008	-1.11288e-007	-1.99423e-007	-1.04185e-007	4.82722e-008	1.37348e-007	3.94803e-008	1.29702e-007	6.96898e-008	8.61879e-009
-1.15263e-006	-9.11665e-007	-3.25427e-007	-1.29059e-006	-1.38512e-006	-1.36464e-006	1.91996e-006	1.69693e-006	-5.14588e-007	-1.06128e-006	3.49953e-006	-6.83306e-007	-1.7765e-007	1.75048e-006
-7.53134e-007	-1.16525e-009	-6.6416e-007	-4.08043e-007	-5.23019e-007	-6.3516e-007	1.2082e-006	9.7133e-007	2.58988e-007	-2.6733e-007	1.00946e-007	-1.0901e-007	2.57686e-007	5.63867e-007
-4.02242e-007	1.85942e-007	-3.859e-007	3.40023e-007	3.76385e-007	2.12922e-007	-4.48348e-007	-2.0715e-007	9.02795e-008	2.47315e-007	-1.3084e-007	1.47008e-007	5.891e-008	-8.43052e-008
-1.18498e-006	1.56805e-007	1.66068e-007	-3.34292e-007	-6.43097e-007	-1.05087e-006	6.80263e-007	6.16935e-007	3.32687e-007	-7.19317e-008	3.58784e-007	1.26399e-007	3.51939e-007	4.95291e-007
-3.13383e-007	1.82566e-007	-3.51325e-007	3.36622e-007	3.4571e-007	1.8405e-007	-5.15186e-007	-2.53213e-007	7.83584e-008	2.64099e-007	-1.03884e-007	1.73846e-007	6.24671e-008	-9.07261e-008
-1.4839e-007	1.48978e-007	-2.26316e-007	2.68784e-007	2.68556e-007	1.45521e-007	-4.65818e-007	-2.62797e-007	5.38499e-008	2.1557e-007	-8.42247e-008	1.4324e-007	4.17423e-008	-9.8695e-008
9.07308e-007	-7.89853e-008	3.93454e-007	3.19677e-007	4.63313e-007	6.44703e-007	-9.67328e-007	-7.57825e-007	-2.82761e-007	1.75645e-007	-1.48121e-007	4.14438e-008	-2.55657e-007	-4.54866e-007
-1.15247e-006	2.73036e-007	-3.59422e-007	2.65566e-007	9.48346e-008	-2.95056e-007	-2.28194e-007	1.22421e-008	2.22698e-007	3.26748e-007	1.24167e-007	3.21806e-007	2.44881e-007	1.49163e-007
-8.11081e-007	1.41319e-007	8.63367e-008	-2.85012e-007	-4.44536e-007	-6.24859e-007	5.38914e-007	4.98946e-007	2.91192e-007	-1.27946e-007	1.29672e-007	-1.6462e-009	2.55374e-007	3.53327e-007
-3.62441e-007	1.95172e-007	-2.90891e-007	1.5094e-007	9.6279e-008	-9.19616e-008	-2.29619e-007	-2.1174e-009	1.78569e-007	1.46496e-007	-7.56078e-008	1.15284e-007	1.30563e-007	3.93358e-008
-5.691e-007	-2.69197e-007	-1.66092e-007	-4.96067e-007	-6.24747e-007	-6.61953e-007	-3.47854e-008	7.69795e-008	-1.61467e-007	-2.56081e-007	2.37093e-006	7.80754e-008	1.13879e-007	5.99628e-007
4.20872e-007	-2.12887e-007	3.561e-007	-2.90581e-009	6.04699e-008	2.22824e-007	-4.37181e-009	-2.98358e-007	-2.98888e-007	-2.14057e-008	1.32899e-007	-1.95065e-008	-1.83575e-007	-1.51268e-007
-1.45428e-007	-1.39835e-007	8.10761e-007	-4.74504e-007	-5.06569e-007	-4.49393e-007	6.24661e-007	3.80235e-007	2.68644e-008	-3.67072e-007	2.11958e-007	-2.22696e-007	2.80995e-008	2.22916e-007
-2.0177e-009	6.11912e-007	-5.11077e-007	4.16094e-007	3.46513e-007	2.26315e-007	-3.30123e-006	3.06301e-007	6.97648e-007	4.5674e-007	-7.17327e-007	4.72046e-007	6.3713e-007	3.60956e-007
-1.21934e-006	3.36855e-007	-1.12331e-006	-6.87176e-008	-2.91254e-007	-6.19354e-007	3.82349e-007	5.95641e-007	4.79163e-007	1.1108e-007	1.82456e-007	2.40915e-007	4.69111e-007	5.24405e-007
-3.37746e-007	4.10526e-007	-1.48855e-006	3.7962e-007	3.33761e-007	1.56886e-007	-2.7728e-007	1.18737e-007	3.84504e-007	3.24959e-007	-5.61978e-007	2.0247e-007	2.76319e-007	7.77754e-008
-4.86853e-007	-1.12926e-007	-5.18061e-007	-3.9462e-007	-4.14543e-007	-4.39076e-007	1.067e-006	1.03862e-006	1.42364e-007	-3.594e-007	3.8956e-010	-2.84885e-007	1.33803e-007	6.28186e-007
-6.42989e-007	3.40608e-007	-5.83095e-007	4.3028e-008	-1.32771e-007	-3.82205e-007	-5.75938e-007	3.08106e-007	4.56692e-007	1.73721e-007	-3.61752e-008	2.58909e-007	4.25338e-007	3.46771e-007
-4.14233e-007	2.82475e-007	-3.58739e-007	2.46814e-007	1.44168e-007	-1.06393e-007	-5.00361e-007	-1.50105e-007	2.2612e-007	2.62782e-007	-7.00735e-008	2.26807e-007	1.90104e-007	2.06345e-008
2.83187e-007	5.18303e-008	-3.06912e-008	1.74967e-007	2.96522e-007	3.47624e-007	4.40241e-007	1.99877e-007	3.35752e-008	-1.90006e-008	-9.26875e-007	-2.56477e-007	-2.04512e-007	-3.90269e-007
3.21332e-006	-7.73383e-007	6.23697e-007	-5.32601e-007	-1.62631e-008	1.64319e-006	7.48104e-008	-4.3718e-007	-7.58836e-007	-6.94228e-007	-3.20203e-007	-7.07844e-007	-7.34972e-007	-5.79514e-007
4.85609e-007	3.89318e-007	-2.12286e-007	5.81422e-007	6.72716e-007	6.71837e-007	-1.62167e-006	-5.2405e-007	2.38021e-007	4.07469e-007	-8.6557e-007	1.76212e-007	4.77121e-008	-4.46738e-007
5.88091e-007	3.52371e-007	2.93455e-007	5.79645e-007	6.5306e-007	6.64165e-007	-3.30997e-007	-7.90648e-007	1.36168e-007	4.25761e-007	-1.46255e-006	1.78791e-007	-1.01368e-007	-1.18595e-006
-1.36563e-006	2.70712e-007	-1.30095e-007	-7.50644e-008	-2.21787e-007	-5.40128e-007	4.05399e-007	4.62389e-007	3.71849e-007	2.81136e-008	6.9719e-008	9.08476e-008	3.02529e-007	3.31143e-007
5.48548e-007	7.43608e-008	-4.04306e-008	4.32053e-007	6.26937e-007	7.48186e-007	-7.92653e-007	-7.13767e-007	-1.37673e-007	2.15294e-007	-3.01023e-007	1.3681e-008	-2.08795e-007	-4.64719e-007
5.97248e-007	1.98094e-007	9.58054e-008	4.87891e-007	6.40232e-007	7.05198e-007	-7.65302e-007	-7.04191e-007	5.67454e-009	2.55771e-007	-6.32014e-007	-2.13825e-008	-2.1122e-007	-6.51805e-007
-1.15309e-006	2.93872e-007	-5.61308e-007	-1.14855e-007	-3.12906e-007	-6.4927e-007	4.21507e-007	6.0385e-007	4.45871e-007	2.90808e-008	5.66712e-008	1.25836e-007	3.82366e-007	4.32377e-007
-7.96865e-007	1.82467e-007	-3.92938e-007	-1.94246e-007	-4.31775e-007	-6.76631e-007	1.02342e-007	4.5864e-007	3.34065e-007	3.59171e-008	2.60988e-007	2.27365e-007	4.03166e-007	4.87504e-007
-1.85631e-006	3.80506e-007	-5.95437e-007	4.46255e-007	3.87388e-007	-2.13926e-008	-2.44513e-007	6.42705e-008	3.17636e-007	3.97718e-007	-1.44858e-008	3.15789e-007	2.78098e-007	1.44482e-007
-5.28362e-008	3.5003e-007	-1.70901e-007	3.11953e-007	2.05116e-007	8.06481e-008	-1.60159e-006	-5.99009e-007	2.53622e-007	4.01817e-007	6.69793e-008	4.49243e-007	3.0849e-007	-3.56599e-009
4.58615e-007	-1.78642e-007	4.84345e-007	7.93379e-008	1.39588e-007	2.60445e-007	-1.01518e-007	-5.49206e-007	-3.31543e-007	4.24973e-008	1.63913e-007	1.64599e-008	-2.22785e-007	-2.61506e-007
-5.98279e-007	2.7409e-007	-9.44497e-007	-1.33913e-007	-2.54069e-007	-3.9157e-007	-5.86576e-008	6.03444e-007	4.9086e-007	1.56545e-009	-3.50718e-007	1.58984e-007	5.33001e-007	6.6976e-007
-6.03621e-007	4.87494e-007	-6.46025e-007	2.5292e-007	8.58037e-008	-2.21837e-007	-9.55796e-007	-3.68633e-008	5.21596e-007	3.30491e-007	-1.56682e-007	3.39369e-007	4.29045e-007	1.74105e-007
-9.07405e-007	1.65165e-007	-3.58873e-007	4.5206e-007	4.8663e-007	2.92502e-007	-4.05334e-007	-2.23197e-007	4.14251e-008	3.36195e-007	-5.84407e-008	2.13826e-007	4.8276e-008	-8.28288e-008
-2.44713e-008	2.21253e-007	1.10114e-007	1.71257e-007	7.11438e-008	-4.15608e-009	-2.02193e-006	-6.1302e-007	1.59548e-007	2.97253e-007	6.7767e-007	4.25817e-007	3.0637e-007	2.23153e-007
-2.42746e-006	4.55999e-007	-6.12678e-007	3.69433e-007	3.43822e-007	-7.30599e-008	3.1086e-008	3.06982e-007	4.56914e-007	3.22255e-007	-4.85773e-008	2.56065e-007	3.58231e-007	2.60984e-007
-4.82311e-008	5.07862e-007	-1.05882e-006	4.87802e-007	4.81947e-007	3.45692e-007	-4.39721e-007	6.6539e-008	4.81653e-007	3.70694e-007	-1.58606e-006	1.56923e-007	2.99808e-007	-6.60839e-008
-7.77596e-007	2.22536e-007	-6.10765e-007	-1.799e-007	-3.86718e-007	-6.08029e-007	-2.56428e-007	7.13539e-007	4.34152e-007	2.7148e-008	1.2182e-007	2.14579e-007	4.82205e-007	6.03457e-007
-2.6437e-007	4.96546e-008	1.6192e-007	-3.63896e-007	-4.85949e-007	-5.61798e-007	5.34508e-007	4.52242e-007	2.04131e-007	-2.11398e-007	1.12905e-007	-7.69202e-008	1.66663e-007	2.82307e-007
1.28083e-007	-3.72259e-008	6.70849e-008	1.25229e-007	1.35469e-007	1.47338e-007	-2.31351e-007	-2.58575e-007	-1.20436e-007	1.02182e-007	3.59598e-008	7.37137e-008	-5.98197e-008	-1.07652e-007
1.45902e-007	3.78046e-007	-1.03738e-006	5.61008e-007	5.67206e-007	4.6811e-007	-8.5383e-007	-3.16405e-007	2.28562e-007	4.56896e-007	-7.73311e-007	2.74494e-007	1.2885e-007	-2.28151e-007
1.07186e-006	-3.28701e-007	8.42635e-007	1.50612e-007	4.05622e-007	7.12458e-007	-2.36124e-007	-5.60584e-007	-4.8921e-007	-8.24091e-008	-1.84409e-007	-2.59605e-007	-4.99685e-007	-5.42463e-007
2.94167e-007	2.89081e-007	-1.15931e-006	5.81943e-007	6.27962e-007	5.76261e-007	-8.8346e-007	-4.0423e-007	1.10655e-007	4.48099e-007	-5.24193e-007	2.59125e-007	4.59013e-008	-2.62006e-007
-6.54706e-007	3.02666e-007	-4.0437e-007	2.54686e-007	1.43702e-007	-2.32933e-007	-3.04748e-007	-1.33392e-008	2.61066e-007	2.52216e-007	-7.63305e-008	2.01979e-007	2.02925e-007	6.71868e-008
-8.20515e-007	1.99727e-007	-8.96374e-007	-1.92004e-007	-3.17229e-007	-4.99848e-007	6.40307e-007	7.67028e-007	4.01452e-007	-7.93746e-008	-3.69287e-008	2.05884e-008	3.41302e-007	4.71868e-007
5.56615e-007	-1.08792e-007	3.06581e-007	2.68933e-007	4.08997e-007	5.43496e-007	-3.07537e-007	-7.45713e-007	-3.48165e-007	1.32888e-007	-1.04451e-008	1.214e-008	-2.87467e-007	-4.21532e-007
-6.72133e-007	2.48829e-007	-1.64561e-007	1.38566e-007	-1.00904e-007	-6.41372e-007	-7.63676e-008	9.20483e-008	2.36821e-007	2.20088e-007	9.23072e-008	2.30848e-007	2.31367e-007	1.64464e-007
-2.68334e-007	5.25013e-008	1.19956e-008	-7.48965e-008	-2.21016e-007	-3.61403e-007	7.48129e-008	1.19908e-007	9.01168e-008	3.6672e-008	1.41317e-007	1.09709e-007	1.33252e-007	1.55365e-007
2.82343e-007	5.70335e-007	-4.5595e-008	5.25415e-007	4.9719e-007	4.26604e-007	-1.10977e-006	-1.50562e-006	4.89195e-007	5.15755e-007	-7.49866e-007	4.58825e-007	3.75905e-007	-7.30718e-007
-3.58844e-007	4.49285e-007	-1.25988e-006	3.33126e-007	2.23621e-007	3.11987e-008	-4.73335e-007	6.38664e-008	4.30693e-007	3.75374e-007	-6.66417e-007	3.42588e-007	3.78018e-007	1.3071e-007
-2.52508e-007	-1.12162e-007	5.20752e-007	-4.8968e-007	-5.31157e-007	-4.86721e-007	6.99645e-007	4.78314e-007	8.18328e-008	-3.64772e-007	2.57693e-007	-1.95884e-007	8.80137e-008	3.06632e-007
2.82413e-007	-1.32161e-007	3.90782e-007	-3.68956e-007	-3.12888e-007	-1.37842e-007	4.94045e-007	2.96016e-007	2.26102e-009	-3.36952e-007	6.97077e-009	-2.5631e-007	-3.4583e-008	1.07204e-007
7.15105e-008	1.81489e-007	-5.2527e-007	5.01525e-007	5.56708e-007	4.79843e-007	-8.11846e-007	-4.73414e-007	-1.03708e-009	3.63673e-007	-2.51744e-007	1.96072e-007	-2.54134e-008	-2.62096e-007
-3.23043e-007	3.6509e-007	-1.06638e-006	2.3432e-007	1.98847e-007	5.60755e-008	-9.46155e-008	2.54159e-007	4.09511e-007	1.83239e-007	-7.25414e-007	7.61957e-008	2.89523e-007	1.42493e-007
-1.52337e-007	2.41826e-007	-5.36817e-007	4.76627e-007	5.75848e-007	4.70109e-007	-7.21243e-007	-3.75933e-007	9.26768e-008	3.0872e-007	-3.03624e-007	1.34327e-007	1.1469e-008	-2.21649e-007
7.519e-007	-2.18005e-008	3.88914e-007	4.06127e-007	5.91093e-007	7.4265e-007	-4.87428e-007	-1.04745e-006	-3.12111e-007	1.94508e-007	-1.74815e-007	-1.78417e-008	-3.61515e-007	-6.52229e-007
6.29331e-007	9.88619e-008	6.30758e-007	4.4779e-007	5.26018e-007	5.84254e-007	-1.34414e-007	-1.6377e-006	-2.29077e-007	3.26456e-007	1.72011e-007	1.44494e-007	-3.41092e-007	-1.21769e-006
7.2323e-007	-4.64976e-008	4.85548e-008	3.91262e-007	5.69795e-007	7.42329e-007	-8.09268e-007	-7.01443e-007	-2.58514e-007	2.03944e-007	-2.06072e-007	3.43309e-008	-2.48319e-007	-4.43332e-007
-7.49275e-007	3.66217e-007	-5.43721e-007	-3.69231e-008	-2.63239e-007	-5.48436e-007	-2.63081e-007	3.61216e-007	5.07121e-007	1.35409e-007	-2.35615e-008	2.41895e-007	4.49484e-007	3.66894e-007
8.21613e-007	-3.00278e-007	1.1168e-006	1.59494e-007	3.25072e-007	5.24376e-007	-2.943e-007	-6.30351e-007	-4.92652e-007	-6.75299e-009	-1.81605e-008	-1.57266e-007	-4.85049e-007	-5.62549e-007
-8.15906e-008	-1.81076e-007	-1.08432e-007	-2.38132e-007	-1.60335e-007	-1.01649e-007	1.56961e-006	6.55273e-007	-5.53191e-008	-3.30341e-007	-4.69129e-007	-4.07885e-007	-1.65266e-007	7.42737e-008
-2.45074e-007	5.22857e-009	-4.36941e-007	-1.94091e-007	-1.74878e-007	-1.6979e-007	7.40626e-007	6.26368e-007	1.66471e-007	-2.05147e-007	-2.14833e-007	-1.93948e-007	7.44803e-008	2.21528e-007
-3.03535e-007	1.66723e-008	1.27034e-007	-1.91752e-007	-3.95809e-007	-5.51409e-007	2.51222e-007	2.30248e-007	9.34096e-008	-1.82433e-008	2.37946e-007	1.06956e-007	1.60557e-007	2.36703e-007
6.87661e-007	-1.98498e-007	5.10423e-007	1.95955e-007	3.5844e-007	5.50855e-007	-1.62481e-008	-7.8661e-007	-4.40023e-007	5.05073e-008	3.25925e-008	-7.25439e-008	-3.85516e-007	-4.86995e-007
-8.06729e-007	2.09928e-007	-4.04623e-007	-1.95068e-007	-4.28222e-007	-6.97286e-007	1.44326e-007	6.17505e-007	4.02566e-007	4.03131e-009	1.19869e-007	1.57546e-007	3.98374e-007	4.77783e-007
3.95868e-007	7.60208e-008	4.62249e-007	3.2595e-007	3.35536e-007	3.52369e-007	-6.19179e-007	-1.35871e-006	-1.94439e-007	3.06693e-007	3.13165e-007	2.57704e-007	-1.3667e-007	-5.16559e-007
-6.68553e-007	-3.75187e-008	-5.9025e-007	-4.75217e-007	-5.72056e-007	-6.36039e-007	3.52839e-007	1.15096e-006	3.14679e-007	-3.16689e-007	1.40249e-007	-8.13615e-008	4.25386e-007	9.93567e-007
-6.04171e-007	1.71612e-007	-2.32574e-008	7.14712e-008	-1.64802e-007	-6.10908e-007	-3.2055e-008	7.26346e-008	1.64455e-007	1.8534e-007	1.7432e-007	2.28366e-007	2.00158e-007	1.66836e-007
-1.49628e-007	1.75841e-007	-5.3153e-007	5.22856e-007	6.42814e-007	5.60278e-007	-6.86476e-007	-4.18955e-007	1.74369e-009	3.29694e-007	-2.82253e-007	1.36708e-007	-4.39754e-008	-2.57117e-007
6.9406e-006	-3.37021e-006	-4.65493e-007	-1.46726e-006	2.11714e-006	2.0007e-005	-2.28651e-006	-3.18044e-006	-3.567e-006	-2.66396e-006	-2.36983e-006	-3.00511e-006	-3.4506e-006	-3.23833e-006
-4.55972e-007	1.72929e-007	-4.49693e-007	-1.07273e-007	-1.48398e-007	-2.4752e-007	2.93161e-007	4.75465e-007	3.10094e-007	-7.73781e-008	-1.49069e-007	-5.01997e-008	1.9903e-007	2.34824e-007
-6.84714e-007	2.24013e-007	-6.64402e-007	-2.06277e-007	-3.85604e-007	-5.52334e-007	-1.05529e-006	1.11743e-006	5.00673e-007	4.18334e-009	3.59432e-008	2.29699e-007	5.94018e-007	8.4266e-007
-5.15439e-007	1.8276e-007	-2.36779e-007	2.99249e-007	2.23139e-007	-1.1939e-007	-3.25469e-007	-1.53179e-007	9.4753e-008	2.69074e-007	-9.38882e-009	2.04014e-007	1.00526e-007	-1.38701e-008
5.74097e-007	-3.00083e-007	4.5066e-007	-2.03955e-008	9.15655e-008	3.30714e-007	2.35577e-008	-3.1911e-007	-3.90015e-007	-6.41506e-008	1.44081e-007	-6.91703e-008	-2.58265e-007	-1.93486e-007
-1.51989e-006	3.23544e-007	-3.07883e-007	3.03229e-007	1.40116e-007	-4.37902e-007	-9.47269e-008	1.15069e-007	2.88003e-007	3.29767e-007	9.36299e-008	3.01478e-007	2.7623e-007	1.89339e-007
3.94859e-007	-1.05095e-007	2.37013e-007	-3.8517e-008	-1.29799e-007	-1.14771e-007	-5.77317e-008	-1.32501e-007	-1.3214e-007	1.28234e-008	1.21278e-007	4.13069e-008	-5.63167e-008	-4.04077e-008
-9.0849e-007	2.48565e-007	-5.41554e-007	-2.45334e-007	-4.56044e-007	-6.77238e-007	3.58486e-007	5.36942e-007	4.16312e-007	-2.46816e-008	2.07313e-007	1.60356e-007	4.25598e-007	4.99769e-007
-1.26821e-006	2.81545e-007	-5.89172e-008	-2.11237e-007	-5.20064e-007	-1.03037e-006	5.23381e-007	5.88438e-007	4.30685e-007	1.4348e-008	2.26842e-007	1.6112e-007	3.96581e-007	4.65864e-007
-4.21226e-007	-7.31056e-007	1.13369e-006	-8.967e-007	-1.1801e-006	-1.08154e-006	1.41662e-007	-3.57977e-007	-7.70607e-007	-2.05051e-007	3.30273e-006	7.19987e-007	-1.02979e-007	4.49165e-007
-6.1812e-007	3.27878e-007	-8.4286e-007	5.68541e-008	1.74739e-009	-1.74144e-007	2.22557e-007	4.55853e-007	4.4498e-007	2.58065e-008	-4.50925e-007	-4.31073e-008	3.15033e-007	2.78446e-007
8.94842e-007	-1.93844e-007	6.76553e-007	3.03247e-007	4.86593e-007	6.86383e-007	-5.95457e-007	-7.59975e-007	-4.24952e-007	1.09449e-007	-1.33991e-007	-7.01429e-008	-4.12109e-007	-5.66595e-007
3.85147e-007	2.29266e-008	1.13326e-007	3.54397e-007	4.43894e-007	4.84164e-007	-6.40684e-007	-7.22976e-007	-1.98578e-007	2.37375e-007	-6.51077e-008	1.13995e-007	-1.63223e-007	-3.64655e-007
1.13031e-007	-2.1101e-008	4.9887e-008	1.39128e-007	1.52572e-007	1.52956e-007	-2.51998e-007	-2.6981e-007	-1.0889e-007	1.10949e-007	2.4695e-008	7.72025e-008	-5.53625e-008	-1.13261e-007
-6.19926e-007	8.41539e-008	2.56669e-007	-4.253e-007	-6.17552e-007	-7.65613e-007	5.97032e-007	5.28424e-007	2.64483e-007	-2.01986e-007	2.51817e-007	-8.90062e-009	2.58749e-007	3.97947e-007
1.89891e-007	1.84509e-007	-5.14372e-007	4.28742e-007	6.00137e-007	6.33557e-007	-6.4823e-007	-3.36613e-007	5.51296e-008	2.11641e-007	-4.40364e-007	5.84271e-009	-7.47541e-008	-2.95117e-007
6.80561e-007	4.54864e-008	1.19086e-007	4.75748e-007	6.64479e-007	7.87659e-007	-8.56684e-007	-8.46437e-007	-2.11196e-007	2.48565e-007	-2.99488e-007	2.26938e-008	-2.7194e-007	-5.58533e-007
-8.86917e-007	2.49207e-007	-5.14075e-007	-2.08503e-007	-4.09324e-007	-6.70392e-007	3.87279e-007	6.61643e-007	4.43889e-007	-3.77833e-008	4.58063e-008	9.25413e-008	3.85943e-007	4.60685e-007
-2.98122e-007	5.42069e-007	-5.90989e-007	2.00538e-007	7.63812e-008	-8.30174e-008	-1.4586e-006	-9.892e-008	6.96521e-007	3.07458e-007	-5.42991e-007	3.84696e-007	6.28607e-007	2.36365e-007
4.197e-007	2.20812e-007	1.68947e-007	4.48273e-007	4.98431e-007	5.01095e-007	-1.0619e-006	-1.11287e-006	-1.03616e-008	3.54393e-007	-1.25483e-007	2.24847e-007	-5.32631e-008	-4.72615e-007
-5.50807e-007	-1.06255e-007	-4.69243e-007	-4.70872e-007	-5.21964e-007	-5.47778e-007	3.04093e-007	1.08956e-006	2.55217e-007	-3.67107e-007	6.94032e-008	-1.74777e-007	3.75334e-007	1.11519e-006
8.23281e-008	5.74859e-007	-3.39327e-007	4.1533e-007	3.64174e-007	2.67867e-007	-1.12129e-006	-4.96692e-007	6.07143e-007	4.33801e-007	-1.53308e-006	4.18979e-007	5.27587e-007	-2.01681e-007
-9.05979e-007	2.51546e-007	-1.54485e-007	-1.99574e-007	-5.27362e-007	-9.59243e-007	3.58881e-007	5.16171e-007	3.95286e-007	3.37071e-008	2.02184e-007	1.80982e-007	3.78595e-007	4.29293e-007
-5.61801e-007	9.1391e-008	-1.44481e-007	-2.54393e-007	-4.71517e-007	-6.46643e-007	2.45914e-007	5.02352e-007	2.63602e-007	-4.68182e-008	1.9099e-007	1.20062e-007	3.03877e-007	4.07465e-007
-6.84659e-007	3.09111e-007	-5.78221e-007	-5.74317e-008	-2.68057e-007	-4.97293e-007	-5.29239e-007	3.43877e-007	4.49593e-007	1.44329e-007	9.80351e-008	3.09614e-007	4.91837e-007	4.68507e-007
-3.70557e-007	-4.06228e-008	-2.96729e-007	-3.47451e-007	-3.67557e-007	-3.70892e-007	7.60111e-007	8.11754e-007	2.01524e-007	-2.92185e-007	-3.71764e-008	-1.96414e-007	1.50677e-007	3.9552e-007
-1.83102e-007	-2.16752e-008	-2.1234e-007	-2.25409e-007	-2.02236e-007	-1.68679e-007	6.07994e-007	5.29881e-007	1.32253e-007	-2.21145e-007	-1.0237e-007	-1.86998e-007	5.57417e-008	1.98085e-007
8.69628e-007	-1.84454e-007	1.03809e-006	3.55801e-007	5.12787e-007	6.67411e-007	-2.93303e-007	-7.58906e-007	-4.67076e-007	1.53455e-007	-4.15803e-007	-9.76474e-008	-5.53475e-007	-8.26507e-007
6.8013e-007	6.10048e-007	4.01845e-007	7.92692e-007	8.19427e-007	7.90074e-007	-7.82926e-007	-3.77819e-006	2.88309e-007	7.03292e-007	-1.26622e-007	5.37409e-007	1.2629e-007	-1.06178e-006
-1.14147e-007	2.4502e-007	-2.30023e-007	3.65296e-007	3.39886e-007	1.63066e-007	-6.33922e-007	-4.58013e-007	9.01066e-008	3.01169e-007	-1.30242e-007	1.95216e-007	5.07949e-008	-1.84207e-007
-2.79498e-007	3.62132e-007	-1.00648e-006	3.01525e-007	2.6176e-007	1.09583e-007	-2.06728e-007	1.23821e-007	3.55042e-007	2.44642e-007	-6.67046e-007	1.17013e-007	2.36969e-007	4.72657e-008
-2.72545e-007	-2.29402e-007	-1.55561e-007	-4.09469e-007	-3.74447e-007	-3.26915e-007	1.23469e-006	9.25861e-007	-5.62824e-009	-4.17764e-007	4.45798e-008	-3.7206e-007	-3.52714e-008	3.93934e-007
-6.88379e-007	1.78345e-007	-2.54993e-007	-3.15571e-007	-5.67453e-007	-7.61279e-007	2.54298e-007	6.12323e-007	4.07849e-007	-6.45826e-008	1.61214e-007	1.36869e-007	4.0866e-007	4.92699e-007
-2.33931e-007	4.84459e-007	-3.96241e-007	2.68711e-007	1.25929e-007	-4.52781e-008	-1.2854e-006	-5.48997e-007	4.76484e-007	3.87331e-007	-1.86963e-007	4.51292e-007	4.61348e-007	4.12553e-008
-8.47906e-007	2.55929e-007	-6.2431e-007	5.14003e-007	6.42727e-007	4.2672e-007	-4.57417e-007	-1.93997e-007	1.32543e-007	3.20957e-007	-2.55405e-007	1.4348e-007	5.9254e-008	-1.16577e-007
9.30666e-008	-2.13745e-009	2.163e-007	-2.26716e-008	-2.45682e-007	-5.44844e-007	-2.37659e-009	-2.5205e-008	-1.42299e-008	8.59804e-008	1.97038e-007	1.37077e-007	5.87414e-008	6.89435e-008
-2.10239e-006	4.73127e-007	-3.41648e-007	2.8014e-007	4.55408e-008	-9.59993e-007	1.73883e-007	3.83455e-007	4.90497e-007	3.3827e-007	1.08726e-007	3.26736e-007	4.25846e-007	3.57807e-007
2.57457e-007	5.35489e-007	-1.70624e-007	5.19537e-007	4.97533e-007	4.24651e-007	-6.03881e-007	-3.65496e-007	4.49752e-007	4.9167e-007	-2.36126e-006	4.045e-007	3.37746e-007	-4.17071e-007
-5.96605e-007	3.51242e-007	-4.82045e-007	-2.39826e-008	-2.2495e-007	-4.46169e-007	-6.27403e-007	2.34752e-007	5.16687e-007	1.55088e-007	-1.83125e-008	2.89109e-007	4.96686e-007	3.75903e-007
-2.98412e-007	4.41834e-007	-9.07446e-007	4.38631e-007	3.19283e-007	9.54543e-008	-8.65566e-007	-2.53187e-007	3.28813e-007	4.64231e-007	-3.80327e-007	3.88821e-007	2.77508e-007	-4.96369e-008
-3.35464e-007	4.45149e-007	-4.1902e-007	2.47609e-007	1.13791e-007	-9.88302e-008	-9.37665e-007	-3.27029e-007	4.49079e-007	3.15993e-007	-1.60075e-007	3.19171e-007	3.57726e-007	2.95654e-008
-2.51205e-007	7.55017e-008	-1.18905e-008	-2.98108e-007	-3.39512e-007	-3.36358e-007	4.16444e-007	4.06774e-007	2.20771e-007	-2.05229e-007	1.20559e-008	-1.03307e-007	1.64195e-007	2.49867e-007
-9.80894e-007	3.54312e-007	-2.97384e-007	8.62265e-008	-1.93915e-007	-8.36771e-007	5.78295e-008	2.94013e-007	3.96691e-007	2.00136e-007	6.83416e-008	2.32238e-007	3.38957e-007	2.80219e-007
4.12015e-007	-3.13997e-007	4.6799e-007	-2.7261e-007	-2.59016e-007	-1.1035e-008	3.4913e-007	4.06473e-008	-2.72373e-007	-1.93412e-007	2.44391e-007	-8.96651e-008	-1.34434e-007	3.23694e-008
-8.16086e-008	1.15551e-007	-3.1922e-007	3.91909e-008	6.16715e-008	3.11476e-008	1.13852e-007	3.00197e-007	1.94012e-007	-3.51374e-008	-5.11124e-007	-1.40413e-007	9.47086e-008	1.37173e-007
7.21981e-007	9.78306e-008	3.90535e-007	5.28938e-007	6.8023e-007	7.6287e-007	-5.58729e-007	-1.21581e-006	-2.31443e-007	3.04195e-007	-3.12438e-007	2.92685e-008	-3.66567e-007	-8.30859e-007
-7.74219e-007	3.45444e-007	-4.9278e-007	-3.95462e-008	-2.73655e-007	-5.81193e-007	-1.52148e-007	3.62468e-007	4.71032e-007	1.28941e-007	7.54274e-009	2.2781e-007	4.17183e-007	3.53121e-007
-8.21702e-007	3.11435e-007	-5.36843e-007	-4.12803e-008	-1.93994e-007	-4.46046e-007	2.08877e-007	4.00551e-007	4.05176e-007	5.96305e-008	-7.72639e-008	1.0552e-007	3.25723e-007	3.00218e-007
1.1177e-006	-3.20264e-007	4.52178e-007	1.80296e-007	4.55902e-007	8.00094e-007	-3.34036e-007	-5.35163e-007	-4.65707e-007	-5.33778e-008	-1.65226e-007	-2.10386e-007	-4.45798e-007	-4.76216e-007
3.29473e-007	5.0704e-007	-4.86307e-008	5.57383e-007	5.51219e-007	4.86346e-007	-1.00196e-006	-1.0361e-006	3.50459e-007	5.00521e-007	-9.44565e-007	3.62932e-007	1.81148e-007	-7.95264e-007
4.8359e-007	-3.27082e-007	5.30288e-007	-3.04471e-007	-2.93132e-007	-2.93074e-008	3.91216e-007	4.62473e-008	-2.79322e-007	-2.23023e-007	2.47187e-007	-1.16042e-007	-1.50278e-007	2.41272e-008
7.02665e-007	-2.51559e-007	4.82326e-007	2.03553e-007	3.94371e-007	5.99266e-007	-1.6189e-008	-6.69076e-007	-4.93472e-007	3.01402e-008	2.14033e-008	-1.08999e-007	-4.26049e-007	-4.68381e-007
3.93659e-007	-7.56356e-008	3.05652e-007	2.22288e-007	2.78171e-007	3.40137e-007	-3.95596e-007	-6.36114e-007	-2.69141e-007	1.59039e-007	7.58955e-008	9.01761e-008	-1.84936e-007	-3.03596e-007
-5.33987e-009	1.41323e-007	-1.85186e-008	9.09909e-008	3.68893e-008	5.91541e-009	-4.63741e-007	-4.0512e-007	1.10274e-007	1.78552e-007	-2.26201e-007	2.95555e-007	2.17816e-007	4.16054e-008
-5.93105e-007	-5.92177e-008	-3.51597e-007	-3.93173e-007	-5.41322e-007	-6.14813e-007	-5.57147e-008	3.01884e-007	1.10269e-007	-1.4541e-007	1.14818e-006	1.84421e-007	3.40407e-007	6.69193e-007
6.74802e-007	-3.28038e-007	7.75743e-007	7.36684e-008	2.26589e-007	4.13567e-007	-8.69857e-008	-4.03433e-007	-4.52148e-007	-6.68095e-008	1.36541e-007	-1.65747e-007	-4.18884e-007	-3.78867e-007
5.7542e-007	5.04455e-007	2.81798e-007	6.49402e-007	6.99447e-007	6.82187e-007	-9.14637e-008	-8.18885e-007	2.76175e-007	5.13436e-007	-7.5353e-007	2.60945e-007	-8.08174e-008	-2.69857e-006
3.87028e-007	3.40953e-007	8.22458e-008	5.2728e-007	5.59952e-007	5.2423e-007	-1.092e-006	-1.3103e-006	9.61819e-008	4.29888e-007	-2.40119e-007	2.72955e-007	-8.00268e-009	-5.70297e-007
5.52007e-007	2.63476e-007	4.37778e-007	5.007e-007	5.56271e-007	5.75157e-007	4.29928e-008	-1.14447e-006	-1.98331e-008	3.893e-007	-4.10725e-008	1.9617e-007	-2.42114e-007	-2.06637e-006
7.18277e-007	-4.62616e-008	2.50813e-007	4.0588e-007	5.40699e-007	6.56084e-007	-8.55403e-007	-7.33729e-007	-2.76095e-007	2.36589e-007	-2.02516e-007	6.0493e-008	-2.68743e-007	-4.86087e-007
-1.33413e-006	3.39085e-007	-5.423e-007	1.55359e-007	8.25591e-008	-2.05217e-007	1.30426e-007	3.14325e-007	3.76674e-007	1.57581e-007	-1.08341e-007	1.27156e-007	2.81966e-007	2.24861e-007
4.60535e-007	1.96761e-007	1.89654e-007	4.94977e-007	5.63388e-007	5.63829e-007	-7.06818e-007	-1.23061e-006	-1.15466e-007	3.62264e-007	-1.53038e-007	1.78348e-007	-1.81391e-007	-6.22435e-007
-2.95023e-007	5.33765e-007	-7.41975e-007	3.27092e-007	2.16407e-007	2.14346e-008	-1.01975e-006	-1.29278e-007	5.33253e-007	3.69305e-007	-5.62992e-007	3.30408e-007	4.04896e-007	1.24535e-008
3.11184e-009	-2.91356e-007	7.55955e-007	-5.55903e-007	-5.22872e-007	-3.68351e-007	7.85795e-007	4.25045e-007	-9.60024e-008	-4.69718e-007	4.13429e-007	-2.90229e-007	-4.71188e-008	2.58215e-007
-1.29674e-006	4.11162e-007	-8.03456e-007	3.71836e-007	2.67464e-007	-1.46497e-007	-1.62138e-007	1.41244e-007	3.73555e-007	3.38133e-007	-1.70666e-007	2.44874e-007	2.87476e-007	1.4375e-007
-2.63994e-007	4.11473e-007	-3.26058e-007	1.46882e-007	6.79974e-009	-1.35805e-007	-1.20736e-006	-5.30386e-007	4.92223e-007	2.92619e-007	-5.81589e-008	4.21104e-007	5.32287e-007	2.18373e-007
-5.38331e-007	9.73946e-008	2.69698e-008	-3.81968e-007	-5.06586e-007	-5.85241e-007	5.02649e-007	5.06483e-007	2.79431e-007	-2.05093e-007	1.80527e-007	-3.01453e-008	2.65049e-007	3.88861e-007
4.04504e-007	3.01325e-008	4.87429e-007	2.88622e-007	3.15472e-007	3.50181e-007	2.23738e-007	-1.64107e-006	-3.06494e-007	2.56067e-007	5.85262e-007	1.98544e-007	-3.01482e-007	-8.90904e-007
4.02774e-007	7.4303e-008	2.35884e-007	3.63818e-007	4.27513e-007	4.5004e-007	-3.95684e-007	-1.01611e-006	-2.1787e-007	2.61837e-007	-1.30523e-008	1.31205e-007	-2.0824e-007	-4.96421e-007
-6.95817e-007	3.74485e-007	-3.66098e-007	4.83316e-008	-2.22605e-007	-5.90097e-007	-1.70501e-007	1.74493e-007	4.18924e-007	1.9796e-007	9.08564e-010	2.47131e-007	3.51942e-007	2.30944e-007
-1.06604e-007	3.43762e-007	-6.11141e-007	5.40997e-007	4.98954e-007	3.04562e-007	-8.74427e-007	-4.55614e-007	1.51788e-007	4.56368e-007	-3.64804e-007	2.81136e-007	8.10215e-008	-2.45999e-007
2.59663e-007	4.52549e-007	3.22857e-008	4.82074e-007	4.31413e-007	3.63356e-007	-8.57344e-007	-1.13679e-006	2.59317e-007	5.13953e-007	-6.27925e-007	4.98631e-007	2.16169e-007	-8.87349e-007
-6.90296e-007	3.2314e-007	-2.91752e-007	-3.51664e-008	-2.99774e-007	-6.77503e-007	4.11112e-008	3.25236e-007	4.12298e-007	1.06192e-007	1.99017e-008	1.65745e-007	3.27131e-007	2.73736e-007
6.77417e-007	-1.87353e-007	3.37885e-007	2.65105e-007	4.44451e-007	6.34229e-007	-3.87626e-007	-6.59759e-007	-4.00462e-007	1.00495e-007	-3.65001e-008	-3.2549e-008	-3.32649e-007	-4.22684e-007
-1.29679e-008	5.23861e-007	-3.59962e-007	3.63018e-007	2.95502e-007	1.81497e-007	-2.19268e-006	-2.76132e-007	5.66019e-007	3.99359e-007	-4.55135e-007	4.0146e-007	4.90191e-007	7.59665e-008
-1.08913e-006	3.85153e-007	-2.76229e-007	8.1672e-008	-1.38354e-007	-1.06332e-006	2.28297e-007	3.97791e-007	4.41618e-007	1.60733e-007	3.39844e-008	1.78907e-007	3.48736e-007	3.10137e-007
-2.36527e-008	5.40599e-007	-3.9354e-007	3.94277e-007	3.50205e-007	2.19638e-007	-1.13477e-006	-6.02151e-007	5.38189e-007	3.6385e-007	-5.55711e-007	2.59945e-007	3.0903e-007	-2.65904e-007
2.73882e-007	1.73298e-007	-3.31356e-007	5.14717e-007	5.37321e-007	4.77307e-007	-9.01419e-007	-5.91242e-007	-4.77968e-008	4.05611e-007	-3.1138e-007	2.32826e-007	-6.94762e-008	-3.62292e-007
-8.28173e-007	2.79904e-007	-1.60424e-007	1.21301e-007	-1.57713e-007	-8.06164e-007	2.03303e-009	1.67238e-007	2.82906e-007	2.27946e-007	1.24558e-007	2.52772e-007	2.74703e-007	2.19114e-007
-4.11891e-007	3.95465e-007	-6.75433e-007	-1.4936e-008	-1.21994e-007	-2.44588e-007	-9.31754e-007	4.80821e-007	6.83556e-007	1.02442e-007	-8.92881e-007	2.38633e-007	7.01377e-007	6.91184e-007
3.94804e-007	-4.63364e-007	1.04198e-006	-3.7196e-007	-2.50527e-007	-2.35249e-008	4.57546e-007	1.29557e-008	-4.05274e-007	-3.91509e-007	6.17896e-007	-2.95114e-007	-3.07447e-007	-1.64593e-008
-6.49739e-008	4.69211e-007	-6.74138e-007	4.55832e-007	3.70868e-007	2.1616e-007	-1.12636e-006	-3.75009e-007	3.58068e-007	4.75355e-007	-6.70072e-007	4.09907e-007	2.9543e-007	-1.40277e-007
-5.55905e-007	9.32397e-008	-1.68816e-007	-3.28984e-007	-4.3903e-007	-5.19946e-007	3.73839e-007	4.51925e-007	2.65915e-007	-1.68153e-007	2.7384e-007	1.41129e-008	2.89634e-007	4.18329e-007
-7.18566e-007	1.87786e-007	-2.79917e-007	-3.4775e-007	-5.26845e-007	-6.64145e-007	3.55226e-007	5.04392e-007	3.70906e-007	-1.12431e-007	2.43047e-007	1.11442e-007	3.9378e-007	4.83075e-007
-5.05112e-007	4.63969e-007	-5.17627e-007	1.97069e-007	2.53929e-008	-2.41584e-007	-7.17023e-007	-9.49751e-008	4.923e-007	2.85439e-007	-1.7135e-007	2.94168e-007	3.81196e-007	1.08137e-007
-1.67167e-007	9.41549e-008	-2.19608e-007	-4.18568e-008	-4.49751e-008	-8.04482e-008	1.11882e-007	2.02382e-007	1.66879e-007	-5.98661e-008	-1.32875e-007	-7.80282e-008	1.1803e-007	1.31497e-007
-5.25373e-007	1.68064e-007	-3.76249e-007	-2.28588e-007	-3.07898e-007	-4.01841e-007	4.24317e-007	5.2088e-007	3.36297e-007	-1.33731e-007	-4.2683e-008	-3.98131e-008	2.66627e-007	3.39991e-007
-9.89385e-007	3.49525e-007	-2.72e-007	2.67212e-007	4.63187e-008	-9.03476e-007	-4.79486e-008	1.52251e-007	3.24333e-007	2.93151e-007	4.9525e-008	2.59679e-007	2.80279e-007	1.90537e-007
4.95065e-007	5.60014e-008	9.86431e-008	4.42246e-007	6.05652e-007	6.66345e-007	-5.48167e-007	-8.43586e-007	-2.2389e-007	2.31688e-007	-2.02174e-007	2.16757e-008	-2.73131e-007	-5.26367e-007
5.20623e-007	-6.53918e-008	6.24038e-007	2.85414e-007	3.57652e-007	4.32039e-007	6.1582e-007	-1.99916e-006	-4.19286e-007	1.96054e-007	5.38415e-007	7.75468e-008	-4.20726e-007	-7.43034e-007
-1.5844e-007	5.75101e-007	-5.45587e-007	3.33207e-007	2.31096e-007	7.76841e-008	-9.88846e-007	-3.60007e-007	5.89194e-007	3.92852e-007	-8.38279e-007	3.82768e-007	4.65292e-007	-1.56033e-007
4.67599e-007	-3.86064e-007	5.02364e-007	-4.73206e-008	7.83988e-008	2.693e-007	4.9784e-007	-2.24066e-007	-5.41927e-007	-1.20551e-007	2.28655e-007	-1.46487e-007	-3.77318e-007	-2.00423e-007
-3.9685e-007	5.01794e-007	-6.93333e-007	3.13405e-007	1.57874e-007	-7.78469e-008	-9.91199e-007	-2.07148e-007	4.6464e-007	3.98967e-007	-3.10353e-007	3.93525e-007	3.96505e-007	5.00176e-008
-3.03159e-007	2.98179e-007	-3.30147e-007	3.02352e-008	-1.28138e-007	-2.37309e-007	-8.22932e-007	-4.40727e-007	3.3088e-007	2.62149e-007	-4.60329e-008	5.50184e-007	5.5779e-007	2.79027e-007
-1.36396e-008	4.59586e-007	-6.7274e-007	4.55684e-007	4.09643e-007	2.76016e-007	-7.65279e-007	-2.4613e-007	3.6299e-007	4.16712e-007	-9.8423e-007	2.82099e-007	2.29773e-007	-2.10484e-007
-5.04904e-008	2.26724e-007	-7.81988e-008	2.69075e-007	1.8434e-007	6.36363e-008	-7.63438e-007	-5.76351e-007	8.89638e-008	3.12038e-007	2.81326e-008	2.99998e-007	1.24306e-007	-1.28735e-007
1.95047e-008	3.02429e-007	-3.76867e-007	2.13277e-007	2.44193e-007	1.93045e-007	-8.86092e-008	2.82679e-007	3.88126e-007	9.64856e-008	-1.50993e-006	-8.78299e-008	2.18034e-007	1.05464e-007
7.29774e-007	-1.2689e-007	5.64207e-007	3.97766e-007	5.34637e-007	6.41696e-007	-3.52594e-007	-6.25346e-007	-3.80489e-007	1.92914e-007	-3.84398e-007	-6.8284e-008	-4.57926e-007	-6.65066e-007
3.1582e-007	3.6509e-007	2.02021e-007	4.58368e-007	4.34008e-007	3.86556e-007	-5.59052e-007	-2.03141e-006	9.00457e-008	4.53829e-007	4.98923e-008	3.99824e-007	6.44856e-008	-6.29481e-007
9.61158e-007	6.18856e-007	-5.5661e-007	1.0906e-006	1.52395e-006	1.52439e-006	-5.87498e-008	1.56689e-007	5.68944e-007	1.51517e-007	-3.67591e-006	-1.10791e-006	-2.77075e-007	-9.19855e-007
-6.56575e-007	2.38146e-007	-9.4797e-008	1.93141e-007	-7.64749e-008	-8.45927e-007	-4.55858e-008	7.56112e-008	2.06044e-007	2.60552e-007	1.22843e-007	2.53646e-007	2.15614e-007	1.53762e-007
3.27273e-007	1.56094e-008	2.81904e-007	2.67876e-007	2.99401e-007	3.20077e-007	-2.22658e-007	-9.16927e-007	-2.53478e-007	2.17049e-007	1.12017e-007	1.41733e-007	-1.88814e-007	-4.01062e-007
-1.50812e-006	5.62976e-007	-9.95978e-008	2.80855e-007	-2.23671e-007	-2.59836e-006	3.00414e-007	4.84114e-007	5.83616e-007	4.36309e-007	2.88987e-007	4.62034e-007	5.44295e-007	4.86143e-007
-5.11308e-007	3.43302e-007	-3.69579e-007	2.32063e-007	9.50146e-008	-2.51313e-007	-3.48763e-007	-5.10802e-008	3.02698e-007	2.39163e-007	-1.13034e-007	1.85984e-007	2.07664e-007	3.91884e-008
-5.08033e-007	1.78004e-007	-6.18858e-008	2.44633e-007	2.59034e-008	-7.23312e-007	-1.06612e-007	-1.38779e-008	1.22275e-007	2.65108e-007	1.07891e-007	2.33612e-007	1.49462e-007	8.68323e-008
-5.32927e-007	2.16055e-007	-1.82903e-007	-9.01953e-008	-1.95123e-007	-4.6747e-007	2.42393e-007	3.21895e-007	2.90102e-007	-1.69492e-008	-2.85381e-008	2.20453e-008	2.09957e-007	2.11657e-007
6.16608e-008	2.88908e-007	-4.26941e-007	5.7047e-007	6.08277e-007	4.65541e-007	-8.79684e-007	-5.73333e-007	6.52543e-008	4.08223e-007	-3.8279e-007	1.84814e-007	-3.13804e-008	-3.59018e-007
-3.56701e-007	1.52327e-007	-4.23008e-008	5.44812e-008	-1.79156e-007	-5.12449e-007	-3.89329e-008	5.14751e-008	1.445e-007	1.51838e-007	1.0757e-007	1.79373e-007	1.63721e-007	1.24255e-007
-2.71026e-007	-1.28442e-007	3.39295e-007	-5.49248e-007	-5.69013e-007	-4.96607e-007	5.9598e-007	4.94993e-007	1.00955e-007	-4.07541e-007	4.805e-007	-1.67152e-007	1.56547e-007	4.20761e-007
-5.67938e-007	3.9198e-007	-9.04816e-007	-4.63982e-008	-1.80689e-007	-3.37187e-007	-2.32036e-007	4.18573e-007	5.82183e-007	9.82716e-008	-6.21366e-007	2.53117e-007	6.09348e-007	5.36958e-007
7.21365e-007	-2.48846e-007	3.64532e-007	3.25633e-007	5.14263e-007	6.62494e-007	-3.10629e-007	-5.16546e-007	-4.33456e-007	8.46934e-008	-1.33301e-007	-1.27726e-007	-4.27906e-007	-4.7457e-007
-1.00553e-006	3.08664e-007	2.71907e-008	1.91893e-007	-1.95084e-007	-1.48751e-006	1.02936e-007	2.09698e-007	2.97223e-007	3.24062e-007	2.67038e-007	3.53406e-007	3.2257e-007	2.83448e-007
-1.56371e-007	-1.02935e-007	4.12369e-007	-5.95039e-007	-6.54009e-007	-5.45e-007	6.48504e-007	5.13294e-007	1.24795e-007	-3.9003e-007	3.41524e-007	-1.35247e-007	1.57979e-007	3.80165e-007
3.23684e-007	5.18023e-007	1.84626e-008	5.61154e-007	5.4895e-007	4.76475e-007	-7.79092e-007	-1.54258e-006	3.15951e-007	5.05347e-007	-4.87389e-007	3.55189e-007	1.05499e-007	-9.19672e-007
7.16818e-007	-3.69467e-007	4.2779e-007	-2.81673e-007	-1.48245e-007	3.68594e-007	2.58995e-007	-2.89359e-008	-3.26628e-007	-2.58321e-007	1.19978e-007	-1.85267e-007	-2.22406e-007	-7.12307e-008
6.19927e-007	-1.4782e-007	4.42235e-007	-5.21459e-007	-7.95141e-007	-4.63976e-007	4.68694e-007	2.95799e-007	-4.3515e-009	-2.69429e-007	2.28203e-007	-8.39306e-008	4.01608e-008	1.91087e-007
-2.11454e-007	3.64075e-007	-2.82824e-007	3.01384e-007	1.9684e-007	5.02282e-009	-8.09321e-007	-4.85587e-007	2.72734e-007	3.31747e-007	-1.05519e-007	2.96597e-007	2.18907e-007	-9.26006e-008
4.64741e-008	2.12924e-009	8.00318e-008	-3.53563e-007	-3.59817e-007	-2.20991e-007	4.06489e-007	3.56602e-007	1.43958e-007	-2.56182e-007	2.11298e-008	-1.44967e-007	9.03122e-008	1.88394e-007
6.91943e-007	-4.4483e-007	1.04532e-006	-7.09214e-008	1.44327e-007	3.82058e-007	3.65541e-007	-1.99909e-007	-5.12474e-007	-2.8088e-007	2.25778e-007	-4.31816e-007	-5.43969e-007	-3.70166e-007
8.75506e-007	-2.7927e-007	1.70798e-007	1.9386e-007	5.636e-007	9.28298e-007	-1.84245e-007	-3.78954e-007	-3.86802e-007	-1.07976e-007	-2.63751e-007	-2.89754e-007	-4.18672e-007	-4.22636e-007
5.40957e-007	-2.86855e-007	4.97004e-007	-3.91721e-007	-4.52543e-007	-1.03012e-007	3.6053e-007	1.13517e-007	-1.97259e-007	-2.40086e-007	2.52226e-007	-9.22928e-008	-8.27296e-008	8.22632e-008
5.32913e-007	-9.31494e-008	4.82807e-007	2.94171e-007	4.31474e-007	5.07962e-007	4.35711e-007	-2.27228e-007	-3.37323e-007	5.4114e-008	9.55271e-008	-3.23877e-007	-6.82902e-007	-1.1702e-006
-1.87235e-007	5.4707e-007	-5.45382e-007	3.10628e-007	1.76662e-007	2.3037e-008	-8.57761e-007	-3.66459e-007	5.20924e-007	4.38381e-007	-9.88343e-007	5.24094e-007	5.15893e-007	-1.11509e-007
6.31646e-007	2.30835e-007	4.7377e-007	5.16537e-007	6.22537e-007	6.63782e-007	5.12934e-007	-1.93553e-007	-5.14547e-008	3.18045e-007	-1.20844e-007	-2.77693e-009	-4.73334e-007	-3.12812e-006
1.07386e-006	-4.18591e-007	7.19511e-007	-2.36411e-007	-8.02245e-008	3.46691e-007	7.36767e-008	-2.29887e-007	-4.22645e-007	-2.59852e-007	1.61083e-007	-2.0995e-007	-3.21031e-007	-1.96228e-007
5.43548e-007	1.31336e-007	4.39765e-007	4.2333e-007	5.06354e-007	5.49867e-007	2.87386e-007	-1.82847e-006	-1.8726e-007	2.85001e-007	6.07629e-008	8.29744e-008	-3.48249e-007	-9.46345e-007
1.44865e-007	4.40673e-007	-3.67877e-007	5.46477e-007	5.04175e-007	3.84299e-007	-1.08195e-006	-6.33864e-007	2.45003e-007	5.03311e-007	-7.43742e-007	3.51967e-007	1.30428e-007	-4.23764e-007
7.5209e-008	-3.13545e-007	5.48378e-007	-4.81086e-007	-3.77519e-007	-2.03441e-007	7.37339e-007	4.37136e-007	-1.15928e-007	-4.88713e-007	3.92673e-007	-3.68501e-007	-8.98421e-008	2.47839e-007
-5.13578e-007	1.84328e-007	-3.0297e-008	-1.95178e-007	-5.27428e-007	-7.86141e-007	1.84548e-007	3.13504e-007	2.83553e-007	5.30144e-008	2.08171e-007	1.97139e-007	3.05553e-007	3.22812e-007
-2.79091e-007	2.25269e-007	-4.56763e-007	-3.34712e-008	-4.35896e-008	-1.13978e-007	1.3117e-007	3.35866e-007	3.32993e-007	-5.11474e-008	-3.29419e-007	-7.68068e-008	1.99705e-007	1.59262e-007
3.81536e-007	-1.94685e-007	5.52131e-007	1.54346e-007	2.01769e-007	2.70741e-007	3.26886e-007	-1.00562e-006	-5.34969e-007	1.09844e-007	6.67377e-007	5.19913e-008	-4.52726e-007	-5.28619e-007
-2.32495e-007	3.98041e-008	-1.96236e-007	3.70171e-007	4.95153e-007	3.48413e-007	-3.97991e-007	-3.16465e-007	-8.90755e-008	2.20196e-007	-9.63813e-008	9.70886e-008	-6.8319e-008	-1.73863e-007
2.30981e-007	9.26775e-008	-1.33291e-008	4.21115e-007	4.73176e-007	4.20278e-007	-6.4523e-007	-6.75713e-007	-1.46938e-007	2.99357e-007	-1.13622e-007	1.47576e-007	-1.3376e-007	-3.56568e-007
-1.13349e-006	4.70778e-007	-2.29655e-007	3.65416e-007	9.06716e-008	-1.95196e-006	1.06209e-007	2.95129e-007	4.49513e-007	3.88282e-007	1.1265e-007	3.4344e-007	3.90521e-007	3.02502e-007
-2.06461e-007	6.46041e-007	4.20607e-007	1.11078e-008	-8.92235e-007	-5.28612e-006	7.55692e-007	8.3045e-007	7.62605e-007	3.72221e-007	5.76877e-007	5.30849e-007	7.24167e-007	7.54205e-007
5.81555e-007	-1.06263e-007	2.30484e-007	-4.46774e-007	-4.36366e-007	-8.48386e-008	3.65558e-007	2.5544e-007	2.6928e-008	-3.30566e-007	3.37884e-008	-2.01489e-007	-6.02535e-010	1.13145e-007
-1.77293e-007	-1.55328e-007	3.39287e-007	-5.03669e-007	-4.90388e-007	-3.98906e-007	5.04813e-007	4.14261e-007	5.26551e-008	-4.0235e-007	5.09481e-007	-1.83045e-007	1.15332e-007	3.7515e-007
-2.36481e-007	1.89606e-008	1.00642e-007	-2.99237e-007	-5.23778e-007	-5.83969e-007	3.47805e-007	3.69745e-007	1.55502e-007	-9.09668e-008	2.02032e-007	6.03291e-008	1.90501e-007	2.88914e-007
2.17928e-007	-1.21795e-007	-1.20309e-007	-2.87945e-007	-3.12879e-008	1.26387e-006	5.63424e-008	3.56805e-008	-5.41035e-008	-3.03142e-007	-1.95553e-007	-2.66629e-007	-1.15925e-007	-7.71328e-008
4.57214e-007	-1.73281e-007	2.13232e-007	1.81712e-007	2.95804e-007	4.45111e-007	-3.0605e-007	-4.4837e-007	-3.14215e-007	8.72761e-008	2.36619e-008	1.58735e-008	-2.18737e-007	-2.59232e-007
-6.13239e-007	3.12917e-007	-3.04167e-007	-7.64152e-008	-3.3755e-007	-5.93817e-007	-1.40063e-007	2.29064e-007	4.16224e-007	1.26349e-007	5.97086e-008	2.41486e-007	3.83512e-007	2.9599e-007
-1.8733e-007	-1.89935e-007	1.01208e-007	-3.08162e-007	-3.92074e-007	-3.6732e-007	3.64385e-007	4.30642e-007	-6.2579e-008	-1.53643e-007	2.87539e-007	2.26136e-008	1.11304e-007	3.43352e-007
-3.84035e-007	2.21657e-008	-7.48159e-008	-2.79474e-007	-4.50103e-007	-5.19711e-007	1.59864e-007	4.24309e-007	2.06175e-007	-7.21416e-008	1.92199e-007	1.12851e-007	2.81982e-007	3.80734e-007
-1.88085e-007	2.02255e-007	-4.79314e-007	2.44619e-008	3.28022e-008	-2.2538e-008	1.5215e-007	3.4455e-007	3.03122e-007	-2.98014e-008	-5.28802e-007	-1.05092e-007	1.68353e-007	1.25939e-007
1.08169e-007	-8.71823e-008	1.30237e-007	3.75153e-008	6.73938e-008	8.8579e-008	9.64751e-008	-3.36468e-008	-1.63853e-007	-1.45712e-008	1.8897e-007	-1.08772e-007	-2.32231e-007	-7.70835e-008
3.61737e-007	-4.22472e-007	5.2707e-007	-1.02415e-007	-1.0897e-008	1.48322e-007	5.81552e-007	-1.34092e-007	-5.66566e-007	-1.41077e-007	3.63435e-007	-1.31254e-007	-3.63817e-007	-1.09524e-007
-6.56697e-007	1.63237e-007	-1.01855e-007	-4.53517e-007	-6.86953e-007	-8.17251e-007	5.09361e-007	6.3089e-007	3.93992e-007	-1.70242e-007	2.28229e-007	7.20637e-008	3.85741e-007	5.03001e-007
-4.19811e-007	1.22119e-007	-9.91068e-008	-3.10503e-007	-4.00847e-007	-4.61756e-007	4.55642e-007	4.89007e-007	2.87917e-007	-1.81045e-007	4.19326e-008	-5.80092e-008	2.23576e-007	3.10884e-007
-2.50827e-007	3.00076e-007	-4.04883e-007	4.73582e-007	4.90688e-007	2.17433e-007	-6.17044e-007	-3.80418e-007	1.32315e-007	3.26737e-007	-2.59017e-007	1.50166e-007	3.27834e-008	-2.11591e-007
4.11882e-007	-2.9875e-008	4.47531e-007	2.98241e-007	3.33443e-007	3.68778e-007	7.79983e-008	-1.21757e-006	-4.2807e-007	2.45906e-007	3.57003e-007	1.55118e-007	-3.81596e-007	-6.38793e-007
-6.53716e-007	3.53282e-007	-2.41551e-007	-5.36886e-008	-4.02518e-007	-7.70196e-007	1.08904e-008	2.69506e-007	4.21851e-007	1.45588e-007	6.25935e-008	2.23624e-007	3.55981e-007	2.78354e-007
-4.7535e-007	5.22582e-007	-7.81457e-007	1.36845e-007	-4.98535e-008	-2.42237e-007	-6.91617e-007	-5.24467e-008	5.80625e-007	3.38673e-007	-6.29809e-007	5.08523e-007	6.1708e-007	2.18441e-007
-4.08307e-007	2.60039e-007	5.43875e-008	-4.03751e-008	-5.81341e-007	-1.26148e-006	1.84091e-007	2.67942e-007	2.97184e-007	1.74248e-007	2.16062e-007	2.50649e-007	3.00427e-007	2.86472e-007
3.60272e-007	-5.30752e-007	5.30579e-007	-8.44203e-008	4.52652e-008	1.92838e-007	9.94769e-007	2.95446e-007	-8.21343e-007	-2.11062e-007	4.6067e-007	-3.2002e-007	-7.04023e-007	-2.08219e-007
1.41004e-007	1.30965e-007	-1.06515e-007	1.82818e-007	2.4767e-007	2.40507e-007	9.99314e-008	1.47057e-007	1.29321e-007	3.15482e-008	-7.26322e-007	-2.04065e-007	-9.06202e-008	-2.233e-007
6.75551e-007	-3.46175e-007	6.98192e-007	-5.89828e-007	-4.91788e-007	-4.44577e-008	4.83244e-007	2.10344e-007	-1.83626e-007	-4.60672e-007	2.9319e-007	-2.48192e-007	-1.10978e-007	1.15197e-007
1.07433e-006	-4.19961e-007	5.899e-007	-3.6399e-007	-2.12027e-007	4.00424e-007	2.12243e-007	-8.75295e-008	-3.66928e-007	-3.35648e-007	1.3881e-007	-2.4178e-007	-2.72492e-007	-1.15351e-007
5.7371e-007	1.81958e-007	4.33336e-007	5.06429e-007	5.80516e-007	6.04348e-007	1.03815e-007	-8.04821e-007	-1.77951e-007	3.52889e-007	-1.16513e-007	7.7421e-008	-4.86257e-007	-1.82888e-006
2.1905e-007	3.15005e-007	-8.26551e-008	5.21209e-007	5.42918e-007	4.44893e-007	-7.95217e-007	-9.49795e-007	2.98424e-008	3.96961e-007	-2.5276e-007	1.99811e-007	-8.30638e-008	-5.06198e-007
1.90153e-007	2.90711e-007	1.83371e-007	3.17062e-007	2.49927e-007	2.07916e-007	-3.86002e-007	-1.28582e-006	3.86455e-008	4.15178e-007	2.00412e-007	5.28236e-007	1.61732e-007	-1.11152e-006
2.82637e-007	-5.36116e-008	4.25416e-008	3.06022e-007	4.39256e-007	4.74031e-007	-3.95387e-007	-5.0657e-007	-2.39684e-007	1.61736e-007	-6.98597e-008	4.0326e-008	-1.88353e-007	-2.93085e-007
-3.86378e-007	3.36096e-007	-6.89081e-007	8.88996e-009	-5.74989e-008	-1.74326e-007	-5.55038e-008	3.59517e-007	4.81484e-007	4.49332e-008	-6.32298e-007	5.88499e-008	4.09142e-007	2.96173e-007
-3.2326e-007	2.18614e-007	-2.96388e-007	3.92132e-007	3.96094e-007	6.26947e-008	-4.40667e-007	-2.75919e-007	8.36972e-008	2.74671e-007	-1.4331e-007	1.44372e-007	3.73463e-008	-1.30078e-007
1.65439e-007	6.20336e-007	-1.00029e-007	4.49276e-007	4.01038e-007	3.13049e-007	-5.41102e-007	-1.0288e-006	6.06326e-007	4.5977e-007	-6.09501e-007	4.07985e-007	4.0279e-007	-1.54657e-006
1.33903e-007	-1.13437e-007	3.1414e-007	-4.7852e-007	-4.08098e-007	-1.97432e-007	5.04413e-007	3.86868e-007	7.26438e-008	-3.94861e-007	1.33816e-007	-2.29989e-007	5.27895e-008	2.23764e-007
2.27023e-007	-4.77134e-007	4.34088e-007	-1.6286e-007	-8.80038e-008	4.17648e-008	8.35931e-007	2.61043e-007	-6.85955e-007	-1.93388e-007	4.33188e-007	-1.79199e-007	-4.42374e-007	-4.12217e-009
-2.71729e-007	1.90019e-007	-3.54453e-007	5.13273e-007	6.0692e-007	2.96584e-007	-5.54268e-007	-3.92239e-007	9.15906e-009	3.14649e-007	-2.16914e-007	1.25795e-007	-3.73007e-008	-2.29496e-007
-5.55745e-007	5.27817e-007	-9.14248e-007	1.29642e-007	-4.9556e-008	-2.62217e-007	-4.12528e-007	1.33262e-007	5.90088e-007	2.92179e-007	-6.45888e-007	3.83921e-007	5.54028e-007	2.29245e-007
5.85379e-007	-1.94713e-007	2.42116e-007	3.18477e-007	5.29576e-007	6.77871e-007	-3.06444e-007	-6.18992e-007	-4.30808e-007	1.09353e-007	-6.64968e-008	-5.57033e-008	-3.61896e-007	-4.27719e-007
-5.51873e-007	2.74796e-007	-3.29753e-007	3.97386e-007	2.97165e-007	-2.2191e-007	-3.68831e-007	-1.72319e-007	1.56845e-007	3.24484e-007	-9.31739e-008	2.10346e-007	1.1821e-007	-4.13729e-008
-5.68693e-008	4.99356e-007	-2.60856e-007	4.04491e-007	3.30209e-007	1.66281e-007	-8.81735e-007	-8.49928e-007	3.77687e-007	3.90743e-007	-2.73205e-007	2.90453e-007	1.93512e-007	-3.30138e-007
3.41381e-007	4.05753e-007	8.25933e-008	5.01565e-007	4.942e-007	4.47879e-007	-3.79805e-007	-7.17736e-007	1.77753e-007	4.58744e-007	-8.38725e-007	3.28586e-007	-1.89523e-008	-1.28324e-006
3.53089e-007	4.40083e-007	7.84e-008	5.01132e-007	5.15939e-007	4.73135e-007	-2.3491e-007	-6.23039e-007	2.61506e-007	4.14137e-007	-6.84913e-007	2.18113e-007	-3.95114e-008	-1.67316e-006
4.14433e-008	2.57607e-008	-4.27267e-008	-2.52732e-007	-1.78595e-007	1.2481e-007	2.12667e-007	2.16924e-007	1.16459e-007	-2.01283e-007	-6.33571e-008	-1.36284e-007	4.69798e-008	8.99339e-008
-8.57126e-007	1.07095e-006	3.63541e-007	1.21468e-007	-1.71539e-006	-6.70466e-006	9.06129e-007	1.11562e-006	1.17496e-006	7.01333e-007	7.65488e-007	8.77869e-007	1.10904e-006	1.07076e-006
5.77897e-007	-3.03208e-007	4.26013e-007	-1.38817e-008	7.23846e-008	3.11145e-007	-8.924e-008	-2.89843e-007	-3.63548e-007	-4.12755e-008	1.60628e-007	-3.46922e-008	-2.36409e-007	-1.75969e-007
5.17798e-007	-4.10866e-007	7.64107e-007	-1.41193e-007	6.07851e-008	2.65588e-007	3.6988e-007	-1.08951e-008	-3.93621e-007	-3.46617e-007	3.58773e-007	-4.69473e-007	-4.14605e-007	-1.49662e-007
-4.33358e-007	3.29354e-007	-2.80715e-007	1.0502e-007	-9.06181e-008	-3.31952e-007	-3.85823e-007	-8.24572e-008	3.31072e-007	2.19411e-007	-1.84619e-008	2.51429e-007	2.83309e-007	1.0379e-007
1.68741e-007	-2.89494e-008	-6.2325e-008	-1.94691e-007	-7.17391e-009	2.69813e-007	1.97017e-007	1.80749e-007	5.88494e-008	-2.39703e-007	-1.35901e-007	-2.13099e-007	-2.20642e-008	2.87356e-008
-4.50238e-007	1.83952e-007	-2.30703e-007	3.10651e-007	2.80852e-007	-2.04314e-007	-2.40867e-007	-1.11158e-007	1.00679e-007	2.30722e-007	-6.11803e-008	1.42224e-007	7.6253e-008	-2.68742e-008
-3.98674e-007	4.54638e-008	-2.1705e-007	-3.92675e-007	-4.21456e-007	-4.23006e-007	5.02952e-007	6.2384e-007	2.97886e-007	-2.98129e-007	8.57918e-008	-1.33774e-007	2.73637e-007	4.55194e-007
-2.0359e-007	1.15461e-007	-5.62709e-008	4.11891e-008	-1.06669e-007	-2.54494e-007	-8.52137e-008	-1.36363e-008	9.77949e-008	1.1386e-007	4.98095e-008	1.30209e-007	1.10208e-007	6.13438e-008
3.83138e-007	-2.85108e-007	4.63665e-007	9.7546e-008	1.70213e-007	2.67192e-007	2.76034e-007	-4.84215e-007	-5.70553e-007	3.7015e-008	3.19994e-007	-1.35615e-008	-3.87709e-007	-2.7365e-007
-3.77507e-007	1.74143e-008	9.79788e-008	-5.42554e-007	-6.08449e-007	-5.68254e-007	5.17626e-007	5.44085e-007	2.58178e-007	-3.36618e-007	3.12516e-007	-6.40036e-008	2.85744e-007	4.63845e-007
-8.10145e-008	2.1357e-007	-1.68594e-007	3.40422e-007	3.11242e-007	1.38937e-007	-5.0392e-007	-4.35908e-007	4.61231e-008	2.72499e-007	-1.13402e-007	1.62312e-007	1.20398e-008	-1.94305e-007
1.69281e-007	-1.70361e-007	2.72332e-007	-2.61233e-008	-2.98335e-008	3.19062e-008	6.74478e-008	-1.99896e-007	-2.47095e-007	9.74716e-009	2.11843e-007	5.08859e-008	-9.86458e-008	-4.14883e-008
-2.81565e-007	8.01367e-008	9.58632e-008	-4.50716e-007	-6.40111e-007	-6.75887e-007	5.38091e-007	5.39214e-007	2.76799e-007	-2.22225e-007	1.675e-007	-3.27439e-008	2.4135e-007	3.64295e-007
4.86792e-007	4.76895e-009	1.21281e-007	4.73929e-007	6.37481e-007	6.69935e-007	-4.51023e-007	-7.8868e-007	-3.14576e-007	2.37597e-007	-1.87373e-007	-3.56132e-009	-3.42969e-007	-5.43601e-007
-5.10581e-007	2.74268e-007	-2.67443e-007	3.34111e-007	1.77249e-007	-3.50662e-007	-2.97293e-007	-1.21685e-007	1.75505e-007	2.9578e-007	-5.37367e-008	2.07519e-007	1.39178e-007	-2.20993e-009
6.6473e-008	5.66273e-007	-1.24278e-007	4.53382e-007	3.74527e-007	2.39745e-007	-8.42336e-007	-1.41969e-006	4.00225e-007	4.6748e-007	-2.27096e-007	3.8969e-007	2.06777e-007	-5.51174e-007
3.83127e-007	2.51374e-007	1.55611e-007	4.16938e-007	4.77376e-007	4.69728e-007	4.2008e-008	-2.90593e-007	4.71174e-008	2.59597e-007	-5.37673e-007	-4.71226e-008	-3.65839e-007	-1.26165e-006
-7.54084e-007	5.69806e-007	2.73849e-007	6.56646e-008	-1.13401e-006	-3.60888e-006	4.45827e-007	5.79083e-007	6.24632e-007	4.71028e-007	5.63188e-007	6.08053e-007	6.57036e-007	6.3881e-007
1.9517e-008	4.60452e-007	-2.20228e-007	4.63564e-007	4.22004e-007	2.63791e-007	-8.15438e-007	-8.68804e-007	2.61803e-007	3.96095e-007	-2.84207e-007	2.40209e-007	7.40214e-008	-4.1278e-007
3.16205e-007	-4.46711e-007	8.65733e-007	-4.75341e-007	-3.37305e-007	-9.30521e-008	5.33759e-007	1.8216e-007	-3.08284e-007	-4.81701e-007	6.38574e-007	-3.21595e-007	-2.07072e-007	1.34629e-007
3.48456e-007	5.62736e-008	6.0311e-008	4.2223e-007	5.43361e-007	5.35772e-007	-4.21409e-007	-7.1465e-007	-2.34323e-007	2.31744e-007	-1.4999e-007	3.31579e-008	-2.57549e-007	-4.53386e-007
-1.42298e-007	1.16457e-007	1.3509e-007	-1.69507e-008	-4.25377e-007	-8.78566e-007	9.97694e-008	1.18921e-007	1.26986e-007	1.35981e-007	2.00924e-007	1.91182e-007	1.6831e-007	1.69571e-007
-4.41653e-008	5.60161e-007	-3.07155e-007	2.95923e-007	2.03761e-007	1.01354e-007	-6.2936e-007	-5.73296e-007	5.93438e-007	4.01401e-007	-9.93524e-007	5.37557e-007	6.6186e-007	-8.07954e-007
8.57348e-007	-3.76611e-007	3.37677e-007	7.55197e-008	4.80235e-007	8.34323e-007	2.64012e-008	-2.2991e-007	-4.11529e-007	-2.53333e-007	-1.63867e-007	-3.96436e-007	-4.3785e-007	-3.41968e-007
-3.23592e-007	3.81491e-007	-3.67408e-007	3.93805e-007	2.98089e-007	-9.43792e-009	-5.88118e-007	-3.46572e-007	2.35866e-007	3.36342e-007	-2.0011e-007	2.07584e-007	1.24315e-007	-1.42254e-007
-4.1386e-007	1.53582e-007	-4.27967e-007	-2.44683e-007	-2.88966e-007	-3.40532e-007	1.82611e-007	4.93133e-007	3.81517e-007	-1.74201e-007	-1.08115e-007	-4.93552e-008	3.75849e-007	4.60987e-007
7.90075e-007	-4.66421e-007	7.71089e-007	-8.55603e-009	2.59802e-007	5.31479e-007	1.58361e-007	-2.34338e-007	-5.14376e-007	-2.60082e-007	1.61066e-007	-3.80056e-007	-4.94528e-007	-3.13515e-007
4.7962e-009	1.8164e-008	1.66633e-008	-3.28978e-007	-2.85123e-007	-1.22413e-007	3.54646e-007	3.43193e-007	1.59171e-007	-2.57925e-007	-1.20924e-008	-1.55142e-007	9.03282e-008	1.74713e-007
-2.56338e-007	9.12803e-008	-3.79071e-007	-1.3752e-007	-1.43462e-007	-1.7747e-007	6.64426e-008	4.93101e-007	3.07425e-007	-1.46745e-007	-4.13948e-007	-1.37384e-007	2.98439e-007	5.35251e-007
9.57693e-008	5.43771e-007	-1.1401e-007	4.49132e-007	3.66803e-007	2.49525e-007	-9.38311e-007	-1.47207e-006	3.94504e-007	4.92115e-007	-2.83179e-007	4.58882e-007	2.87467e-007	-5.30399e-007
-2.19814e-007	-1.28494e-007	1.18949e-008	-2.68831e-007	-3.54071e-007	-3.47519e-007	1.79271e-007	3.93947e-007	1.76691e-008	-1.14587e-007	2.27519e-007	6.29464e-008	1.81473e-007	3.58595e-007
-7.10062e-007	1.11602e-007	-2.01888e-008	-4.71407e-007	-6.85772e-007	-8.2076e-007	5.99634e-007	6.33667e-007	3.38857e-007	-1.99584e-007	3.03406e-007	4.97414e-008	3.56225e-007	5.1464e-007
-1.64427e-007	1.07591e-007	-3.2874e-008	-2.72577e-007	-3.49741e-007	-3.58687e-007	3.26372e-007	3.62347e-007	2.32727e-007	-1.60831e-007	1.1436e-008	-6.59957e-008	1.55419e-007	2.09239e-007
1.15192e-007	1.33588e-008	2.06951e-008	-3.52785e-007	-3.00869e-007	6.71287e-008	2.71413e-007	2.63212e-007	1.29736e-007	-2.53517e-007	-2.28894e-008	-1.47786e-007	6.70207e-008	1.30089e-007
4.27399e-007	-2.96645e-007	2.87419e-007	6.73278e-008	2.20625e-007	3.91406e-007	3.43346e-008	-2.64824e-007	-4.11186e-007	-2.76299e-008	9.01248e-008	-6.81848e-008	-2.65667e-007	-1.845e-007
3.50006e-008	-1.57452e-007	2.13622e-007	-3.08481e-007	-3.98744e-007	-2.73807e-007	3.49173e-007	2.71303e-007	-3.85154e-008	-1.52455e-007	2.11232e-007	-9.32643e-009	5.70542e-008	2.01395e-007
-1.22582e-007	5.84258e-007	-2.93674e-007	3.39835e-007	2.17045e-007	5.72074e-008	-9.84933e-007	-1.04385e-006	5.57636e-007	4.21237e-007	-2.89958e-007	4.24485e-007	4.11088e-007	-2.77793e-007
6.46908e-007	-2.72555e-007	2.00547e-007	-2.9896e-007	-3.0968e-008	6.92432e-007	1.69254e-007	1.65886e-008	-1.98125e-007	-3.24577e-007	-4.70533e-008	-2.69031e-007	-1.95456e-007	-8.90056e-008
-3.94666e-007	2.1045e-007	-4.58368e-008	5.894e-008	-2.74795e-007	-7.70282e-007	3.49581e-008	1.29623e-007	2.11219e-007	1.68512e-007	1.08638e-007	1.91347e-007	2.05714e-007	1.66179e-007
-9.20051e-009	8.94026e-009	1.42795e-007	-1.93851e-007	-4.23105e-007	-4.01816e-007	1.84637e-007	1.65407e-007	7.16634e-008	-3.05549e-008	1.56338e-007	6.55538e-008	1.07679e-007	1.55513e-007
-1.05836e-007	3.1396e-007	-3.28522e-007	1.48619e-007	9.56149e-008	1.94971e-008	-3.17015e-007	-7.99412e-008	3.41418e-007	1.88662e-007	-7.30412e-007	2.13313e-007	3.11411e-007	-7.07701e-008
-6.84851e-007	5.08348e-007	7.83827e-008	2.55765e-007	-2.92261e-007	-3.28494e-006	3.15208e-007	4.44751e-007	5.23407e-007	4.11811e-007	3.2777e-007	4.42682e-007	4.98696e-007	4.55229e-007
-7.86408e-008	6.07203e-007	-2.37278e-007	2.82308e-007	1.69322e-007	5.12877e-008	-8.20948e-007	-1.46277e-006	7.21991e-007	4.01677e-007	-3.58072e-007	5.04576e-007	6.74637e-007	-4.55297e-007
-1.23401e-007	1.47761e-007	-2.13004e-007	4.6495e-007	5.06727e-007	2.23147e-007	-4.81701e-007	-4.19981e-007	-5.01393e-008	2.92018e-007	-1.56939e-007	1.17755e-007	-6.90153e-008	-2.38176e-007
5.3067e-007	-2.86737e-007	1.01247e-007	1.85227e-007	4.74504e-007	9.58574e-007	-3.31385e-007	-4.41743e-007	-3.96336e-007	7.2084e-009	-7.62913e-008	-8.93434e-008	-3.11988e-007	-3.23606e-007
-4.59912e-007	2.68258e-007	-6.8328e-009	5.97297e-008	-4.11475e-007	-1.18677e-006	1.12807e-007	2.11991e-007	2.80136e-007	2.0742e-007	1.67157e-007	2.44215e-007	2.73644e-007	2.39635e-007
7.88199e-007	-4.19385e-007	4.1181e-007	-1.57726e-007	8.01693e-008	6.5849e-007	4.17237e-008	-2.18928e-007	-4.26542e-007	-2.02909e-007	9.53726e-008	-1.70339e-007	-2.98405e-007	-1.81531e-007
-4.00982e-007	2.25242e-007	-2.68695e-007	-2.87037e-007	-3.47608e-007	-3.88093e-007	2.35646e-007	4.21936e-007	3.91201e-007	-1.58631e-007	-4.67565e-008	-1.59418e-008	3.16464e-007	3.23255e-007
1.07927e-007	-3.06006e-008	1.5306e-007	9.15942e-008	7.69369e-008	7.90204e-008	-4.75163e-008	-4.06758e-007	-2.07558e-007	1.1325e-007	1.58198e-007	1.24228e-007	-8.21471e-008	-1.29635e-007
-4.15616e-007	6.72225e-007	2.47734e-007	3.23074e-007	-2.4648e-007	-5.32613e-006	5.43655e-007	6.64454e-007	7.1191e-007	5.02862e-007	4.68098e-007	5.53783e-007	6.64986e-007	6.35446e-007
-2.93082e-007	1.16601e-007	-8.94403e-008	-1.20151e-007	-2.7908e-007	-3.70072e-007	-3.01476e-008	1.47898e-007	2.04996e-007	3.62401e-008	9.86032e-008	1.44715e-007	2.27651e-007	2.05268e-007
-6.37562e-007	3.01611e-007	-1.26867e-007	2.85673e-007	-2.50135e-008	-1.21037e-006	-3.22456e-008	9.94238e-008	2.54921e-007	3.1444e-007	9.73196e-008	2.73623e-007	2.42112e-007	1.62932e-007
5.24907e-007	7.2793e-007	3.04385e-007	7.09922e-007	6.85816e-007	6.30306e-007	-1.91516e-007	-1.0518e-006	5.50036e-007	7.01308e-007	-2.67014e-007	6.38875e-007	3.72837e-007	-4.336e-006
-1.00389e-007	5.97911e-007	-3.199e-007	3.85499e-007	2.80091e-007	1.11705e-007	-9.33601e-007	-9.19541e-007	5.31532e-007	4.2059e-007	-3.67561e-007	3.55472e-007	3.11959e-007	-3.53769e-007
4.61789e-007	-2.97721e-007	3.37192e-007	-2.20341e-007	-1.51153e-007	2.22469e-007	1.83148e-007	-2.1935e-008	-2.61533e-007	-1.64565e-007	1.54025e-007	-8.44866e-008	-1.4003e-007	-1.68583e-008
-1.79164e-008	-1.50966e-007	1.62779e-007	-2.66159e-007	-3.35609e-007	-2.47725e-007	2.96705e-007	2.57397e-007	-4.06872e-008	-1.28751e-007	1.99206e-007	6.01525e-009	6.41972e-008	2.01514e-007
6.95585e-008	2.02081e-007	-8.36389e-008	3.99788e-007	3.92878e-007	2.62916e-007	-5.04126e-007	-6.06841e-007	-5.04721e-008	3.02534e-007	-1.29236e-007	1.50061e-007	-8.468e-008	-3.20822e-007
-2.4937e-007	1.52202e-007	-9.38846e-008	1.51707e-009	-1.44502e-007	-2.54881e-007	-2.61377e-007	-1.34563e-007	1.49369e-007	1.45373e-007	1.1536e-007	2.40453e-007	2.18955e-007	1.15349e-007
-6.41324e-008	3.40431e-007	2.81306e-007	-1.6696e-007	-1.3035e-006	-2.09037e-006	4.09032e-007	4.47045e-007	4.11726e-007	1.9192e-007	3.69016e-007	3.25128e-007	4.15298e-007	4.34061e-007
2.60027e-008	1.67183e-007	-2.19041e-007	1.22238e-007	1.62932e-007	1.37087e-007	-4.01892e-008	1.69694e-007	2.45305e-007	3.59468e-009	-7.6418e-007	-1.87061e-007	1.03628e-007	7.28067e-008
2.20249e-007	4.37344e-007	1.03601e-007	3.86665e-007	3.43423e-007	2.90669e-007	-3.29522e-007	-1.33746e-006	2.74712e-007	4.22873e-007	-1.06348e-007	4.35477e-007	2.36657e-007	-1.37834e-006
7.95907e-007	-4.40454e-007	2.76877e-007	-9.49987e-008	3.39398e-007	1.05054e-006	-3.84811e-008	-2.73304e-007	-4.57649e-007	-2.37515e-007	-3.64673e-008	-2.51709e-007	-3.654e-007	-2.66745e-007
5.97767e-008	3.32427e-007	2.75053e-008	2.40464e-007	1.6414e-007	1.03694e-007	-4.74444e-007	-1.54016e-006	2.169e-007	3.39238e-007	4.76914e-008	4.4487e-007	3.43268e-007	-3.05367e-007
4.46367e-007	-1.00065e-007	3.02572e-007	3.19037e-007	4.21958e-007	4.73985e-007	-9.00288e-009	-6.87757e-007	-4.91747e-007	1.71163e-007	4.36981e-008	2.57854e-009	-4.15036e-007	-4.7775e-007
3.02901e-007	5.97538e-007	6.65621e-008	5.19807e-007	4.94e-007	4.27335e-007	-4.89341e-007	-2.04335e-006	5.24584e-007	5.03913e-007	-3.64461e-007	4.26692e-007	3.23558e-007	-1.28974e-006
2.01428e-007	-1.75171e-007	3.17501e-007	-5.38259e-007	-6.50549e-007	-3.08885e-007	5.33996e-007	4.20185e-007	2.46325e-008	-3.04392e-007	2.31912e-007	-9.44632e-008	7.7094e-008	2.64972e-007
3.85768e-007	-2.49325e-007	4.30458e-007	-5.82528e-007	-4.44277e-007	-4.03839e-008	5.3346e-007	3.59438e-007	-4.04314e-008	-4.74752e-007	2.04695e-007	-2.60106e-007	-1.94501e-008	1.97434e-007
-9.43226e-008	1.1326e-008	1.90592e-007	-5.66314e-007	-8.14999e-007	-6.32658e-007	5.3198e-007	5.39186e-007	2.39337e-007	-2.51438e-007	2.3597e-007	-1.01777e-008	2.39672e-007	3.81846e-007
7.56938e-007	-3.93588e-007	4.78714e-007	-4.56805e-007	-2.40935e-007	3.92046e-007	3.6709e-007	1.0994e-007	-2.66207e-007	-4.1335e-007	1.40486e-007	-2.75296e-007	-1.9821e-007	-8.24457e-010
4.62639e-007	-1.83371e-007	2.34754e-007	-4.979e-007	-2.90382e-007	3.24752e-007	3.36314e-007	2.29741e-007	-2.92523e-008	-4.09104e-007	4.22554e-008	-2.53314e-007	-5.09392e-008	8.38067e-008
3.44088e-007	2.40476e-007	1.16231e-007	3.951e-007	4.44767e-007	4.31925e-007	-3.06353e-008	-3.13099e-007	5.15168e-008	2.57307e-007	-5.84148e-007	-1.41838e-008	-2.8201e-007	-1.05734e-006
-2.69029e-008	7.19822e-008	-4.4793e-008	-2.96623e-007	-2.51097e-007	4.613e-008	2.16734e-007	2.46199e-007	1.68594e-007	-2.00002e-007	-3.94663e-008	-1.11177e-007	9.27087e-008	1.27713e-007
4.31724e-009	1.48574e-008	1.52883e-007	-1.54452e-007	-4.42498e-007	-4.05744e-007	1.25916e-007	1.08768e-007	5.36862e-008	2.00197e-008	1.72302e-007	1.06362e-007	1.0621e-007	1.37373e-007
5.76204e-007	-3.71351e-007	5.15337e-007	-5.04761e-007	-2.71196e-007	1.8792e-007	4.94306e-007	2.46693e-007	-1.92654e-007	-4.90324e-007	1.91153e-007	-3.22768e-007	-1.49096e-007	9.05372e-008
3.4099e-007	-2.51897e-007	4.18271e-007	-5.68841e-007	-5.97682e-007	-2.02272e-007	5.65353e-007	3.80622e-007	-5.47251e-008	-3.69438e-007	2.52427e-007	-1.53679e-007	1.19336e-008	2.28937e-007
-1.77156e-007	-4.26303e-007	3.08104e-007	-4.32799e-007	-4.79352e-007	-4.0678e-007	2.0683e-007	1.19761e-007	-3.56225e-007	-2.42693e-007	1.27734e-006	1.04066e-007	-3.90576e-008	5.44258e-007
4.27074e-007	-3.33099e-007	2.72048e-007	-3.63891e-008	1.44429e-007	3.96749e-007	6.21498e-008	-1.57322e-007	-3.64426e-007	-9.30337e-008	9.90055e-008	-8.36522e-008	-2.18807e-007	-1.14726e-007
-5.29434e-008	4.58156e-007	-1.56993e-007	2.32279e-007	1.46269e-007	4.93544e-008	-6.40133e-007	-1.118e-006	5.16768e-007	3.08156e-007	-1.92619e-007	3.46894e-007	4.00408e-007	-2.97593e-007
3.38209e-007	-1.35636e-007	6.39599e-008	-3.43361e-007	-6.13656e-008	5.97289e-007	1.80134e-007	1.21886e-007	-3.54126e-008	-3.26188e-007	-7.17958e-008	-2.42778e-007	-8.17083e-008	-3.23321e-009
2.21194e-007	-6.43048e-007	3.68566e-007	-2.55561e-007	-1.08418e-007	5.54732e-008	8.51736e-007	8.5458e-007	-6.92933e-007	-3.80738e-007	3.66566e-007	-4.26089e-007	-4.95096e-007	2.83767e-007
-1.89911e-007	-1.45562e-007	-8.28364e-008	-3.62147e-007	-2.95547e-007	-2.40386e-007	4.2224e-007	6.15543e-007	1.47287e-007	-4.17442e-007	1.90935e-007	-3.67557e-007	1.66688e-007	5.58697e-007
2.52235e-007	-1.26699e-007	-1.29462e-008	-2.64263e-007	1.54186e-007	7.3334e-007	9.45979e-008	5.80325e-008	-5.17256e-008	-3.02125e-007	-1.24691e-007	-2.50089e-007	-1.0742e-007	-5.24335e-008
1.08386e-007	-6.09077e-007	3.45654e-007	-2.78366e-007	-1.64701e-007	-4.44106e-008	7.07772e-007	6.91033e-007	-6.56975e-007	-4.07164e-007	7.69178e-007	-5.47147e-007	-6.85529e-007	7.71348e-007
3.66201e-007	1.09922e-007	3.07835e-007	3.43382e-007	3.71563e-007	3.79573e-007	-8.09184e-009	-1.21486e-006	-2.60653e-007	2.82316e-007	1.33207e-007	1.69968e-007	-2.9534e-007	-6.85022e-007
-1.07188e-007	3.54852e-007	-1.92542e-007	3.25048e-007	2.38631e-007	6.68332e-008	-5.63236e-007	-5.46643e-007	1.85981e-007	3.12616e-007	-1.47612e-007	2.16991e-007	8.48746e-008	-2.28607e-007
6.93834e-008	-5.61781e-008	1.77799e-007	-2.16765e-007	-3.97546e-007	-2.60996e-007	1.73908e-007	1.28446e-007	6.89514e-009	-5.13562e-008	1.69156e-007	5.33451e-008	7.10439e-008	1.32865e-007
2.70577e-007	-3.88532e-007	4.19602e-007	-5.01191e-007	-4.39276e-007	-1.16631e-007	6.05971e-007	3.9468e-007	-1.89808e-007	-3.73164e-007	3.01248e-007	-1.69144e-007	-4.98264e-008	2.35495e-007
4.10149e-007	-4.7587e-007	4.3588e-007	-3.50842e-007	-1.77588e-007	1.3655e-007	6.23939e-007	3.11902e-007	-3.51269e-007	-3.72799e-007	2.16009e-007	-2.76806e-007	-2.2224e-007	9.2986e-008
6.02936e-007	-4.20138e-007	3.62505e-007	-1.18459e-008	2.65707e-007	5.49095e-007	2.6694e-007	-1.03154e-007	-4.75968e-007	-1.98545e-007	2.86112e-008	-2.68468e-007	-3.87268e-007	-2.10406e-007
7.25355e-008	-9.28185e-008	1.28366e-007	2.14654e-008	1.07465e-008	2.68139e-008	2.27452e-008	-1.61301e-007	-2.14274e-007	5.06543e-008	1.46184e-007	7.91573e-008	-6.52693e-008	-2.50061e-008
-3.16186e-007	1.58633e-007	2.03603e-008	-2.21646e-007	-5.70503e-007	-7.0185e-007	2.05156e-007	3.00367e-007	2.58282e-007	1.81951e-008	1.68492e-007	1.45769e-007	2.58071e-007	2.7686e-007
-1.20976e-007	-3.37498e-009	2.56949e-007	-6.31672e-007	-8.76013e-007	-7.0258e-007	5.60325e-007	5.44275e-007	2.32957e-007	-2.74997e-007	3.13352e-007	1.30463e-008	2.64928e-007	4.2378e-007
5.56595e-007	-4.62339e-007	5.17985e-007	-3.58085e-007	-1.94552e-007	2.13768e-007	4.31576e-007	1.12495e-007	-3.62982e-007	-3.27785e-007	2.50554e-007	-2.01426e-007	-2.09846e-007	3.404e-008
-2.55836e-007	7.72963e-008	-2.17423e-007	-2.87723e-007	-2.62826e-007	-2.48887e-007	3.28396e-007	5.10193e-007	3.089e-007	-2.78764e-007	-7.14568e-008	-1.86997e-007	2.37028e-007	3.48099e-007
5.834e-007	-4.53523e-007	3.98075e-007	-1.95429e-007	6.75926e-008	4.35927e-007	3.6917e-007	5.04403e-008	-4.07103e-007	-2.95994e-007	1.00704e-007	-2.70696e-007	-3.01064e-007	-8.15003e-008
2.34628e-007	1.60459e-007	1.56714e-007	3.38711e-007	3.26494e-007	2.88697e-007	-2.82405e-007	-9.57686e-007	-2.1e-007	3.11804e-007	4.59286e-008	2.24456e-007	-1.7037e-007	-4.6743e-007
1.86753e-007	-6.39123e-007	3.97374e-007	-3.40593e-007	-2.05737e-007	-2.38074e-008	8.62382e-007	7.31819e-007	-5.83817e-007	-4.15891e-007	4.33568e-007	-3.75511e-007	-3.55779e-007	3.28361e-007
-3.68386e-007	6.14928e-008	9.98563e-008	-6.26124e-007	-7.95942e-007	-7.21008e-007	5.26796e-007	5.99551e-007	3.26665e-007	-2.91448e-007	3.06454e-007	3.12019e-008	3.517e-007	4.99192e-007
4.11265e-008	-6.25193e-007	2.15316e-007	-3.0818e-007	-2.0271e-007	-8.97413e-008	6.75923e-007	1.13182e-006	-6.66568e-007	-4.16425e-007	4.28314e-007	-4.96789e-007	-5.68283e-007	8.81389e-007
4.30012e-007	-6.03089e-007	5.06007e-007	-1.47477e-007	3.38599e-008	2.44408e-007	7.03202e-007	2.63858e-007	-6.8842e-007	-2.8039e-007	3.20311e-007	-3.13712e-007	-4.70134e-007	1.56308e-009
2.25137e-007	-4.23361e-007	3.16188e-007	-4.09378e-007	-3.02462e-007	-3.69638e-008	6.21271e-007	4.7409e-007	-2.34974e-007	-3.594e-007	2.20359e-007	-2.14256e-007	-9.70047e-008	2.20754e-007
1.37664e-007	-1.56969e-007	1.54463e-007	-1.11269e-012	2.73472e-008	8.19477e-008	7.03049e-008	-8.65074e-008	-2.26442e-007	-5.01855e-010	1.14235e-007	1.27403e-008	-9.9256e-008	-2.90254e-008
2.82604e-007	-2.71958e-007	2.99746e-007	-2.27814e-007	-1.98372e-007	5.44485e-008	2.09705e-007	4.75702e-008	-2.15394e-007	-1.36265e-007	2.00817e-007	-2.97007e-008	-7.34988e-008	5.81122e-008
-1.50947e-008	-4.05888e-007	2.7319e-007	-2.68473e-007	-2.44231e-007	-1.68044e-007	3.09487e-007	1.9448e-007	-3.95518e-007	-2.38726e-007	8.58112e-007	-1.36548e-007	-2.22351e-007	4.59605e-007
3.95852e-007	-3.20553e-007	3.9342e-007	3.86627e-008	1.27548e-007	2.66027e-007	7.07191e-008	-2.86052e-007	-4.48271e-007	-7.62363e-009	2.10141e-007	-1.98679e-008	-2.62951e-007	-1.5705e-007
3.64131e-007	-3.69233e-007	3.34063e-007	5.21501e-008	1.74098e-007	2.94513e-007	3.00886e-007	-8.15415e-008	-5.92206e-007	-5.02158e-008	1.7687e-007	-1.08031e-007	-3.65828e-007	-1.29656e-007
3.93314e-008	-6.04123e-007	2.34601e-007	-2.86317e-007	-1.85785e-007	-8.54841e-008	5.55012e-007	7.49796e-007	-6.30679e-007	-4.13349e-007	6.23081e-007	-5.91037e-007	-7.50431e-007	1.34538e-006
-1.90619e-007	1.98681e-007	-3.49387e-007	-4.54747e-008	-4.85385e-008	-9.1151e-008	-4.7534e-008	2.45107e-007	3.6945e-007	-6.81976e-008	-4.75105e-007	-6.77053e-008	3.41623e-007	2.28851e-007
-1.98794e-008	-2.37323e-008	1.37311e-007	-5.46937e-007	-5.50481e-007	-3.12906e-007	4.88383e-007	4.91437e-007	2.06713e-007	-3.56602e-007	1.39314e-007	-1.3426e-007	1.69302e-007	3.12339e-007
4.00608e-007	-6.0224e-007	4.95779e-007	-1.17317e-007	3.83719e-008	2.25232e-007	5.94416e-007	1.8814e-007	-7.19856e-007	-2.24834e-007	3.69185e-007	-2.37548e-007	-4.37714e-007	2.77775e-008
4.10763e-007	1.99404e-007	3.28741e-007	4.22379e-007	4.43211e-007	4.39864e-007	1.25525e-008	-1.03482e-006	-2.32179e-007	3.61383e-007	1.05493e-007	2.25802e-007	-3.98877e-007	-1.28372e-006
-5.14514e-007	2.686e-007	-4.92603e-007	-2.95299e-007	-3.81488e-007	-4.50971e-007	3.32036e-008	4.41592e-007	5.31567e-007	-1.42297e-007	-1.47707e-007	1.01346e-007	5.55301e-007	4.9327e-007
7.87479e-007	-4.42197e-007	2.98831e-007	-2.54222e-007	6.97577e-008	1.2585e-006	-4.78218e-008	-2.47035e-007	-4.25269e-007	-2.66852e-007	1.96911e-008	-2.15401e-007	-3.17845e-007	-2.17612e-007
1.4427e-007	-2.24107e-007	2.7363e-007	-2.5738e-007	-2.90034e-007	-1.29052e-007	2.88398e-007	1.46158e-007	-1.48595e-007	-1.376e-007	2.28466e-007	-1.18654e-008	-1.39531e-008	1.31665e-007
2.37138e-007	-2.45338e-007	4.05612e-007	-6.14346e-007	-6.70516e-007	-2.70532e-007	5.28402e-007	3.9394e-007	-2.59279e-008	-3.4643e-007	3.21168e-007	-7.9798e-008	7.64696e-008	2.90159e-007
2.98467e-007	-4.81913e-007	4.44821e-007	-2.98736e-007	-7.34319e-008	1.22761e-007	6.40502e-007	4.53383e-007	-2.75818e-007	-5.35588e-007	3.63689e-007	-6.05554e-007	-2.80589e-007	2.28004e-007
-3.5042e-007	1.9379e-007	-8.06117e-008	-1.85351e-007	-4.44489e-007	-5.45508e-007	7.86778e-008	2.40219e-007	2.92202e-007	3.23802e-008	1.03643e-007	1.50988e-007	2.70072e-007	2.44407e-007
4.88238e-007	-5.11566e-007	4.43036e-007	-2.18668e-007	-2.08259e-008	2.86737e-007	4.35211e-007	1.00397e-007	-4.70186e-007	-2.6784e-007	2.18365e-007	-2.04538e-007	-2.75571e-007	-2.78902e-009
5.75266e-007	-2.39459e-007	2.5702e-007	-6.29892e-007	-3.50488e-007	7.64281e-007	2.73907e-007	1.59497e-007	-8.67708e-008	-4.57045e-007	4.65225e-008	-2.65416e-007	-8.98453e-008	4.24229e-008
-3.91399e-007	3.75152e-008	1.1542e-007	-6.5224e-007	-8.02058e-007	-7.2494e-007	5.19158e-007	5.91173e-007	3.10894e-007	-3.10538e-007	3.64822e-007	4.73357e-008	3.66644e-007	5.28214e-007
7.53095e-008	-4.2487e-007	2.52765e-007	-4.56143e-007	-3.57883e-007	-1.5917e-007	7.6247e-007	7.07748e-007	-1.80126e-007	-4.35594e-007	2.40222e-007	-2.92572e-007	-7.20264e-008	3.3987e-007
3.89871e-007	-4.99625e-007	5.38452e-007	1.09948e-008	1.47812e-007	2.66029e-007	6.41938e-007	2.49919e-007	-7.5946e-007	-1.84561e-007	6.77545e-007	-4.74646e-007	-9.62583e-007	-4.16851e-008
6.12916e-008	-9.25603e-008	1.4612e-007	-4.74312e-007	-3.91297e-007	-1.58918e-007	4.87988e-007	4.53889e-007	1.27055e-007	-3.83337e-007	9.44743e-008	-2.07387e-007	8.67462e-008	2.50247e-007
5.17943e-007	-4.49007e-007	3.65034e-007	-1.24769e-007	1.03511e-007	4.1849e-007	2.5323e-007	-4.41426e-008	-4.46995e-007	-1.97417e-007	1.35605e-007	-1.69252e-007	-2.76598e-007	-8.56342e-008
5.25404e-007	-4.8916e-007	4.40452e-007	-1.77647e-008	1.81208e-007	4.09122e-007	2.24981e-007	-1.47807e-007	-5.59779e-007	-1.3215e-007	1.98316e-007	-1.46518e-007	-3.48325e-007	-1.3798e-007
9.31074e-008	-6.45699e-007	2.6859e-007	-3.28043e-007	-2.08758e-007	-6.61079e-008	7.70388e-007	1.05405e-006	-6.22407e-007	-4.17839e-007	3.78568e-007	-4.18789e-007	-3.81137e-007	5.24077e-007
1.61689e-007	-5.04528e-007	3.92785e-007	-2.06547e-007	-9.71747e-008	1.4618e-008	5.19729e-007	3.67704e-007	-4.91347e-007	-3.41658e-007	8.00057e-007	-5.15837e-007	-5.11637e-007	4.12147e-007
3.29553e-007	3.88438e-008	2.93185e-007	-5.85098e-007	-1.22659e-006	-2.49903e-007	4.0278e-007	3.57255e-007	1.82408e-007	-2.08994e-007	2.16895e-007	1.46481e-009	1.78122e-007	2.70081e-007
4.75876e-007	-5.05922e-007	5.32979e-007	-3.18097e-007	-1.54927e-007	1.70768e-007	4.48071e-007	1.16791e-007	-4.14809e-007	-3.11821e-007	3.13735e-007	-1.86764e-007	-2.22632e-007	5.67524e-008
3.40966e-007	-3.53893e-007	4.96701e-007	-5.82185e-007	-5.32218e-007	-1.30887e-007	5.28811e-007	3.2512e-007	-1.47745e-007	-3.89992e-007	3.53127e-007	-1.33095e-007	-1.26866e-008	2.37979e-007
2.7889e-007	-5.49033e-007	3.43633e-007	-2.5082e-007	-8.29493e-008	1.1382e-007	7.51887e-007	5.9835e-007	-4.97303e-007	-3.6252e-007	2.13394e-007	-3.65606e-007	-3.44956e-007	1.53213e-007
4.11256e-007	-5.78541e-008	3.93827e-007	2.84975e-007	3.55769e-007	3.95373e-007	3.63282e-007	-9.23523e-008	-4.92892e-007	1.52876e-007	2.72365e-007	-9.69309e-008	-9.75272e-007	-9.14422e-007
2.98197e-007	-5.18835e-007	3.96867e-007	-1.4579e-007	-3.11695e-008	1.32232e-007	5.6579e-007	2.58368e-007	-6.36523e-007	-1.98199e-007	3.1798e-007	-1.73104e-007	-3.42749e-007	7.69356e-008
3.39927e-007	-5.33703e-007	5.16167e-007	-1.596e-007	2.91137e-008	1.853e-007	6.55139e-007	3.77162e-007	-4.94976e-007	-4.13718e-007	6.04765e-007	-6.88177e-007	-5.79475e-007	1.62075e-007
6.27358e-007	-4.5978e-007	4.19314e-007	-2.68921e-007	3.79364e-009	4.54555e-007	3.48669e-007	5.35866e-008	-3.81766e-007	-3.28493e-007	1.22268e-007	-2.62424e-007	-2.71331e-007	-5.68299e-008
3.60244e-007	-4.66599e-007	4.05293e-007	-4.32189e-007	-2.26114e-007	1.02112e-007	6.07173e-007	3.96934e-007	-2.51608e-007	-4.51403e-007	2.31417e-007	-3.0257e-007	-1.48104e-007	1.75415e-007
3.31624e-007	-3.88265e-007	3.51202e-007	-4.26899e-007	-3.05014e-007	4.58783e-008	5.35324e-007	3.4815e-007	-2.0939e-007	-3.54195e-007	2.03741e-007	-1.99267e-007	-9.56959e-008	1.62806e-007
4.26056e-007	-4.56255e-007	4.58046e-007	1.16366e-007	2.36481e-007	3.43269e-007	5.8241e-007	1.71632e-007	-1.08116e-006	-2.67583e-008	3.43468e-007	-1.72945e-007	-7.76022e-007	-1.64587e-007
3.28473e-007	-3.6972e-007	4.09421e-007	6.88968e-008	1.77319e-007	2.56851e-007	5.44124e-007	3.50476e-007	-7.07369e-007	-1.11666e-007	5.18544e-007	-4.47697e-007	-1.28531e-006	2.67654e-007
4.08996e-007	-1.61866e-007	3.05882e-007	-4.04253e-007	-6.43554e-007	1.10917e-007	2.31452e-007	1.22671e-007	-6.89252e-008	-1.70909e-007	1.8548e-007	-2.40325e-008	4.42739e-009	1.03714e-007
2.58883e-007	-6.36888e-007	3.61897e-007	-2.11596e-007	-6.06245e-008	1.06043e-007	7.83824e-007	7.77735e-007	-7.37229e-007	-3.34185e-007	3.08548e-007	-3.71909e-007	-4.7627e-007	2.31772e-007
2.34347e-007	-2.75454e-007	3.17367e-007	-5.21403e-007	-3.40726e-007	-3.18867e-008	5.71211e-007	4.49327e-007	-2.42105e-008	-4.93637e-007	1.84666e-007	-2.96814e-007	-1.20301e-008	2.39243e-007
6.24219e-007	-3.80446e-007	1.86848e-007	2.45452e-007	6.45642e-007	9.07714e-007	-2.4395e-007	-4.35607e-007	-4.87334e-007	-4.11318e-008	-8.35208e-008	-1.72225e-007	-4.00134e-007	-3.65525e-007
4.72368e-007	-3.28814e-007	4.82521e-007	2.34673e-007	3.36084e-007	4.15952e-007	4.60549e-007	-1.70225e-007	-1.0306e-006	9.21094e-008	3.48254e-007	-9.3123e-008	-8.49157e-007	-3.70587e-007
3.63168e-007	-1.33275e-007	8.91368e-008	-5.49571e-007	-4.25325e-007	1.01433e-006	1.96058e-007	1.43665e-007	-1.35225e-008	-3.85105e-007	-3.95619e-008	-2.38716e-007	-5.1816e-008	3.05364e-008
5.65018e-007	-4.33408e-007	3.65476e-007	-2.56932e-007	-1.17706e-008	4.649e-007	2.35042e-007	-7.16702e-009	-3.66955e-007	-2.56054e-007	1.39248e-007	-1.70232e-007	-2.2131e-007	-4.58543e-008
2.57275e-007	-5.30305e-007	3.2151e-007	-3.21934e-007	-1.48318e-007	7.54819e-008	6.6747e-007	5.53923e-007	-3.64111e-007	-3.95934e-007	2.1378e-007	-3.26486e-007	-2.14207e-007	2.11854e-007
2.06694e-007	-3.10565e-007	3.43701e-007	-5.00271e-008	-2.74728e-008	6.18096e-008	1.78255e-007	-1.48924e-007	-4.28104e-007	-1.77159e-008	3.28851e-007	4.38435e-008	-1.76102e-007	-4.24255e-009
5.91421e-008	-5.15683e-007	3.18843e-007	-2.5317e-007	-1.8482e-007	-9.02514e-008	4.49968e-007	3.86469e-007	-5.29061e-007	-3.11918e-007	8.49829e-007	-3.75421e-007	-4.82089e-007	6.78161e-007
3.09607e-007	-4.50979e-007	4.53133e-007	-4.90423e-007	-3.7651e-007	-3.96435e-008	5.47238e-007	3.37563e-007	-2.46242e-007	-3.8364e-007	3.43384e-007	-1.62247e-007	-6.89093e-008	2.27667e-007
3.24882e-007	-3.71366e-007	4.12229e-007	-3.79537e-007	-1.11971e-007	1.31825e-007	5.41194e-007	3.82482e-007	-1.32573e-007	-5.78969e-007	2.31138e-007	-4.98443e-007	-1.39481e-007	1.8859e-007
3.64032e-007	-3.04757e-007	4.85761e-007	-6.20331e-007	-6.12354e-007	-1.46143e-007	4.90297e-007	3.13007e-007	-1.0138e-007	-3.72189e-007	3.44279e-007	-1.0111e-007	2.00976e-008	2.40791e-007
2.59387e-007	-3.91646e-007	5.20493e-007	-6.64556e-007	-4.47669e-007	-1.08498e-007	5.80839e-007	4.26484e-007	-9.20797e-008	-6.17057e-007	4.50755e-007	-2.75505e-007	1.95874e-008	3.39467e-007
3.75484e-007	-4.62351e-007	5.01114e-007	-5.29829e-007	-3.32788e-007	3.06101e-008	6.10126e-007	3.77858e-007	-2.25071e-007	-4.99466e-007	3.26063e-007	-2.82804e-007	-1.06784e-007	2.17839e-007
1.57515e-007	-2.66979e-008	3.00367e-008	9.7874e-008	1.85244e-007	2.0371e-007	1.63314e-007	1.68578e-007	-9.39334e-009	-9.31517e-008	-2.27701e-007	-4.19895e-007	-2.03852e-007	-2.55817e-008
1.78919e-007	-5.25068e-007	3.49019e-007	-2.08691e-007	-6.37721e-008	5.6184e-008	6.94631e-007	6.18174e-007	-5.05909e-007	-4.11903e-007	6.51572e-007	-6.81469e-007	-6.52124e-007	5.00435e-007
5.9629e-007	-4.96224e-007	3.91955e-007	-1.46915e-007	1.46822e-007	5.15923e-007	2.73334e-007	-3.46701e-008	-4.70017e-007	-2.53154e-007	1.20409e-007	-2.26165e-007	-3.13556e-007	-1.04033e-007
3.92019e-007	-5.94226e-007	5.39724e-007	-4.65314e-008	9.46301e-008	2.39543e-007	6.83439e-007	2.48281e-007	-8.60836e-007	-1.99445e-007	5.30333e-007	-3.30843e-007	-7.04112e-007	8.02364e-009
6.4848e-007	-5.08496e-007	4.77707e-007	-2.59481e-007	1.56394e-008	4.59285e-007	3.02935e-007	-4.72809e-009	-4.36872e-007	-3.10349e-007	1.85108e-007	-2.27276e-007	-2.81953e-007	-6.00001e-008
9.16132e-008	-6.12989e-007	2.80502e-007	-3.99531e-007	-2.81645e-007	-1.07104e-007	7.76683e-007	8.92154e-007	-4.51282e-007	-4.36997e-007	3.43148e-007	-3.4115e-007	-1.99987e-007	4.46584e-007
4.66327e-007	-3.8403e-007	4.01788e-007	-4.87698e-007	-2.60344e-007	1.95158e-007	4.93622e-007	2.9353e-007	-1.84689e-007	-4.4842e-007	1.82156e-007	-2.73071e-007	-1.1865e-007	1.24321e-007
2.92651e-008	-3.90059e-008	2.14592e-007	-5.86195e-007	-7.91041e-007	-4.51555e-007	4.83783e-007	4.81012e-007	1.87419e-007	-2.65328e-007	2.24443e-007	-2.38174e-008	1.98667e-007	3.37761e-007
4.70616e-007	-3.96798e-007	5.44131e-007	1.41688e-007	2.81338e-007	3.83108e-007	5.15002e-007	7.54134e-008	-6.77557e-007	-8.83775e-008	5.10917e-007	-4.81194e-007	-9.82618e-007	-2.95668e-007
5.10924e-007	-8.05269e-008	4.90623e-007	3.66141e-007	4.44799e-007	4.90787e-007	4.04912e-007	-2.80642e-007	-7.32557e-007	2.22509e-007	3.41218e-007	-3.97856e-008	-1.15609e-006	-9.82309e-007
4.60155e-007	-2.85871e-007	4.91221e-007	2.45587e-007	3.35558e-007	4.05089e-007	4.90528e-007	-6.98431e-008	-1.04583e-006	1.0885e-007	4.21491e-007	-9.74658e-008	-1.07909e-006	-3.80376e-007
2.91627e-007	-5.09602e-007	4.96055e-007	-2.54212e-007	-5.77464e-008	1.12267e-007	5.48654e-007	3.50576e-007	-3.54216e-007	-4.93741e-007	5.87889e-007	-6.43097e-007	-3.34524e-007	2.60071e-007
2.0518e-007	-5.14905e-007	4.95004e-007	-2.51455e-007	-1.39326e-007	2.8368e-009	4.48866e-007	2.07419e-007	-4.55839e-007	-3.41149e-007	7.70933e-007	-3.44063e-007	-3.32744e-007	2.49243e-007
3.03645e-007	-4.06172e-007	3.17336e-007	-2.31329e-007	-1.09584e-007	1.22352e-007	4.0847e-007	1.96757e-007	-3.40725e-007	-2.25735e-007	1.93673e-007	-1.42084e-007	-1.64629e-007	7.80241e-008
3.80149e-007	-6.18477e-007	5.3156e-007	-1.69046e-007	-1.74031e-008	1.75813e-007	6.13662e-007	2.02797e-007	-6.77507e-007	-2.66125e-007	4.38952e-007	-2.55105e-007	-4.1327e-007	7.40027e-008
3.16616e-007	-1.6517e-007	2.58928e-007	1.48795e-007	2.65185e-007	3.16107e-007	3.63647e-007	2.16668e-007	-2.95974e-007	-8.4796e-008	7.986e-008	-5.3594e-007	-7.37524e-007	-1.46402e-007
1.43624e-007	-5.76839e-007	2.9243e-007	-2.67886e-007	-1.74083e-007	-2.57713e-008	6.3474e-007	6.99821e-007	-6.16214e-007	-2.90613e-007	3.27688e-007	-2.18211e-007	-2.6079e-007	3.32105e-007
2.40285e-007	-5.02335e-007	3.30701e-007	-3.55288e-007	-2.28357e-007	1.50649e-008	5.90948e-007	4.55227e-007	-3.46506e-007	-3.3467e-007	2.53675e-007	-2.01822e-007	-1.37523e-007	2.206e-007
3.51865e-007	-6.22841e-007	4.03077e-007	-1.78808e-007	-7.85389e-010	1.96744e-007	6.82658e-007	4.75126e-007	-6.71405e-007	-3.04073e-007	2.72216e-007	-3.17476e-007	-4.08006e-007	1.21708e-007
1.81159e-007	-1.71284e-007	2.02658e-008	3.86083e-007	5.45952e-007	4.34272e-007	-3.26462e-007	-4.07568e-007	-3.18516e-007	1.77317e-007	-5.2567e-008	2.94992e-008	-2.28829e-007	-2.69323e-007
3.43276e-007	-5.71257e-007	3.96916e-007	-2.81978e-007	-1.07923e-007	1.40429e-007	6.29083e-007	3.95041e-007	-4.85568e-007	-3.36343e-007	2.58555e-007	-2.61244e-007	-2.61283e-007	1.42297e-007
1.24202e-007	-3.58624e-007	3.4387e-007	-5.39113e-007	-5.10544e-007	-2.35491e-007	5.8615e-007	4.77877e-007	-1.1088e-007	-3.66414e-007	3.31035e-007	-1.16754e-007	4.44919e-008	3.30193e-007
5.20997e-007	-4.35681e-007	3.4937e-007	-2.71112e-007	1.23233e-008	4.05221e-007	3.68688e-007	1.31493e-007	-3.25461e-007	-3.40957e-007	1.0312e-007	-2.69636e-007	-2.34204e-007	-1.41602e-008
6.58654e-007	-3.81626e-007	3.26037e-007	-4.06082e-007	-6.00329e-008	6.77215e-007	2.5011e-007	5.47475e-008	-2.63981e-007	-3.8947e-007	5.98991e-008	-2.72012e-007	-2.08189e-007	-4.52691e-008
3.86864e-007	-6.2181e-007	5.00415e-007	-6.00575e-008	9.93933e-008	2.48473e-007	7.4968e-007	4.60205e-007	-8.78692e-007	-2.4465e-007	4.54607e-007	-4.11931e-007	-7.48866e-007	6.63685e-008
5.41694e-007	-9.42371e-007	-3.90426e-007	1.72262e-007	3.18122e-006	4.35233e-006	-8.24565e-007	-1.00812e-006	-1.05588e-006	-5.61688e-007	-7.1405e-007	-7.77817e-007	-1.00055e-006	-9.72036e-007
3.16602e-007	-1.61647e-007	3.17834e-007	-4.78848e-007	-6.52352e-007	-7.67255e-008	3.18293e-007	2.17727e-007	-2.75762e-008	-2.0608e-007	2.26016e-007	-1.81877e-008	5.0719e-008	1.74228e-007
2.99629e-007	-6.52863e-007	4.26842e-007	-2.87868e-007	-1.05233e-007	1.05019e-007	7.57893e-007	5.75002e-007	-5.57175e-007	-4.11961e-007	3.50995e-007	-3.90464e-007	-3.46906e-007	2.37091e-007
3.3807e-007	-4.00391e-007	3.28288e-007	-3.84742e-007	-2.15424e-007	1.11974e-007	5.26127e-007	3.4716e-007	-2.22294e-007	-3.68574e-007	1.68808e-007	-2.40208e-007	-1.2688e-007	1.38085e-007
2.31193e-007	-3.93349e-007	3.24873e-007	-3.59652e-007	-2.84593e-007	-2.58452e-008	4.48495e-007	2.96987e-007	-2.44292e-007	-2.67248e-007	2.56124e-007	-1.06168e-007	-6.31076e-008	1.86585e-007
6.83918e-007	-4.42982e-007	2.60608e-007	-8.35696e-008	3.69744e-007	9.57755e-007	-1.29259e-008	-2.43189e-007	-4.5316e-007	-2.20076e-007	-1.23513e-008	-2.25998e-007	-3.42837e-007	-2.34934e-007
9.91082e-008	-3.80635e-007	2.52554e-007	-4.86107e-007	-4.03842e-007	-1.64949e-007	6.31259e-007	5.99312e-007	-1.07706e-007	-4.01425e-007	2.34969e-007	-2.07681e-007	6.01452e-009	3.29128e-007
4.68951e-007	-4.00337e-007	3.74137e-007	-4.42771e-007	-2.51394e-007	2.39486e-007	4.22299e-007	2.2561e-007	-2.32977e-007	-3.6198e-007	1.83341e-007	-1.99591e-007	-1.22762e-007	9.79883e-008
-2.02477e-007	1.70804e-007	-7.40409e-008	-1.78476e-007	-3.05243e-007	-4.29358e-007	2.2734e-007	2.97248e-007	2.56598e-007	-8.2981e-008	-6.77562e-009	-1.98711e-008	1.67215e-007	1.80019e-007
3.41256e-007	-5.01924e-007	5.50667e-007	-5.44548e-007	-3.38123e-007	-5.55625e-009	5.86773e-007	3.62805e-007	-2.45192e-007	-5.33095e-007	4.3242e-007	-2.75383e-007	-9.19744e-008	2.61874e-007
3.50238e-007	-6.16851e-007	5.00261e-007	-1.573e-007	-2.23897e-008	1.56783e-007	5.01289e-007	1.55402e-007	-6.56065e-007	-2.31065e-007	4.4874e-007	-1.88242e-007	-3.47496e-007	1.06697e-007
2.75136e-007	-2.23077e-007	3.45624e-007	-6.38067e-007	-6.48056e-007	-1.4811e-007	5.1489e-007	4.11881e-007	1.14336e-008	-3.76395e-007	2.5026e-007	-1.19001e-007	7.27332e-008	2.70748e-007
7.14112e-007	-4.68835e-007	3.8673e-007	-3.11945e-007	4.76917e-008	7.30886e-007	1.76627e-007	-6.6287e-008	-3.92206e-007	-3.226e-007	1.04654e-007	-2.28118e-007	-2.69239e-007	-1.0147e-007
3.82043e-007	-5.44875e-007	5.21244e-007	-2.91138e-008	1.27226e-007	2.55855e-007	6.43726e-007	3.41839e-007	-7.06859e-007	-2.56707e-007	6.18218e-007	-5.82956e-007	-8.79429e-007	1.09789e-007
3.35462e-007	-5.91759e-007	5.43196e-007	-3.80364e-007	-1.47981e-007	9.3108e-008	6.58294e-007	4.22993e-007	-3.6103e-007	-5.63363e-007	4.82622e-007	-5.0213e-007	-2.53656e-007	2.64608e-007
3.45131e-007	-6.89022e-007	5.13675e-007	-1.57441e-007	1.59334e-008	1.7923e-007	6.64561e-007	4.36555e-007	-7.05493e-007	-3.60066e-007	5.73287e-007	-5.16455e-007	-5.81287e-007	2.81392e-007
2.58243e-007	-3.25347e-007	4.01435e-007	-6.62934e-007	-5.02135e-007	-1.04001e-007	5.80155e-007	4.59888e-007	-3.4685e-008	-5.16466e-007	3.07083e-007	-2.14235e-007	4.40349e-008	3.08964e-007
-2.95147e-007	6.9385e-007	-4.71838e-007	2.56562e-007	7.91424e-008	-1.06674e-007	-7.3791e-007	-5.52448e-007	6.26522e-007	4.18767e-007	-4.9286e-007	4.59989e-007	4.31397e-007	-3.09353e-007
7.28948e-007	-2.95346e-007	3.55909e-007	-6.73764e-007	-7.34193e-007	9.32194e-007	2.83376e-007	1.26161e-007	-1.49909e-007	-4.13753e-007	1.15844e-007	-2.12491e-007	-1.04151e-007	4.11745e-008
4.9289e-007	-3.77512e-007	9.65786e-008	2.63246e-007	8.03432e-007	9.93594e-007	-2.56165e-007	-4.38537e-007	-4.90806e-007	-4.46422e-008	-1.15953e-007	-1.74328e-007	-3.91084e-007	-3.60714e-007
6.56636e-007	-3.38071e-007	4.54873e-007	-6.40348e-007	-4.77394e-007	3.44304e-007	4.00166e-007	2.09026e-007	-1.57195e-007	-4.49033e-007	2.01104e-007	-2.20489e-007	-8.91496e-008	1.0557e-007
3.19416e-007	-6.01547e-007	5.02966e-007	-4.11858e-007	-2.02888e-007	5.89715e-008	6.86662e-007	4.49466e-007	-3.74289e-007	-5.09464e-007	4.14805e-007	-3.80829e-007	-2.11783e-007	2.60371e-007
6.77926e-007	-3.2163e-007	3.7897e-007	-5.88191e-007	-5.86014e-007	6.7693e-007	2.7187e-007	1.00436e-007	-1.88261e-007	-3.49789e-007	1.5499e-007	-1.62759e-007	-1.06797e-007	4.23192e-008
-4.09303e-007	4.89215e-007	-3.90689e-007	3.67605e-007	9.58529e-008	-2.21131e-007	-5.48799e-007	-3.51269e-007	2.71275e-007	4.7019e-007	-1.89454e-007	3.54355e-007	1.90709e-007	-1.28559e-007
3.74988e-007	-7.00055e-007	5.29452e-007	-1.54426e-007	1.4355e-008	1.9375e-007	6.23625e-007	3.15633e-007	-7.3606e-007	-3.08808e-007	5.05168e-007	-3.53364e-007	-4.77151e-007	1.72891e-007
2.93693e-007	-5.44466e-007	3.94589e-007	-1.76418e-007	2.12636e-008	1.71621e-007	6.4633e-007	5.46917e-007	-4.09053e-007	-4.48667e-007	3.86364e-007	-7.15473e-007	-4.7097e-007	3.0427e-007
-1.322e-007	6.78618e-007	-3.60613e-007	3.61345e-007	2.15115e-007	5.35674e-008	-6.91543e-007	-7.08305e-007	4.96438e-007	4.89197e-007	-5.69209e-007	4.92192e-007	2.82678e-007	-6.07281e-007
6.02068e-007	-3.00389e-007	3.32623e-007	-5.80114e-007	-3.39387e-007	5.44815e-007	3.28237e-007	1.74454e-007	-1.37662e-007	-4.33784e-007	1.03817e-007	-2.45802e-007	-1.05707e-007	5.68323e-008
2.71014e-007	-4.19536e-007	4.1656e-007	-3.0888e-007	-2.37677e-007	-8.30254e-010	3.30387e-007	1.18808e-007	-3.16659e-007	-2.15131e-007	3.51584e-007	-4.04742e-008	-8.92009e-008	1.40035e-007
7.92704e-007	-3.0517e-007	4.61296e-007	-7.03858e-007	-9.82009e-007	8.31317e-007	2.73196e-007	9.96037e-008	-1.69864e-007	-3.60964e-007	2.14068e-007	-1.34329e-007	-8.18322e-008	6.58412e-008
3.94377e-007	-5.46831e-007	4.26584e-007	-3.71679e-007	-1.09368e-007	1.8843e-007	5.98108e-007	3.92911e-007	-3.14387e-007	-4.90233e-007	2.46304e-007	-3.74218e-007	-2.0559e-007	1.65592e-007
-6.53118e-008	6.06297e-007	-3.70217e-007	4.40478e-007	3.16459e-007	1.5339e-007	-5.71616e-007	-5.29147e-007	3.4968e-007	5.0931e-007	-7.01866e-007	3.79882e-007	9.01651e-008	-6.07503e-007
-6.03749e-007	6.05926e-007	-5.76491e-007	2.63806e-007	-7.90505e-008	-4.02053e-007	-4.582e-007	-1.51894e-007	4.39701e-007	4.96812e-007	-2.75987e-007	4.24048e-007	3.3195e-007	-1.48193e-008
-4.09157e-007	6.64996e-007	-5.61525e-007	3.01004e-007	7.48511e-008	-1.74504e-007	-6.15071e-007	-3.21718e-007	5.00094e-007	4.57554e-007	-4.43785e-007	3.91861e-007	3.1312e-007	-1.7772e-007
-1.55177e-007	5.77975e-007	-3.0626e-007	3.93891e-007	2.17817e-007	2.58893e-008	-7.17226e-007	-7.27002e-007	2.90405e-007	5.1569e-007	-3.21546e-007	4.51425e-007	1.63594e-007	-4.09474e-007
-3.45354e-007	6.74615e-007	-5.53338e-007	2.65388e-007	6.56869e-008	-1.34366e-007	-6.08803e-007	-3.62155e-007	5.26447e-007	4.63262e-007	-5.85649e-007	4.96348e-007	3.68553e-007	-2.70635e-007
-6.85959e-007	5.75908e-007	-4.22164e-007	4.57833e-009	-4.14163e-007	-7.06628e-007	-1.17715e-007	1.74665e-007	5.4267e-007	2.69393e-007	-1.02714e-007	2.79914e-007	4.00835e-007	2.01383e-007
-6.82586e-007	5.81338e-007	-6.22539e-007	1.6511e-007	-1.65393e-007	-4.78844e-007	-2.97782e-007	3.14733e-008	4.92216e-007	4.05924e-007	-2.71327e-007	3.66345e-007	3.80085e-007	9.59809e-008
1.2387e-007	5.99855e-007	-1.35715e-007	4.75346e-007	4.02274e-007	2.89358e-007	-4.36824e-007	-6.99273e-007	2.64566e-007	4.9514e-007	-5.52939e-007	3.49028e-007	-1.72532e-007	-1.00215e-006
-3.1766e-007	1.77519e-007	-2.89603e-007	1.50322e-007	3.73654e-007	-4.89684e-008	-3.6498e-008	7.03498e-008	1.67991e-007	-8.87505e-009	-2.00822e-007	-7.90338e-008	4.8788e-008	-7.16382e-009
-5.00359e-007	6.5703e-007	-5.4261e-007	2.41122e-007	-2.52655e-008	-2.98944e-007	-5.63998e-007	-2.46065e-007	5.18738e-007	4.2503e-007	-3.23866e-007	3.84387e-007	3.48957e-007	-7.41567e-008
-6.89396e-007	3.1322e-007	-3.22142e-007	7.24183e-007	4.06721e-007	-1.01287e-006	-2.57496e-007	-1.13844e-007	1.55951e-007	4.90554e-007	-7.83361e-008	2.71813e-007	1.29229e-007	-1.759e-008
-4.73647e-007	5.17392e-007	-5.26604e-007	3.62312e-007	1.59593e-007	-1.8927e-007	-3.73475e-007	-1.11172e-007	3.73824e-007	3.45416e-007	-3.41989e-007	1.65311e-007	1.78831e-007	-8.65227e-008
-5.68423e-007	3.69531e-007	-4.16701e-007	4.67302e-007	3.19726e-007	-3.90407e-007	-2.33613e-007	-4.76042e-008	2.51863e-007	2.84866e-007	-2.20574e-007	1.05096e-007	1.18365e-007	-3.94293e-008
-5.44168e-007	5.11314e-007	-3.96229e-007	3.23148e-007	-6.72932e-008	-4.4421e-007	-4.03662e-007	-1.86712e-007	3.21007e-007	4.66971e-007	-1.41537e-007	3.49206e-007	2.38275e-007	-2.61095e-008
-3.95037e-007	6.35044e-007	-4.67504e-007	3.39362e-007	1.18158e-007	-1.70102e-007	-5.49183e-007	-3.15225e-007	4.45749e-007	4.0034e-007	-3.36216e-007	2.57304e-007	2.11302e-007	-1.73995e-007
